network unknown{
}
variable v_1_1 {
  type discrete [ 2 ] { yes, false };
}
variable v_1_2 {
  type discrete [ 2 ] { yes, false };
}
variable v_1_3 {
  type discrete [ 2 ] { yes, false };
}
variable v_1_4 {
  type discrete [ 2 ] { yes, false };
}
variable v_1_5 {
  type discrete [ 2 ] { yes, false };
}
variable v_1_6 {
  type discrete [ 2 ] { yes, false };
}
variable v_1_7 {
  type discrete [ 2 ] { yes, false };
}
variable v_1_8 {
  type discrete [ 2 ] { yes, false };
}
variable v_1_9 {
  type discrete [ 2 ] { yes, false };
}
variable v_1_10 {
  type discrete [ 2 ] { yes, false };
}
variable v_2_1 {
  type discrete [ 2 ] { yes, false };
}
variable v_2_2 {
  type discrete [ 2 ] { yes, false };
}
variable v_2_3 {
  type discrete [ 2 ] { yes, false };
}
variable v_2_4 {
  type discrete [ 2 ] { yes, false };
}
variable v_2_5 {
  type discrete [ 2 ] { yes, false };
}
variable v_2_6 {
  type discrete [ 2 ] { yes, false };
}
variable v_2_7 {
  type discrete [ 2 ] { yes, false };
}
variable v_2_8 {
  type discrete [ 2 ] { yes, false };
}
variable v_2_9 {
  type discrete [ 2 ] { yes, false };
}
variable v_2_10 {
  type discrete [ 2 ] { yes, false };
}
variable v_3_1 {
  type discrete [ 2 ] { yes, false };
}
variable v_3_2 {
  type discrete [ 2 ] { yes, false };
}
variable v_3_3 {
  type discrete [ 2 ] { yes, false };
}
variable v_3_4 {
  type discrete [ 2 ] { yes, false };
}
variable v_3_5 {
  type discrete [ 2 ] { yes, false };
}
variable v_3_6 {
  type discrete [ 2 ] { yes, false };
}
variable v_3_7 {
  type discrete [ 2 ] { yes, false };
}
variable v_3_8 {
  type discrete [ 2 ] { yes, false };
}
variable v_3_9 {
  type discrete [ 2 ] { yes, false };
}
variable v_3_10 {
  type discrete [ 2 ] { yes, false };
}
variable v_4_1 {
  type discrete [ 2 ] { yes, false };
}
variable v_4_2 {
  type discrete [ 2 ] { yes, false };
}
variable v_4_3 {
  type discrete [ 2 ] { yes, false };
}
variable v_4_4 {
  type discrete [ 2 ] { yes, false };
}
variable v_4_5 {
  type discrete [ 2 ] { yes, false };
}
variable v_4_6 {
  type discrete [ 2 ] { yes, false };
}
variable v_4_7 {
  type discrete [ 2 ] { yes, false };
}
variable v_4_8 {
  type discrete [ 2 ] { yes, false };
}
variable v_4_9 {
  type discrete [ 2 ] { yes, false };
}
variable v_4_10 {
  type discrete [ 2 ] { yes, false };
}
variable v_5_1 {
  type discrete [ 2 ] { yes, false };
}
variable v_5_2 {
  type discrete [ 2 ] { yes, false };
}
variable v_5_3 {
  type discrete [ 2 ] { yes, false };
}
variable v_5_4 {
  type discrete [ 2 ] { yes, false };
}
variable v_5_5 {
  type discrete [ 2 ] { yes, false };
}
variable v_5_6 {
  type discrete [ 2 ] { yes, false };
}
variable v_5_7 {
  type discrete [ 2 ] { yes, false };
}
variable v_5_8 {
  type discrete [ 2 ] { yes, false };
}
variable v_5_9 {
  type discrete [ 2 ] { yes, false };
}
variable v_5_10 {
  type discrete [ 2 ] { yes, false };
}
variable v_6_1 {
  type discrete [ 2 ] { yes, false };
}
variable v_6_2 {
  type discrete [ 2 ] { yes, false };
}
variable v_6_3 {
  type discrete [ 2 ] { yes, false };
}
variable v_6_4 {
  type discrete [ 2 ] { yes, false };
}
variable v_6_5 {
  type discrete [ 2 ] { yes, false };
}
variable v_6_6 {
  type discrete [ 2 ] { yes, false };
}
variable v_6_7 {
  type discrete [ 2 ] { yes, false };
}
variable v_6_8 {
  type discrete [ 2 ] { yes, false };
}
variable v_6_9 {
  type discrete [ 2 ] { yes, false };
}
variable v_6_10 {
  type discrete [ 2 ] { yes, false };
}
variable v_7_1 {
  type discrete [ 2 ] { yes, false };
}
variable v_7_2 {
  type discrete [ 2 ] { yes, false };
}
variable v_7_3 {
  type discrete [ 2 ] { yes, false };
}
variable v_7_4 {
  type discrete [ 2 ] { yes, false };
}
variable v_7_5 {
  type discrete [ 2 ] { yes, false };
}
variable v_7_6 {
  type discrete [ 2 ] { yes, false };
}
variable v_7_7 {
  type discrete [ 2 ] { yes, false };
}
variable v_7_8 {
  type discrete [ 2 ] { yes, false };
}
variable v_7_9 {
  type discrete [ 2 ] { yes, false };
}
variable v_7_10 {
  type discrete [ 2 ] { yes, false };
}
variable v_8_1 {
  type discrete [ 2 ] { yes, false };
}
variable v_8_2 {
  type discrete [ 2 ] { yes, false };
}
variable v_8_3 {
  type discrete [ 2 ] { yes, false };
}
variable v_8_4 {
  type discrete [ 2 ] { yes, false };
}
variable v_8_5 {
  type discrete [ 2 ] { yes, false };
}
variable v_8_6 {
  type discrete [ 2 ] { yes, false };
}
variable v_8_7 {
  type discrete [ 2 ] { yes, false };
}
variable v_8_8 {
  type discrete [ 2 ] { yes, false };
}
variable v_8_9 {
  type discrete [ 2 ] { yes, false };
}
variable v_8_10 {
  type discrete [ 2 ] { yes, false };
}
variable v_9_1 {
  type discrete [ 2 ] { yes, false };
}
variable v_9_2 {
  type discrete [ 2 ] { yes, false };
}
variable v_9_3 {
  type discrete [ 2 ] { yes, false };
}
variable v_9_4 {
  type discrete [ 2 ] { yes, false };
}
variable v_9_5 {
  type discrete [ 2 ] { yes, false };
}
variable v_9_6 {
  type discrete [ 2 ] { yes, false };
}
variable v_9_7 {
  type discrete [ 2 ] { yes, false };
}
variable v_9_8 {
  type discrete [ 2 ] { yes, false };
}
variable v_9_9 {
  type discrete [ 2 ] { yes, false };
}
variable v_9_10 {
  type discrete [ 2 ] { yes, false };
}
variable v_10_1 {
  type discrete [ 2 ] { yes, false };
}
variable v_10_2 {
  type discrete [ 2 ] { yes, false };
}
variable v_10_3 {
  type discrete [ 2 ] { yes, false };
}
variable v_10_4 {
  type discrete [ 2 ] { yes, false };
}
variable v_10_5 {
  type discrete [ 2 ] { yes, false };
}
variable v_10_6 {
  type discrete [ 2 ] { yes, false };
}
variable v_10_7 {
  type discrete [ 2 ] { yes, false };
}
variable v_10_8 {
  type discrete [ 2 ] { yes, false };
}
variable v_10_9 {
  type discrete [ 2 ] { yes, false };
}
variable v_10_10 {
  type discrete [ 2 ] { yes, false };
}
probability ( v_1_1 ) {
  table 0.510935, 0.489065;
}
probability ( v_1_2 | v_1_1 ) {
  (true) 0.770834, 0.229166;
  (false) 0.118514, 0.881486;
}
probability ( v_1_3 | v_1_2 ) {
  (true) 1.0, 0.0;
  (false) 0.0, 1.0;
}
probability ( v_1_4 | v_1_3 ) {
  (true) 1.0, 0.0;
  (false) 0.0, 1.0;
}
probability ( v_1_5 | v_1_4 ) {
  (true) 0.976768, 0.0232319;
  (false) 0.231647, 0.768353;
}
probability ( v_1_6 | v_1_5 ) {
  (true) 1.0, 0.0;
  (false) 0.0, 1.0;
}
probability ( v_1_7 | v_1_6 ) {
  (true) 0.994614, 0.0053861;
  (false) 0.565051, 0.434949;
}
probability ( v_1_8 | v_1_7 ) {
  (true) 0.0, 1.0;
  (false) 1.0, 0.0;
}
probability ( v_1_9 | v_1_8 ) {
  (true) 0.0, 1.0;
  (false) 1.0, 0.0;
}
probability ( v_1_10 | v_1_9 ) {
  (true) 0.934675, 0.0653251;
  (false) 0.0741432, 0.925857;
}
probability ( v_2_1 | v_1_1 ) {
  (true) 1.0, 0.0;
  (false) 0.0, 1.0;
}
probability ( v_2_2 | v_2_1, v_1_2 ) {
  (true, true) 0.211962, 0.788038;
  (true, false) 0.0642358, 0.935764;
  (false, true) 0.867779, 0.132221;
  (false, false) 0.682725, 0.317275;
}
probability ( v_2_3 | v_2_2, v_1_3 ) {
  (true, true) 0.378714, 0.621286;
  (true, false) 0.304915, 0.695085;
  (false, true) 0.71417, 0.28583;
  (false, false) 0.497228, 0.502772;
}
probability ( v_2_4 | v_2_3, v_1_4 ) {
  (true, true) 0.233855, 0.766145;
  (true, false) 0.787136, 0.212864;
  (false, true) 0.445248, 0.554752;
  (false, false) 0.0384622, 0.961538;
}
probability ( v_2_5 | v_2_4, v_1_5 ) {
  (true, true) 0.676894, 0.323106;
  (true, false) 0.313891, 0.686109;
  (false, true) 0.476893, 0.523107;
  (false, false) 0.536903, 0.463097;
}
probability ( v_2_6 | v_2_5, v_1_6 ) {
  (true, true) 0.0, 1.0;
  (true, false) 1.0, 0.0;
  (false, true) 1.0, 0.0;
  (false, false) 0.0, 1.0;
}
probability ( v_2_7 | v_2_6, v_1_7 ) {
  (true, true) 0.873609, 0.126391;
  (true, false) 0.330379, 0.669621;
  (false, true) 0.758336, 0.241664;
  (false, false) 0.170917, 0.829083;
}
probability ( v_2_8 | v_2_7, v_1_8 ) {
  (true, true) 0.511939, 0.488061;
  (true, false) 0.38288, 0.61712;
  (false, true) 0.806984, 0.193016;
  (false, false) 0.379718, 0.620282;
}
probability ( v_2_9 | v_2_8, v_1_9 ) {
  (true, true) 0.0, 1.0;
  (true, false) 1.0, 0.0;
  (false, true) 1.0, 0.0;
  (false, false) 0.0, 1.0;
}
probability ( v_2_10 | v_2_9, v_1_10 ) {
  (true, true) 0.0, 1.0;
  (true, false) 1.0, 0.0;
  (false, true) 1.0, 0.0;
  (false, false) 0.0, 1.0;
}
probability ( v_3_1 | v_2_1 ) {
  (true) 0.8067, 0.1933;
  (false) 0.125572, 0.874428;
}
probability ( v_3_2 | v_3_1, v_2_2 ) {
  (true, true) 1.0, 0.0;
  (true, false) 0.0, 1.0;
  (false, true) 0.0, 1.0;
  (false, false) 1.0, 0.0;
}
probability ( v_3_3 | v_3_2, v_2_3 ) {
  (true, true) 0.510764, 0.489236;
  (true, false) 0.721242, 0.278758;
  (false, true) 0.255981, 0.744019;
  (false, false) 0.384374, 0.615626;
}
probability ( v_3_4 | v_3_3, v_2_4 ) {
  (true, true) 1.0, 0.0;
  (true, false) 0.0, 1.0;
  (false, true) 0.0, 1.0;
  (false, false) 1.0, 0.0;
}
probability ( v_3_5 | v_3_4, v_2_5 ) {
  (true, true) 0.601354, 0.398646;
  (true, false) 0.905973, 0.0940266;
  (false, true) 0.00377581, 0.996224;
  (false, false) 0.351674, 0.648326;
}
probability ( v_3_6 | v_3_5, v_2_6 ) {
  (true, true) 0.374296, 0.625704;
  (true, false) 0.816164, 0.183836;
  (false, true) 0.920066, 0.0799343;
  (false, false) 0.377725, 0.622275;
}
probability ( v_3_7 | v_3_6, v_2_7 ) {
  (true, true) 0.962862, 0.0371381;
  (true, false) 0.826403, 0.173597;
  (false, true) 0.251316, 0.748684;
  (false, false) 0.769562, 0.230438;
}
probability ( v_3_8 | v_3_7, v_2_8 ) {
  (true, true) 0.302013, 0.697987;
  (true, false) 0.0531557, 0.946844;
  (false, true) 0.614451, 0.385549;
  (false, false) 0.661215, 0.338785;
}
probability ( v_3_9 | v_3_8, v_2_9 ) {
  (true, true) 0.0, 1.0;
  (true, false) 0.0, 1.0;
  (false, true) 0.0, 1.0;
  (false, false) 1.0, 0.0;
}
probability ( v_3_10 | v_3_9, v_2_10 ) {
  (true, true) 1.0, 0.0;
  (true, false) 0.0, 1.0;
  (false, true) 0.0, 1.0;
  (false, false) 0.0, 1.0;
}
probability ( v_4_1 | v_3_1 ) {
  (true) 1.0, 0.0;
  (false) 0.0, 1.0;
}
probability ( v_4_2 | v_4_1, v_3_2 ) {
  (true, true) 0.0535906, 0.946409;
  (true, false) 0.898956, 0.101044;
  (false, true) 0.55317, 0.44683;
  (false, false) 0.427886, 0.572114;
}
probability ( v_4_3 | v_4_2, v_3_3 ) {
  (true, true) 0.473236, 0.526764;
  (true, false) 0.805612, 0.194388;
  (false, true) 0.22963, 0.77037;
  (false, false) 0.436098, 0.563902;
}
probability ( v_4_4 | v_4_3, v_3_4 ) {
  (true, true) 0.480945, 0.519055;
  (true, false) 0.20566, 0.79434;
  (false, true) 0.58399, 0.41601;
  (false, false) 0.782959, 0.217041;
}
probability ( v_4_5 | v_4_4, v_3_5 ) {
  (true, true) 0.0, 1.0;
  (true, false) 0.0, 1.0;
  (false, true) 1.0, 0.0;
  (false, false) 1.0, 0.0;
}
probability ( v_4_6 | v_4_5, v_3_6 ) {
  (true, true) 0.737445, 0.262555;
  (true, false) 0.826899, 0.173101;
  (false, true) 0.172507, 0.827493;
  (false, false) 0.889003, 0.110997;
}
probability ( v_4_7 | v_4_6, v_3_7 ) {
  (true, true) 1.0, 0.0;
  (true, false) 0.0, 1.0;
  (false, true) 1.0, 0.0;
  (false, false) 0.0, 1.0;
}
probability ( v_4_8 | v_4_7, v_3_8 ) {
  (true, true) 1.0, 0.0;
  (true, false) 1.0, 0.0;
  (false, true) 1.0, 0.0;
  (false, false) 0.0, 1.0;
}
probability ( v_4_9 | v_4_8, v_3_9 ) {
  (true, true) 0.996289, 0.00371144;
  (true, false) 0.181397, 0.818603;
  (false, true) 0.621055, 0.378945;
  (false, false) 0.225918, 0.774082;
}
probability ( v_4_10 | v_4_9, v_3_10 ) {
  (true, true) 0.25307, 0.74693;
  (true, false) 0.706864, 0.293136;
  (false, true) 0.823155, 0.176845;
  (false, false) 0.83706, 0.16294;
}
probability ( v_5_1 | v_4_1 ) {
  (true) 1.0, 0.0;
  (false) 0.0, 1.0;
}
probability ( v_5_2 | v_5_1, v_4_2 ) {
  (true, true) 1.0, 0.0;
  (true, false) 0.0, 1.0;
  (false, true) 1.0, 0.0;
  (false, false) 1.0, 0.0;
}
probability ( v_5_3 | v_5_2, v_4_3 ) {
  (true, true) 1.0, 0.0;
  (true, false) 0.0, 1.0;
  (false, true) 0.0, 1.0;
  (false, false) 0.0, 1.0;
}
probability ( v_5_4 | v_5_3, v_4_4 ) {
  (true, true) 1.0, 0.0;
  (true, false) 1.0, 0.0;
  (false, true) 0.0, 1.0;
  (false, false) 0.0, 1.0;
}
probability ( v_5_5 | v_5_4, v_4_5 ) {
  (true, true) 0.728332, 0.271668;
  (true, false) 0.844238, 0.155762;
  (false, true) 0.659894, 0.340106;
  (false, false) 0.543775, 0.456225;
}
probability ( v_5_6 | v_5_5, v_4_6 ) {
  (true, true) 0.841291, 0.158709;
  (true, false) 0.16483, 0.83517;
  (false, true) 0.0664448, 0.933555;
  (false, false) 0.458787, 0.541213;
}
probability ( v_5_7 | v_5_6, v_4_7 ) {
  (true, true) 0.0, 1.0;
  (true, false) 0.0, 1.0;
  (false, true) 1.0, 0.0;
  (false, false) 1.0, 0.0;
}
probability ( v_5_8 | v_5_7, v_4_8 ) {
  (true, true) 1.0, 0.0;
  (true, false) 0.0, 1.0;
  (false, true) 1.0, 0.0;
  (false, false) 1.0, 0.0;
}
probability ( v_5_9 | v_5_8, v_4_9 ) {
  (true, true) 0.540318, 0.459682;
  (true, false) 0.957721, 0.0422787;
  (false, true) 0.469935, 0.530065;
  (false, false) 0.886246, 0.113754;
}
probability ( v_5_10 | v_5_9, v_4_10 ) {
  (true, true) 0.0, 1.0;
  (true, false) 1.0, 0.0;
  (false, true) 1.0, 0.0;
  (false, false) 0.0, 1.0;
}
probability ( v_6_1 | v_5_1 ) {
  (true) 0.236711, 0.763289;
  (false) 0.545851, 0.454149;
}
probability ( v_6_2 | v_6_1, v_5_2 ) {
  (true, true) 1.0, 0.0;
  (true, false) 1.0, 0.0;
  (false, true) 0.0, 1.0;
  (false, false) 1.0, 0.0;
}
probability ( v_6_3 | v_6_2, v_5_3 ) {
  (true, true) 1.0, 0.0;
  (true, false) 0.0, 1.0;
  (false, true) 0.0, 1.0;
  (false, false) 1.0, 0.0;
}
probability ( v_6_4 | v_6_3, v_5_4 ) {
  (true, true) 1.0, 0.0;
  (true, false) 0.0, 1.0;
  (false, true) 1.0, 0.0;
  (false, false) 1.0, 0.0;
}
probability ( v_6_5 | v_6_4, v_5_5 ) {
  (true, true) 0.928416, 0.0715838;
  (true, false) 0.362228, 0.637772;
  (false, true) 0.466248, 0.533752;
  (false, false) 0.886138, 0.113862;
}
probability ( v_6_6 | v_6_5, v_5_6 ) {
  (true, true) 0.352494, 0.647506;
  (true, false) 0.374374, 0.625626;
  (false, true) 0.308907, 0.691093;
  (false, false) 0.419599, 0.580401;
}
probability ( v_6_7 | v_6_6, v_5_7 ) {
  (true, true) 0.126426, 0.873574;
  (true, false) 0.0497728, 0.950227;
  (false, true) 0.896063, 0.103937;
  (false, false) 0.672277, 0.327723;
}
probability ( v_6_8 | v_6_7, v_5_8 ) {
  (true, true) 0.792668, 0.207332;
  (true, false) 0.761902, 0.238098;
  (false, true) 0.839125, 0.160875;
  (false, false) 0.530564, 0.469436;
}
probability ( v_6_9 | v_6_8, v_5_9 ) {
  (true, true) 1.0, 0.0;
  (true, false) 0.0, 1.0;
  (false, true) 1.0, 0.0;
  (false, false) 1.0, 0.0;
}
probability ( v_6_10 | v_6_9, v_5_10 ) {
  (true, true) 1.0, 0.0;
  (true, false) 0.0, 1.0;
  (false, true) 0.0, 1.0;
  (false, false) 0.0, 1.0;
}
probability ( v_7_1 | v_6_1 ) {
  (true) 1.0, 0.0;
  (false) 0.0, 1.0;
}
probability ( v_7_2 | v_7_1, v_6_2 ) {
  (true, true) 0.770202, 0.229798;
  (true, false) 0.440588, 0.559412;
  (false, true) 0.648355, 0.351645;
  (false, false) 0.602365, 0.397635;
}
probability ( v_7_3 | v_7_2, v_6_3 ) {
  (true, true) 0.0227295, 0.97727;
  (true, false) 0.911272, 0.0887283;
  (false, true) 0.21268, 0.78732;
  (false, false) 0.682082, 0.317918;
}
probability ( v_7_4 | v_7_3, v_6_4 ) {
  (true, true) 1.0, 0.0;
  (true, false) 1.0, 0.0;
  (false, true) 1.0, 0.0;
  (false, false) 0.0, 1.0;
}
probability ( v_7_5 | v_7_4, v_6_5 ) {
  (true, true) 1.0, 0.0;
  (true, false) 0.0, 1.0;
  (false, true) 1.0, 0.0;
  (false, false) 0.0, 1.0;
}
probability ( v_7_6 | v_7_5, v_6_6 ) {
  (true, true) 0.628625, 0.371375;
  (true, false) 0.176946, 0.823054;
  (false, true) 0.221473, 0.778527;
  (false, false) 0.834497, 0.165503;
}
probability ( v_7_7 | v_7_6, v_6_7 ) {
  (true, true) 0.0144967, 0.985503;
  (true, false) 0.882906, 0.117094;
  (false, true) 0.626774, 0.373226;
  (false, false) 0.422471, 0.577529;
}
probability ( v_7_8 | v_7_7, v_6_8 ) {
  (true, true) 0.388992, 0.611008;
  (true, false) 0.192673, 0.807327;
  (false, true) 0.297833, 0.702167;
  (false, false) 0.0373472, 0.962653;
}
probability ( v_7_9 | v_7_8, v_6_9 ) {
  (true, true) 0.0909148, 0.909085;
  (true, false) 0.0600767, 0.939923;
  (false, true) 0.70631, 0.29369;
  (false, false) 0.303595, 0.696405;
}
probability ( v_7_10 | v_7_9, v_6_10 ) {
  (true, true) 0.744007, 0.255993;
  (true, false) 0.566049, 0.433951;
  (false, true) 0.320304, 0.679696;
  (false, false) 0.453981, 0.546019;
}
probability ( v_8_1 | v_7_1 ) {
  (true) 0.0, 1.0;
  (false) 1.0, 0.0;
}
probability ( v_8_2 | v_8_1, v_7_2 ) {
  (true, true) 0.97845, 0.0215497;
  (true, false) 0.592495, 0.407505;
  (false, true) 0.414091, 0.585909;
  (false, false) 0.824722, 0.175278;
}
probability ( v_8_3 | v_8_2, v_7_3 ) {
  (true, true) 0.0, 1.0;
  (true, false) 1.0, 0.0;
  (false, true) 0.0, 1.0;
  (false, false) 1.0, 0.0;
}
probability ( v_8_4 | v_8_3, v_7_4 ) {
  (true, true) 1.0, 0.0;
  (true, false) 1.0, 0.0;
  (false, true) 1.0, 0.0;
  (false, false) 0.0, 1.0;
}
probability ( v_8_5 | v_8_4, v_7_5 ) {
  (true, true) 1.0, 0.0;
  (true, false) 0.0, 1.0;
  (false, true) 0.0, 1.0;
  (false, false) 0.0, 1.0;
}
probability ( v_8_6 | v_8_5, v_7_6 ) {
  (true, true) 1.0, 0.0;
  (true, false) 1.0, 0.0;
  (false, true) 1.0, 0.0;
  (false, false) 0.0, 1.0;
}
probability ( v_8_7 | v_8_6, v_7_7 ) {
  (true, true) 0.0, 1.0;
  (true, false) 0.0, 1.0;
  (false, true) 1.0, 0.0;
  (false, false) 0.0, 1.0;
}
probability ( v_8_8 | v_8_7, v_7_8 ) {
  (true, true) 1.0, 0.0;
  (true, false) 0.0, 1.0;
  (false, true) 0.0, 1.0;
  (false, false) 0.0, 1.0;
}
probability ( v_8_9 | v_8_8, v_7_9 ) {
  (true, true) 0.0, 1.0;
  (true, false) 1.0, 0.0;
  (false, true) 0.0, 1.0;
  (false, false) 1.0, 0.0;
}
probability ( v_8_10 | v_8_9, v_7_10 ) {
  (true, true) 0.0, 1.0;
  (true, false) 1.0, 0.0;
  (false, true) 1.0, 0.0;
  (false, false) 0.0, 1.0;
}
probability ( v_9_1 | v_8_1 ) {
  (true) 1.0, 0.0;
  (false) 0.0, 1.0;
}
probability ( v_9_2 | v_9_1, v_8_2 ) {
  (true, true) 0.537845, 0.462155;
  (true, false) 0.946775, 0.0532251;
  (false, true) 0.132416, 0.867584;
  (false, false) 0.0350436, 0.964956;
}
probability ( v_9_3 | v_9_2, v_8_3 ) {
  (true, true) 0.0, 1.0;
  (true, false) 1.0, 0.0;
  (false, true) 1.0, 0.0;
  (false, false) 1.0, 0.0;
}
probability ( v_9_4 | v_9_3, v_8_4 ) {
  (true, true) 0.420317, 0.579683;
  (true, false) 0.0815335, 0.918466;
  (false, true) 0.0848404, 0.91516;
  (false, false) 0.721345, 0.278655;
}
probability ( v_9_5 | v_9_4, v_8_5 ) {
  (true, true) 0.0, 1.0;
  (true, false) 0.0, 1.0;
  (false, true) 1.0, 0.0;
  (false, false) 0.0, 1.0;
}
probability ( v_9_6 | v_9_5, v_8_6 ) {
  (true, true) 0.933063, 0.066937;
  (true, false) 0.112515, 0.887485;
  (false, true) 0.432783, 0.567217;
  (false, false) 0.249968, 0.750032;
}
probability ( v_9_7 | v_9_6, v_8_7 ) {
  (true, true) 1.0, 0.0;
  (true, false) 0.0, 1.0;
  (false, true) 1.0, 0.0;
  (false, false) 0.0, 1.0;
}
probability ( v_9_8 | v_9_7, v_8_8 ) {
  (true, true) 0.973247, 0.0267531;
  (true, false) 0.772297, 0.227703;
  (false, true) 0.472711, 0.527289;
  (false, false) 0.105663, 0.894337;
}
probability ( v_9_9 | v_9_8, v_8_9 ) {
  (true, true) 0.596669, 0.403331;
  (true, false) 0.72619, 0.27381;
  (false, true) 0.0817421, 0.918258;
  (false, false) 0.641815, 0.358185;
}
probability ( v_9_10 | v_9_9, v_8_10 ) {
  (true, true) 1.0, 0.0;
  (true, false) 1.0, 0.0;
  (false, true) 1.0, 0.0;
  (false, false) 0.0, 1.0;
}
probability ( v_10_1 | v_9_1 ) {
  (true) 0.928758, 0.0712419;
  (false) 0.219942, 0.780058;
}
probability ( v_10_2 | v_10_1, v_9_2 ) {
  (true, true) 0.921264, 0.0787362;
  (true, false) 0.96256, 0.0374399;
  (false, true) 0.559154, 0.440846;
  (false, false) 0.0337788, 0.966221;
}
probability ( v_10_3 | v_10_2, v_9_3 ) {
  (true, true) 0.0, 1.0;
  (true, false) 1.0, 0.0;
  (false, true) 1.0, 0.0;
  (false, false) 0.0, 1.0;
}
probability ( v_10_4 | v_10_3, v_9_4 ) {
  (true, true) 1.0, 0.0;
  (true, false) 1.0, 0.0;
  (false, true) 0.0, 1.0;
  (false, false) 0.0, 1.0;
}
probability ( v_10_5 | v_10_4, v_9_5 ) {
  (true, true) 0.309082, 0.690918;
  (true, false) 0.343164, 0.656836;
  (false, true) 0.454472, 0.545528;
  (false, false) 0.0352722, 0.964728;
}
probability ( v_10_6 | v_10_5, v_9_6 ) {
  (true, true) 0.0, 1.0;
  (true, false) 0.0, 1.0;
  (false, true) 1.0, 0.0;
  (false, false) 1.0, 0.0;
}
probability ( v_10_7 | v_10_6, v_9_7 ) {
  (true, true) 0.341356, 0.658644;
  (true, false) 0.941898, 0.0581019;
  (false, true) 0.867801, 0.132199;
  (false, false) 0.270114, 0.729886;
}
probability ( v_10_8 | v_10_7, v_9_8 ) {
  (true, true) 1.0, 0.0;
  (true, false) 0.0, 1.0;
  (false, true) 0.0, 1.0;
  (false, false) 1.0, 0.0;
}
probability ( v_10_9 | v_10_8, v_9_9 ) {
  (true, true) 0.0, 1.0;
  (true, false) 1.0, 0.0;
  (false, true) 0.0, 1.0;
  (false, false) 1.0, 0.0;
}
probability ( v_10_10 | v_10_9, v_9_10 ) {
  (true, true) 0.660154, 0.339846;
  (true, false) 0.812342, 0.187658;
  (false, true) 0.106415, 0.893585;
  (false, false) 0.863572, 0.136428;
}
