network unknown{
}
variable v_1_1 {
  type discrete [ 2 ] { yes, false };
}
variable v_1_2 {
  type discrete [ 2 ] { yes, false };
}
variable v_1_3 {
  type discrete [ 2 ] { yes, false };
}
variable v_1_4 {
  type discrete [ 2 ] { yes, false };
}
variable v_1_5 {
  type discrete [ 2 ] { yes, false };
}
variable v_1_6 {
  type discrete [ 2 ] { yes, false };
}
variable v_1_7 {
  type discrete [ 2 ] { yes, false };
}
variable v_1_8 {
  type discrete [ 2 ] { yes, false };
}
variable v_1_9 {
  type discrete [ 2 ] { yes, false };
}
variable v_1_10 {
  type discrete [ 2 ] { yes, false };
}
variable v_2_1 {
  type discrete [ 2 ] { yes, false };
}
variable v_2_2 {
  type discrete [ 2 ] { yes, false };
}
variable v_2_3 {
  type discrete [ 2 ] { yes, false };
}
variable v_2_4 {
  type discrete [ 2 ] { yes, false };
}
variable v_2_5 {
  type discrete [ 2 ] { yes, false };
}
variable v_2_6 {
  type discrete [ 2 ] { yes, false };
}
variable v_2_7 {
  type discrete [ 2 ] { yes, false };
}
variable v_2_8 {
  type discrete [ 2 ] { yes, false };
}
variable v_2_9 {
  type discrete [ 2 ] { yes, false };
}
variable v_2_10 {
  type discrete [ 2 ] { yes, false };
}
variable v_3_1 {
  type discrete [ 2 ] { yes, false };
}
variable v_3_2 {
  type discrete [ 2 ] { yes, false };
}
variable v_3_3 {
  type discrete [ 2 ] { yes, false };
}
variable v_3_4 {
  type discrete [ 2 ] { yes, false };
}
variable v_3_5 {
  type discrete [ 2 ] { yes, false };
}
variable v_3_6 {
  type discrete [ 2 ] { yes, false };
}
variable v_3_7 {
  type discrete [ 2 ] { yes, false };
}
variable v_3_8 {
  type discrete [ 2 ] { yes, false };
}
variable v_3_9 {
  type discrete [ 2 ] { yes, false };
}
variable v_3_10 {
  type discrete [ 2 ] { yes, false };
}
variable v_4_1 {
  type discrete [ 2 ] { yes, false };
}
variable v_4_2 {
  type discrete [ 2 ] { yes, false };
}
variable v_4_3 {
  type discrete [ 2 ] { yes, false };
}
variable v_4_4 {
  type discrete [ 2 ] { yes, false };
}
variable v_4_5 {
  type discrete [ 2 ] { yes, false };
}
variable v_4_6 {
  type discrete [ 2 ] { yes, false };
}
variable v_4_7 {
  type discrete [ 2 ] { yes, false };
}
variable v_4_8 {
  type discrete [ 2 ] { yes, false };
}
variable v_4_9 {
  type discrete [ 2 ] { yes, false };
}
variable v_4_10 {
  type discrete [ 2 ] { yes, false };
}
variable v_5_1 {
  type discrete [ 2 ] { yes, false };
}
variable v_5_2 {
  type discrete [ 2 ] { yes, false };
}
variable v_5_3 {
  type discrete [ 2 ] { yes, false };
}
variable v_5_4 {
  type discrete [ 2 ] { yes, false };
}
variable v_5_5 {
  type discrete [ 2 ] { yes, false };
}
variable v_5_6 {
  type discrete [ 2 ] { yes, false };
}
variable v_5_7 {
  type discrete [ 2 ] { yes, false };
}
variable v_5_8 {
  type discrete [ 2 ] { yes, false };
}
variable v_5_9 {
  type discrete [ 2 ] { yes, false };
}
variable v_5_10 {
  type discrete [ 2 ] { yes, false };
}
variable v_6_1 {
  type discrete [ 2 ] { yes, false };
}
variable v_6_2 {
  type discrete [ 2 ] { yes, false };
}
variable v_6_3 {
  type discrete [ 2 ] { yes, false };
}
variable v_6_4 {
  type discrete [ 2 ] { yes, false };
}
variable v_6_5 {
  type discrete [ 2 ] { yes, false };
}
variable v_6_6 {
  type discrete [ 2 ] { yes, false };
}
variable v_6_7 {
  type discrete [ 2 ] { yes, false };
}
variable v_6_8 {
  type discrete [ 2 ] { yes, false };
}
variable v_6_9 {
  type discrete [ 2 ] { yes, false };
}
variable v_6_10 {
  type discrete [ 2 ] { yes, false };
}
variable v_7_1 {
  type discrete [ 2 ] { yes, false };
}
variable v_7_2 {
  type discrete [ 2 ] { yes, false };
}
variable v_7_3 {
  type discrete [ 2 ] { yes, false };
}
variable v_7_4 {
  type discrete [ 2 ] { yes, false };
}
variable v_7_5 {
  type discrete [ 2 ] { yes, false };
}
variable v_7_6 {
  type discrete [ 2 ] { yes, false };
}
variable v_7_7 {
  type discrete [ 2 ] { yes, false };
}
variable v_7_8 {
  type discrete [ 2 ] { yes, false };
}
variable v_7_9 {
  type discrete [ 2 ] { yes, false };
}
variable v_7_10 {
  type discrete [ 2 ] { yes, false };
}
variable v_8_1 {
  type discrete [ 2 ] { yes, false };
}
variable v_8_2 {
  type discrete [ 2 ] { yes, false };
}
variable v_8_3 {
  type discrete [ 2 ] { yes, false };
}
variable v_8_4 {
  type discrete [ 2 ] { yes, false };
}
variable v_8_5 {
  type discrete [ 2 ] { yes, false };
}
variable v_8_6 {
  type discrete [ 2 ] { yes, false };
}
variable v_8_7 {
  type discrete [ 2 ] { yes, false };
}
variable v_8_8 {
  type discrete [ 2 ] { yes, false };
}
variable v_8_9 {
  type discrete [ 2 ] { yes, false };
}
variable v_8_10 {
  type discrete [ 2 ] { yes, false };
}
variable v_9_1 {
  type discrete [ 2 ] { yes, false };
}
variable v_9_2 {
  type discrete [ 2 ] { yes, false };
}
variable v_9_3 {
  type discrete [ 2 ] { yes, false };
}
variable v_9_4 {
  type discrete [ 2 ] { yes, false };
}
variable v_9_5 {
  type discrete [ 2 ] { yes, false };
}
variable v_9_6 {
  type discrete [ 2 ] { yes, false };
}
variable v_9_7 {
  type discrete [ 2 ] { yes, false };
}
variable v_9_8 {
  type discrete [ 2 ] { yes, false };
}
variable v_9_9 {
  type discrete [ 2 ] { yes, false };
}
variable v_9_10 {
  type discrete [ 2 ] { yes, false };
}
variable v_10_1 {
  type discrete [ 2 ] { yes, false };
}
variable v_10_2 {
  type discrete [ 2 ] { yes, false };
}
variable v_10_3 {
  type discrete [ 2 ] { yes, false };
}
variable v_10_4 {
  type discrete [ 2 ] { yes, false };
}
variable v_10_5 {
  type discrete [ 2 ] { yes, false };
}
variable v_10_6 {
  type discrete [ 2 ] { yes, false };
}
variable v_10_7 {
  type discrete [ 2 ] { yes, false };
}
variable v_10_8 {
  type discrete [ 2 ] { yes, false };
}
variable v_10_9 {
  type discrete [ 2 ] { yes, false };
}
variable v_10_10 {
  type discrete [ 2 ] { yes, false };
}
probability ( v_1_1 ) {
  table 0.774269, 0.225731;
}
probability ( v_1_2 | v_1_1 ) {
  (true) 1.0, 0.0;
  (false) 0.0, 1.0;
}
probability ( v_1_3 | v_1_2 ) {
  (true) 0.16962, 0.83038;
  (false) 0.939627, 0.0603726;
}
probability ( v_1_4 | v_1_3 ) {
  (true) 0.900743, 0.0992565;
  (false) 0.554285, 0.445715;
}
probability ( v_1_5 | v_1_4 ) {
  (true) 0.251743, 0.748257;
  (false) 0.0760383, 0.923962;
}
probability ( v_1_6 | v_1_5 ) {
  (true) 0.0, 1.0;
  (false) 1.0, 0.0;
}
probability ( v_1_7 | v_1_6 ) {
  (true) 0.525533, 0.474467;
  (false) 0.0876795, 0.912321;
}
probability ( v_1_8 | v_1_7 ) {
  (true) 0.0, 1.0;
  (false) 1.0, 0.0;
}
probability ( v_1_9 | v_1_8 ) {
  (true) 0.317534, 0.682466;
  (false) 0.333413, 0.666587;
}
probability ( v_1_10 | v_1_9 ) {
  (true) 0.0, 1.0;
  (false) 1.0, 0.0;
}
probability ( v_2_1 | v_1_1 ) {
  (true) 0.0, 1.0;
  (false) 1.0, 0.0;
}
probability ( v_2_2 | v_2_1, v_1_2 ) {
  (true, true) 1.0, 0.0;
  (true, false) 0.0, 1.0;
  (false, true) 0.0, 1.0;
  (false, false) 0.0, 1.0;
}
probability ( v_2_3 | v_2_2, v_1_3 ) {
  (true, true) 0.0673013, 0.932699;
  (true, false) 0.915549, 0.0844508;
  (false, true) 0.535172, 0.464828;
  (false, false) 0.236922, 0.763078;
}
probability ( v_2_4 | v_2_3, v_1_4 ) {
  (true, true) 0.443425, 0.556575;
  (true, false) 0.137665, 0.862335;
  (false, true) 0.409462, 0.590538;
  (false, false) 0.395745, 0.604255;
}
probability ( v_2_5 | v_2_4, v_1_5 ) {
  (true, true) 1.0, 0.0;
  (true, false) 1.0, 0.0;
  (false, true) 1.0, 0.0;
  (false, false) 0.0, 1.0;
}
probability ( v_2_6 | v_2_5, v_1_6 ) {
  (true, true) 0.869127, 0.130873;
  (true, false) 0.37691, 0.62309;
  (false, true) 0.357918, 0.642082;
  (false, false) 0.436417, 0.563583;
}
probability ( v_2_7 | v_2_6, v_1_7 ) {
  (true, true) 0.691332, 0.308668;
  (true, false) 0.908342, 0.0916584;
  (false, true) 0.812949, 0.187051;
  (false, false) 0.17422, 0.82578;
}
probability ( v_2_8 | v_2_7, v_1_8 ) {
  (true, true) 1.0, 0.0;
  (true, false) 1.0, 0.0;
  (false, true) 0.0, 1.0;
  (false, false) 0.0, 1.0;
}
probability ( v_2_9 | v_2_8, v_1_9 ) {
  (true, true) 1.0, 0.0;
  (true, false) 1.0, 0.0;
  (false, true) 0.0, 1.0;
  (false, false) 1.0, 0.0;
}
probability ( v_2_10 | v_2_9, v_1_10 ) {
  (true, true) 1.0, 0.0;
  (true, false) 0.0, 1.0;
  (false, true) 0.0, 1.0;
  (false, false) 1.0, 0.0;
}
probability ( v_3_1 | v_2_1 ) {
  (true) 1.0, 0.0;
  (false) 0.0, 1.0;
}
probability ( v_3_2 | v_3_1, v_2_2 ) {
  (true, true) 0.535337, 0.464663;
  (true, false) 0.413016, 0.586984;
  (false, true) 0.845928, 0.154072;
  (false, false) 0.518861, 0.481139;
}
probability ( v_3_3 | v_3_2, v_2_3 ) {
  (true, true) 1.0, 0.0;
  (true, false) 0.0, 1.0;
  (false, true) 0.0, 1.0;
  (false, false) 1.0, 0.0;
}
probability ( v_3_4 | v_3_3, v_2_4 ) {
  (true, true) 0.626903, 0.373097;
  (true, false) 0.73023, 0.26977;
  (false, true) 0.742332, 0.257668;
  (false, false) 0.672599, 0.327401;
}
probability ( v_3_5 | v_3_4, v_2_5 ) {
  (true, true) 0.213194, 0.786806;
  (true, false) 0.659814, 0.340186;
  (false, true) 0.481138, 0.518862;
  (false, false) 0.286652, 0.713348;
}
probability ( v_3_6 | v_3_5, v_2_6 ) {
  (true, true) 1.0, 0.0;
  (true, false) 0.0, 1.0;
  (false, true) 1.0, 0.0;
  (false, false) 0.0, 1.0;
}
probability ( v_3_7 | v_3_6, v_2_7 ) {
  (true, true) 1.0, 0.0;
  (true, false) 0.0, 1.0;
  (false, true) 0.0, 1.0;
  (false, false) 1.0, 0.0;
}
probability ( v_3_8 | v_3_7, v_2_8 ) {
  (true, true) 0.0, 1.0;
  (true, false) 0.0, 1.0;
  (false, true) 0.0, 1.0;
  (false, false) 1.0, 0.0;
}
probability ( v_3_9 | v_3_8, v_2_9 ) {
  (true, true) 1.0, 0.0;
  (true, false) 0.0, 1.0;
  (false, true) 0.0, 1.0;
  (false, false) 1.0, 0.0;
}
probability ( v_3_10 | v_3_9, v_2_10 ) {
  (true, true) 0.36756, 0.63244;
  (true, false) 0.82891, 0.17109;
  (false, true) 0.60136, 0.39864;
  (false, false) 0.0401591, 0.959841;
}
probability ( v_4_1 | v_3_1 ) {
  (true) 0.814554, 0.185446;
  (false) 0.699973, 0.300027;
}
probability ( v_4_2 | v_4_1, v_3_2 ) {
  (true, true) 0.101205, 0.898795;
  (true, false) 0.0627904, 0.93721;
  (false, true) 0.339626, 0.660374;
  (false, false) 0.376864, 0.623136;
}
probability ( v_4_3 | v_4_2, v_3_3 ) {
  (true, true) 0.792834, 0.207166;
  (true, false) 0.496707, 0.503293;
  (false, true) 0.946376, 0.0536244;
  (false, false) 0.488202, 0.511798;
}
probability ( v_4_4 | v_4_3, v_3_4 ) {
  (true, true) 0.306314, 0.693686;
  (true, false) 0.815139, 0.184861;
  (false, true) 0.98283, 0.0171703;
  (false, false) 0.201589, 0.798411;
}
probability ( v_4_5 | v_4_4, v_3_5 ) {
  (true, true) 0.941392, 0.0586082;
  (true, false) 0.615725, 0.384275;
  (false, true) 0.577188, 0.422812;
  (false, false) 0.122791, 0.877209;
}
probability ( v_4_6 | v_4_5, v_3_6 ) {
  (true, true) 0.317846, 0.682154;
  (true, false) 0.221471, 0.778529;
  (false, true) 0.76567, 0.23433;
  (false, false) 0.685406, 0.314594;
}
probability ( v_4_7 | v_4_6, v_3_7 ) {
  (true, true) 1.0, 0.0;
  (true, false) 1.0, 0.0;
  (false, true) 0.0, 1.0;
  (false, false) 0.0, 1.0;
}
probability ( v_4_8 | v_4_7, v_3_8 ) {
  (true, true) 0.0, 1.0;
  (true, false) 0.0, 1.0;
  (false, true) 1.0, 0.0;
  (false, false) 1.0, 0.0;
}
probability ( v_4_9 | v_4_8, v_3_9 ) {
  (true, true) 0.152112, 0.847888;
  (true, false) 0.683531, 0.316469;
  (false, true) 0.15636, 0.84364;
  (false, false) 0.0984872, 0.901513;
}
probability ( v_4_10 | v_4_9, v_3_10 ) {
  (true, true) 1.0, 0.0;
  (true, false) 1.0, 0.0;
  (false, true) 1.0, 0.0;
  (false, false) 0.0, 1.0;
}
probability ( v_5_1 | v_4_1 ) {
  (true) 0.541963, 0.458037;
  (false) 0.950777, 0.0492231;
}
probability ( v_5_2 | v_5_1, v_4_2 ) {
  (true, true) 0.0, 1.0;
  (true, false) 1.0, 0.0;
  (false, true) 0.0, 1.0;
  (false, false) 0.0, 1.0;
}
probability ( v_5_3 | v_5_2, v_4_3 ) {
  (true, true) 0.0, 1.0;
  (true, false) 1.0, 0.0;
  (false, true) 0.0, 1.0;
  (false, false) 0.0, 1.0;
}
probability ( v_5_4 | v_5_3, v_4_4 ) {
  (true, true) 0.443041, 0.556959;
  (true, false) 0.273507, 0.726493;
  (false, true) 0.456648, 0.543352;
  (false, false) 0.72583, 0.27417;
}
probability ( v_5_5 | v_5_4, v_4_5 ) {
  (true, true) 0.347345, 0.652655;
  (true, false) 0.385483, 0.614517;
  (false, true) 0.913947, 0.0860526;
  (false, false) 0.0308763, 0.969124;
}
probability ( v_5_6 | v_5_5, v_4_6 ) {
  (true, true) 0.0124346, 0.987565;
  (true, false) 0.202609, 0.797391;
  (false, true) 0.568398, 0.431602;
  (false, false) 0.417236, 0.582764;
}
probability ( v_5_7 | v_5_6, v_4_7 ) {
  (true, true) 1.0, 0.0;
  (true, false) 0.0, 1.0;
  (false, true) 1.0, 0.0;
  (false, false) 0.0, 1.0;
}
probability ( v_5_8 | v_5_7, v_4_8 ) {
  (true, true) 1.0, 0.0;
  (true, false) 0.0, 1.0;
  (false, true) 0.0, 1.0;
  (false, false) 1.0, 0.0;
}
probability ( v_5_9 | v_5_8, v_4_9 ) {
  (true, true) 0.268924, 0.731076;
  (true, false) 0.409997, 0.590003;
  (false, true) 0.242588, 0.757412;
  (false, false) 0.530381, 0.469619;
}
probability ( v_5_10 | v_5_9, v_4_10 ) {
  (true, true) 1.0, 0.0;
  (true, false) 1.0, 0.0;
  (false, true) 0.0, 1.0;
  (false, false) 0.0, 1.0;
}
probability ( v_6_1 | v_5_1 ) {
  (true) 0.293309, 0.706691;
  (false) 0.952157, 0.0478426;
}
probability ( v_6_2 | v_6_1, v_5_2 ) {
  (true, true) 0.0, 1.0;
  (true, false) 1.0, 0.0;
  (false, true) 0.0, 1.0;
  (false, false) 1.0, 0.0;
}
probability ( v_6_3 | v_6_2, v_5_3 ) {
  (true, true) 0.0, 1.0;
  (true, false) 1.0, 0.0;
  (false, true) 0.0, 1.0;
  (false, false) 1.0, 0.0;
}
probability ( v_6_4 | v_6_3, v_5_4 ) {
  (true, true) 0.106568, 0.893432;
  (true, false) 0.30132, 0.69868;
  (false, true) 0.906292, 0.0937081;
  (false, false) 0.957164, 0.0428358;
}
probability ( v_6_5 | v_6_4, v_5_5 ) {
  (true, true) 0.280789, 0.719211;
  (true, false) 0.244758, 0.755242;
  (false, true) 0.800616, 0.199384;
  (false, false) 0.549714, 0.450286;
}
probability ( v_6_6 | v_6_5, v_5_6 ) {
  (true, true) 0.043204, 0.956796;
  (true, false) 0.0800949, 0.919905;
  (false, true) 0.91272, 0.0872795;
  (false, false) 0.191369, 0.808631;
}
probability ( v_6_7 | v_6_6, v_5_7 ) {
  (true, true) 0.0, 1.0;
  (true, false) 1.0, 0.0;
  (false, true) 0.0, 1.0;
  (false, false) 0.0, 1.0;
}
probability ( v_6_8 | v_6_7, v_5_8 ) {
  (true, true) 0.837503, 0.162497;
  (true, false) 0.944758, 0.0552418;
  (false, true) 0.731372, 0.268628;
  (false, false) 0.46408, 0.53592;
}
probability ( v_6_9 | v_6_8, v_5_9 ) {
  (true, true) 0.0, 1.0;
  (true, false) 1.0, 0.0;
  (false, true) 1.0, 0.0;
  (false, false) 0.0, 1.0;
}
probability ( v_6_10 | v_6_9, v_5_10 ) {
  (true, true) 1.0, 0.0;
  (true, false) 1.0, 0.0;
  (false, true) 0.0, 1.0;
  (false, false) 1.0, 0.0;
}
probability ( v_7_1 | v_6_1 ) {
  (true) 0.0, 1.0;
  (false) 1.0, 0.0;
}
probability ( v_7_2 | v_7_1, v_6_2 ) {
  (true, true) 0.600629, 0.399371;
  (true, false) 0.4372, 0.5628;
  (false, true) 0.198721, 0.801279;
  (false, false) 0.255384, 0.744616;
}
probability ( v_7_3 | v_7_2, v_6_3 ) {
  (true, true) 0.0, 1.0;
  (true, false) 1.0, 0.0;
  (false, true) 1.0, 0.0;
  (false, false) 0.0, 1.0;
}
probability ( v_7_4 | v_7_3, v_6_4 ) {
  (true, true) 0.467954, 0.532046;
  (true, false) 0.0851016, 0.914898;
  (false, true) 0.3498, 0.6502;
  (false, false) 0.216292, 0.783708;
}
probability ( v_7_5 | v_7_4, v_6_5 ) {
  (true, true) 0.294558, 0.705442;
  (true, false) 0.947664, 0.0523359;
  (false, true) 0.386685, 0.613315;
  (false, false) 0.459007, 0.540993;
}
probability ( v_7_6 | v_7_5, v_6_6 ) {
  (true, true) 0.0457411, 0.954259;
  (true, false) 0.260382, 0.739618;
  (false, true) 0.156818, 0.843182;
  (false, false) 0.477557, 0.522443;
}
probability ( v_7_7 | v_7_6, v_6_7 ) {
  (true, true) 0.555526, 0.444474;
  (true, false) 0.210692, 0.789308;
  (false, true) 0.0905272, 0.909473;
  (false, false) 0.911397, 0.0886027;
}
probability ( v_7_8 | v_7_7, v_6_8 ) {
  (true, true) 0.739535, 0.260465;
  (true, false) 0.512027, 0.487973;
  (false, true) 0.284476, 0.715524;
  (false, false) 0.938256, 0.0617438;
}
probability ( v_7_9 | v_7_8, v_6_9 ) {
  (true, true) 0.764879, 0.235121;
  (true, false) 0.217072, 0.782928;
  (false, true) 0.935515, 0.0644851;
  (false, false) 0.436652, 0.563348;
}
probability ( v_7_10 | v_7_9, v_6_10 ) {
  (true, true) 0.547813, 0.452187;
  (true, false) 0.904606, 0.0953944;
  (false, true) 0.634507, 0.365493;
  (false, false) 0.897612, 0.102388;
}
probability ( v_8_1 | v_7_1 ) {
  (true) 0.0, 1.0;
  (false) 1.0, 0.0;
}
probability ( v_8_2 | v_8_1, v_7_2 ) {
  (true, true) 1.0, 0.0;
  (true, false) 0.0, 1.0;
  (false, true) 0.0, 1.0;
  (false, false) 1.0, 0.0;
}
probability ( v_8_3 | v_8_2, v_7_3 ) {
  (true, true) 0.911559, 0.0884408;
  (true, false) 0.0900594, 0.909941;
  (false, true) 0.467094, 0.532906;
  (false, false) 0.633868, 0.366132;
}
probability ( v_8_4 | v_8_3, v_7_4 ) {
  (true, true) 0.677786, 0.322214;
  (true, false) 0.724395, 0.275605;
  (false, true) 0.556982, 0.443018;
  (false, false) 0.525062, 0.474938;
}
probability ( v_8_5 | v_8_4, v_7_5 ) {
  (true, true) 0.0, 1.0;
  (true, false) 0.0, 1.0;
  (false, true) 0.0, 1.0;
  (false, false) 1.0, 0.0;
}
probability ( v_8_6 | v_8_5, v_7_6 ) {
  (true, true) 0.619259, 0.380741;
  (true, false) 0.771934, 0.228066;
  (false, true) 0.0110691, 0.988931;
  (false, false) 0.168664, 0.831336;
}
probability ( v_8_7 | v_8_6, v_7_7 ) {
  (true, true) 0.0, 1.0;
  (true, false) 0.0, 1.0;
  (false, true) 1.0, 0.0;
  (false, false) 0.0, 1.0;
}
probability ( v_8_8 | v_8_7, v_7_8 ) {
  (true, true) 1.0, 0.0;
  (true, false) 0.0, 1.0;
  (false, true) 1.0, 0.0;
  (false, false) 0.0, 1.0;
}
probability ( v_8_9 | v_8_8, v_7_9 ) {
  (true, true) 1.0, 0.0;
  (true, false) 1.0, 0.0;
  (false, true) 0.0, 1.0;
  (false, false) 0.0, 1.0;
}
probability ( v_8_10 | v_8_9, v_7_10 ) {
  (true, true) 0.438496, 0.561504;
  (true, false) 0.330529, 0.669471;
  (false, true) 0.331002, 0.668998;
  (false, false) 0.963558, 0.0364418;
}
probability ( v_9_1 | v_8_1 ) {
  (true) 0.400011, 0.599989;
  (false) 0.773096, 0.226904;
}
probability ( v_9_2 | v_9_1, v_8_2 ) {
  (true, true) 0.0, 1.0;
  (true, false) 0.0, 1.0;
  (false, true) 1.0, 0.0;
  (false, false) 1.0, 0.0;
}
probability ( v_9_3 | v_9_2, v_8_3 ) {
  (true, true) 1.0, 0.0;
  (true, false) 0.0, 1.0;
  (false, true) 0.0, 1.0;
  (false, false) 1.0, 0.0;
}
probability ( v_9_4 | v_9_3, v_8_4 ) {
  (true, true) 0.310829, 0.689171;
  (true, false) 0.148021, 0.851979;
  (false, true) 0.955002, 0.0449983;
  (false, false) 0.415964, 0.584036;
}
probability ( v_9_5 | v_9_4, v_8_5 ) {
  (true, true) 0.0, 1.0;
  (true, false) 0.0, 1.0;
  (false, true) 1.0, 0.0;
  (false, false) 1.0, 0.0;
}
probability ( v_9_6 | v_9_5, v_8_6 ) {
  (true, true) 0.506426, 0.493574;
  (true, false) 0.594109, 0.405891;
  (false, true) 0.356794, 0.643206;
  (false, false) 0.944922, 0.0550775;
}
probability ( v_9_7 | v_9_6, v_8_7 ) {
  (true, true) 0.687796, 0.312204;
  (true, false) 0.908481, 0.0915193;
  (false, true) 0.719098, 0.280902;
  (false, false) 0.0878071, 0.912193;
}
probability ( v_9_8 | v_9_7, v_8_8 ) {
  (true, true) 0.915743, 0.0842567;
  (true, false) 0.324238, 0.675762;
  (false, true) 0.0290896, 0.97091;
  (false, false) 0.731648, 0.268352;
}
probability ( v_9_9 | v_9_8, v_8_9 ) {
  (true, true) 1.0, 0.0;
  (true, false) 0.0, 1.0;
  (false, true) 1.0, 0.0;
  (false, false) 1.0, 0.0;
}
probability ( v_9_10 | v_9_9, v_8_10 ) {
  (true, true) 0.206188, 0.793812;
  (true, false) 0.972758, 0.027242;
  (false, true) 0.651976, 0.348024;
  (false, false) 0.161189, 0.838811;
}
probability ( v_10_1 | v_9_1 ) {
  (true) 0.0, 1.0;
  (false) 1.0, 0.0;
}
probability ( v_10_2 | v_10_1, v_9_2 ) {
  (true, true) 1.0, 0.0;
  (true, false) 0.0, 1.0;
  (false, true) 0.0, 1.0;
  (false, false) 0.0, 1.0;
}
probability ( v_10_3 | v_10_2, v_9_3 ) {
  (true, true) 1.0, 0.0;
  (true, false) 0.0, 1.0;
  (false, true) 1.0, 0.0;
  (false, false) 1.0, 0.0;
}
probability ( v_10_4 | v_10_3, v_9_4 ) {
  (true, true) 1.0, 0.0;
  (true, false) 0.0, 1.0;
  (false, true) 0.0, 1.0;
  (false, false) 1.0, 0.0;
}
probability ( v_10_5 | v_10_4, v_9_5 ) {
  (true, true) 0.920288, 0.0797119;
  (true, false) 0.0501087, 0.949891;
  (false, true) 0.215072, 0.784928;
  (false, false) 0.30796, 0.69204;
}
probability ( v_10_6 | v_10_5, v_9_6 ) {
  (true, true) 0.875788, 0.124212;
  (true, false) 0.969888, 0.0301115;
  (false, true) 0.270279, 0.729721;
  (false, false) 0.0819754, 0.918025;
}
probability ( v_10_7 | v_10_6, v_9_7 ) {
  (true, true) 0.922256, 0.0777444;
  (true, false) 0.243165, 0.756835;
  (false, true) 0.331368, 0.668632;
  (false, false) 0.026332, 0.973668;
}
probability ( v_10_8 | v_10_7, v_9_8 ) {
  (true, true) 0.0, 1.0;
  (true, false) 1.0, 0.0;
  (false, true) 1.0, 0.0;
  (false, false) 0.0, 1.0;
}
probability ( v_10_9 | v_10_8, v_9_9 ) {
  (true, true) 0.0, 1.0;
  (true, false) 1.0, 0.0;
  (false, true) 0.0, 1.0;
  (false, false) 1.0, 0.0;
}
probability ( v_10_10 | v_10_9, v_9_10 ) {
  (true, true) 0.743106, 0.256894;
  (true, false) 0.430256, 0.569744;
  (false, true) 0.411546, 0.588454;
  (false, false) 0.634305, 0.365695;
}
