network unknown{
}
variable v_1_1 {
  type discrete [ 2 ] { yes, false };
}
variable v_1_2 {
  type discrete [ 2 ] { yes, false };
}
variable v_1_3 {
  type discrete [ 2 ] { yes, false };
}
variable v_1_4 {
  type discrete [ 2 ] { yes, false };
}
variable v_1_5 {
  type discrete [ 2 ] { yes, false };
}
variable v_1_6 {
  type discrete [ 2 ] { yes, false };
}
variable v_1_7 {
  type discrete [ 2 ] { yes, false };
}
variable v_1_8 {
  type discrete [ 2 ] { yes, false };
}
variable v_1_9 {
  type discrete [ 2 ] { yes, false };
}
variable v_1_10 {
  type discrete [ 2 ] { yes, false };
}
variable v_2_1 {
  type discrete [ 2 ] { yes, false };
}
variable v_2_2 {
  type discrete [ 2 ] { yes, false };
}
variable v_2_3 {
  type discrete [ 2 ] { yes, false };
}
variable v_2_4 {
  type discrete [ 2 ] { yes, false };
}
variable v_2_5 {
  type discrete [ 2 ] { yes, false };
}
variable v_2_6 {
  type discrete [ 2 ] { yes, false };
}
variable v_2_7 {
  type discrete [ 2 ] { yes, false };
}
variable v_2_8 {
  type discrete [ 2 ] { yes, false };
}
variable v_2_9 {
  type discrete [ 2 ] { yes, false };
}
variable v_2_10 {
  type discrete [ 2 ] { yes, false };
}
variable v_3_1 {
  type discrete [ 2 ] { yes, false };
}
variable v_3_2 {
  type discrete [ 2 ] { yes, false };
}
variable v_3_3 {
  type discrete [ 2 ] { yes, false };
}
variable v_3_4 {
  type discrete [ 2 ] { yes, false };
}
variable v_3_5 {
  type discrete [ 2 ] { yes, false };
}
variable v_3_6 {
  type discrete [ 2 ] { yes, false };
}
variable v_3_7 {
  type discrete [ 2 ] { yes, false };
}
variable v_3_8 {
  type discrete [ 2 ] { yes, false };
}
variable v_3_9 {
  type discrete [ 2 ] { yes, false };
}
variable v_3_10 {
  type discrete [ 2 ] { yes, false };
}
variable v_4_1 {
  type discrete [ 2 ] { yes, false };
}
variable v_4_2 {
  type discrete [ 2 ] { yes, false };
}
variable v_4_3 {
  type discrete [ 2 ] { yes, false };
}
variable v_4_4 {
  type discrete [ 2 ] { yes, false };
}
variable v_4_5 {
  type discrete [ 2 ] { yes, false };
}
variable v_4_6 {
  type discrete [ 2 ] { yes, false };
}
variable v_4_7 {
  type discrete [ 2 ] { yes, false };
}
variable v_4_8 {
  type discrete [ 2 ] { yes, false };
}
variable v_4_9 {
  type discrete [ 2 ] { yes, false };
}
variable v_4_10 {
  type discrete [ 2 ] { yes, false };
}
variable v_5_1 {
  type discrete [ 2 ] { yes, false };
}
variable v_5_2 {
  type discrete [ 2 ] { yes, false };
}
variable v_5_3 {
  type discrete [ 2 ] { yes, false };
}
variable v_5_4 {
  type discrete [ 2 ] { yes, false };
}
variable v_5_5 {
  type discrete [ 2 ] { yes, false };
}
variable v_5_6 {
  type discrete [ 2 ] { yes, false };
}
variable v_5_7 {
  type discrete [ 2 ] { yes, false };
}
variable v_5_8 {
  type discrete [ 2 ] { yes, false };
}
variable v_5_9 {
  type discrete [ 2 ] { yes, false };
}
variable v_5_10 {
  type discrete [ 2 ] { yes, false };
}
variable v_6_1 {
  type discrete [ 2 ] { yes, false };
}
variable v_6_2 {
  type discrete [ 2 ] { yes, false };
}
variable v_6_3 {
  type discrete [ 2 ] { yes, false };
}
variable v_6_4 {
  type discrete [ 2 ] { yes, false };
}
variable v_6_5 {
  type discrete [ 2 ] { yes, false };
}
variable v_6_6 {
  type discrete [ 2 ] { yes, false };
}
variable v_6_7 {
  type discrete [ 2 ] { yes, false };
}
variable v_6_8 {
  type discrete [ 2 ] { yes, false };
}
variable v_6_9 {
  type discrete [ 2 ] { yes, false };
}
variable v_6_10 {
  type discrete [ 2 ] { yes, false };
}
variable v_7_1 {
  type discrete [ 2 ] { yes, false };
}
variable v_7_2 {
  type discrete [ 2 ] { yes, false };
}
variable v_7_3 {
  type discrete [ 2 ] { yes, false };
}
variable v_7_4 {
  type discrete [ 2 ] { yes, false };
}
variable v_7_5 {
  type discrete [ 2 ] { yes, false };
}
variable v_7_6 {
  type discrete [ 2 ] { yes, false };
}
variable v_7_7 {
  type discrete [ 2 ] { yes, false };
}
variable v_7_8 {
  type discrete [ 2 ] { yes, false };
}
variable v_7_9 {
  type discrete [ 2 ] { yes, false };
}
variable v_7_10 {
  type discrete [ 2 ] { yes, false };
}
variable v_8_1 {
  type discrete [ 2 ] { yes, false };
}
variable v_8_2 {
  type discrete [ 2 ] { yes, false };
}
variable v_8_3 {
  type discrete [ 2 ] { yes, false };
}
variable v_8_4 {
  type discrete [ 2 ] { yes, false };
}
variable v_8_5 {
  type discrete [ 2 ] { yes, false };
}
variable v_8_6 {
  type discrete [ 2 ] { yes, false };
}
variable v_8_7 {
  type discrete [ 2 ] { yes, false };
}
variable v_8_8 {
  type discrete [ 2 ] { yes, false };
}
variable v_8_9 {
  type discrete [ 2 ] { yes, false };
}
variable v_8_10 {
  type discrete [ 2 ] { yes, false };
}
variable v_9_1 {
  type discrete [ 2 ] { yes, false };
}
variable v_9_2 {
  type discrete [ 2 ] { yes, false };
}
variable v_9_3 {
  type discrete [ 2 ] { yes, false };
}
variable v_9_4 {
  type discrete [ 2 ] { yes, false };
}
variable v_9_5 {
  type discrete [ 2 ] { yes, false };
}
variable v_9_6 {
  type discrete [ 2 ] { yes, false };
}
variable v_9_7 {
  type discrete [ 2 ] { yes, false };
}
variable v_9_8 {
  type discrete [ 2 ] { yes, false };
}
variable v_9_9 {
  type discrete [ 2 ] { yes, false };
}
variable v_9_10 {
  type discrete [ 2 ] { yes, false };
}
variable v_10_1 {
  type discrete [ 2 ] { yes, false };
}
variable v_10_2 {
  type discrete [ 2 ] { yes, false };
}
variable v_10_3 {
  type discrete [ 2 ] { yes, false };
}
variable v_10_4 {
  type discrete [ 2 ] { yes, false };
}
variable v_10_5 {
  type discrete [ 2 ] { yes, false };
}
variable v_10_6 {
  type discrete [ 2 ] { yes, false };
}
variable v_10_7 {
  type discrete [ 2 ] { yes, false };
}
variable v_10_8 {
  type discrete [ 2 ] { yes, false };
}
variable v_10_9 {
  type discrete [ 2 ] { yes, false };
}
variable v_10_10 {
  type discrete [ 2 ] { yes, false };
}
probability ( v_1_1 ) {
  table 0.207273, 0.792727;
}
probability ( v_1_2 | v_1_1 ) {
  (true) 0.0, 1.0;
  (false) 1.0, 0.0;
}
probability ( v_1_3 | v_1_2 ) {
  (true) 0.561267, 0.438733;
  (false) 0.630287, 0.369713;
}
probability ( v_1_4 | v_1_3 ) {
  (true) 0.368425, 0.631575;
  (false) 0.125672, 0.874328;
}
probability ( v_1_5 | v_1_4 ) {
  (true) 0.93669, 0.0633101;
  (false) 0.563003, 0.436997;
}
probability ( v_1_6 | v_1_5 ) {
  (true) 0.0, 1.0;
  (false) 1.0, 0.0;
}
probability ( v_1_7 | v_1_6 ) {
  (true) 0.613158, 0.386842;
  (false) 0.259117, 0.740883;
}
probability ( v_1_8 | v_1_7 ) {
  (true) 1.0, 0.0;
  (false) 0.0, 1.0;
}
probability ( v_1_9 | v_1_8 ) {
  (true) 0.28421, 0.71579;
  (false) 0.312382, 0.687618;
}
probability ( v_1_10 | v_1_9 ) {
  (true) 1.0, 0.0;
  (false) 0.0, 1.0;
}
probability ( v_2_1 | v_1_1 ) {
  (true) 0.0, 1.0;
  (false) 1.0, 0.0;
}
probability ( v_2_2 | v_2_1, v_1_2 ) {
  (true, true) 0.0, 1.0;
  (true, false) 0.0, 1.0;
  (false, true) 1.0, 0.0;
  (false, false) 1.0, 0.0;
}
probability ( v_2_3 | v_2_2, v_1_3 ) {
  (true, true) 0.949235, 0.0507647;
  (true, false) 0.543264, 0.456736;
  (false, true) 0.214985, 0.785015;
  (false, false) 0.510503, 0.489497;
}
probability ( v_2_4 | v_2_3, v_1_4 ) {
  (true, true) 1.0, 0.0;
  (true, false) 0.0, 1.0;
  (false, true) 1.0, 0.0;
  (false, false) 0.0, 1.0;
}
probability ( v_2_5 | v_2_4, v_1_5 ) {
  (true, true) 0.862226, 0.137774;
  (true, false) 0.347927, 0.652073;
  (false, true) 0.24328, 0.75672;
  (false, false) 0.677361, 0.322639;
}
probability ( v_2_6 | v_2_5, v_1_6 ) {
  (true, true) 0.502397, 0.497603;
  (true, false) 0.97147, 0.0285299;
  (false, true) 0.0207851, 0.979215;
  (false, false) 0.19968, 0.80032;
}
probability ( v_2_7 | v_2_6, v_1_7 ) {
  (true, true) 0.0, 1.0;
  (true, false) 1.0, 0.0;
  (false, true) 1.0, 0.0;
  (false, false) 0.0, 1.0;
}
probability ( v_2_8 | v_2_7, v_1_8 ) {
  (true, true) 1.0, 0.0;
  (true, false) 0.0, 1.0;
  (false, true) 1.0, 0.0;
  (false, false) 0.0, 1.0;
}
probability ( v_2_9 | v_2_8, v_1_9 ) {
  (true, true) 1.0, 0.0;
  (true, false) 1.0, 0.0;
  (false, true) 0.0, 1.0;
  (false, false) 1.0, 0.0;
}
probability ( v_2_10 | v_2_9, v_1_10 ) {
  (true, true) 0.784711, 0.215289;
  (true, false) 0.673555, 0.326445;
  (false, true) 0.441108, 0.558892;
  (false, false) 0.0839348, 0.916065;
}
probability ( v_3_1 | v_2_1 ) {
  (true) 0.256726, 0.743274;
  (false) 0.946161, 0.0538387;
}
probability ( v_3_2 | v_3_1, v_2_2 ) {
  (true, true) 0.0, 1.0;
  (true, false) 1.0, 0.0;
  (false, true) 1.0, 0.0;
  (false, false) 1.0, 0.0;
}
probability ( v_3_3 | v_3_2, v_2_3 ) {
  (true, true) 0.0513599, 0.94864;
  (true, false) 0.202082, 0.797918;
  (false, true) 0.850673, 0.149327;
  (false, false) 0.384527, 0.615473;
}
probability ( v_3_4 | v_3_3, v_2_4 ) {
  (true, true) 0.0621273, 0.937873;
  (true, false) 0.795251, 0.204749;
  (false, true) 0.893495, 0.106505;
  (false, false) 0.416077, 0.583923;
}
probability ( v_3_5 | v_3_4, v_2_5 ) {
  (true, true) 1.0, 0.0;
  (true, false) 1.0, 0.0;
  (false, true) 1.0, 0.0;
  (false, false) 0.0, 1.0;
}
probability ( v_3_6 | v_3_5, v_2_6 ) {
  (true, true) 0.707946, 0.292054;
  (true, false) 0.479071, 0.520929;
  (false, true) 0.132379, 0.867621;
  (false, false) 0.492658, 0.507342;
}
probability ( v_3_7 | v_3_6, v_2_7 ) {
  (true, true) 0.0, 1.0;
  (true, false) 0.0, 1.0;
  (false, true) 1.0, 0.0;
  (false, false) 1.0, 0.0;
}
probability ( v_3_8 | v_3_7, v_2_8 ) {
  (true, true) 0.943678, 0.0563221;
  (true, false) 0.330219, 0.669781;
  (false, true) 0.146277, 0.853723;
  (false, false) 0.974253, 0.0257473;
}
probability ( v_3_9 | v_3_8, v_2_9 ) {
  (true, true) 1.0, 0.0;
  (true, false) 0.0, 1.0;
  (false, true) 1.0, 0.0;
  (false, false) 0.0, 1.0;
}
probability ( v_3_10 | v_3_9, v_2_10 ) {
  (true, true) 0.0, 1.0;
  (true, false) 1.0, 0.0;
  (false, true) 0.0, 1.0;
  (false, false) 0.0, 1.0;
}
probability ( v_4_1 | v_3_1 ) {
  (true) 1.0, 0.0;
  (false) 0.0, 1.0;
}
probability ( v_4_2 | v_4_1, v_3_2 ) {
  (true, true) 0.588666, 0.411334;
  (true, false) 0.331069, 0.668931;
  (false, true) 0.526913, 0.473087;
  (false, false) 0.158864, 0.841136;
}
probability ( v_4_3 | v_4_2, v_3_3 ) {
  (true, true) 0.0, 1.0;
  (true, false) 1.0, 0.0;
  (false, true) 0.0, 1.0;
  (false, false) 1.0, 0.0;
}
probability ( v_4_4 | v_4_3, v_3_4 ) {
  (true, true) 0.108266, 0.891734;
  (true, false) 0.0327972, 0.967203;
  (false, true) 0.694944, 0.305056;
  (false, false) 0.631019, 0.368981;
}
probability ( v_4_5 | v_4_4, v_3_5 ) {
  (true, true) 0.0251634, 0.974837;
  (true, false) 0.777296, 0.222704;
  (false, true) 0.950728, 0.0492722;
  (false, false) 0.357786, 0.642214;
}
probability ( v_4_6 | v_4_5, v_3_6 ) {
  (true, true) 0.97634, 0.0236595;
  (true, false) 0.89249, 0.10751;
  (false, true) 0.110507, 0.889493;
  (false, false) 0.38648, 0.61352;
}
probability ( v_4_7 | v_4_6, v_3_7 ) {
  (true, true) 0.764576, 0.235424;
  (true, false) 0.591871, 0.408129;
  (false, true) 0.872975, 0.127025;
  (false, false) 0.834723, 0.165277;
}
probability ( v_4_8 | v_4_7, v_3_8 ) {
  (true, true) 0.448551, 0.551449;
  (true, false) 0.423389, 0.576611;
  (false, true) 0.157222, 0.842778;
  (false, false) 0.975464, 0.0245364;
}
probability ( v_4_9 | v_4_8, v_3_9 ) {
  (true, true) 0.196237, 0.803763;
  (true, false) 0.981447, 0.0185533;
  (false, true) 0.873496, 0.126504;
  (false, false) 0.72791, 0.27209;
}
probability ( v_4_10 | v_4_9, v_3_10 ) {
  (true, true) 0.0, 1.0;
  (true, false) 1.0, 0.0;
  (false, true) 0.0, 1.0;
  (false, false) 1.0, 0.0;
}
probability ( v_5_1 | v_4_1 ) {
  (true) 1.0, 0.0;
  (false) 0.0, 1.0;
}
probability ( v_5_2 | v_5_1, v_4_2 ) {
  (true, true) 1.0, 0.0;
  (true, false) 0.0, 1.0;
  (false, true) 0.0, 1.0;
  (false, false) 0.0, 1.0;
}
probability ( v_5_3 | v_5_2, v_4_3 ) {
  (true, true) 0.873564, 0.126436;
  (true, false) 0.462876, 0.537124;
  (false, true) 0.644594, 0.355406;
  (false, false) 0.638141, 0.361859;
}
probability ( v_5_4 | v_5_3, v_4_4 ) {
  (true, true) 1.0, 0.0;
  (true, false) 0.0, 1.0;
  (false, true) 0.0, 1.0;
  (false, false) 1.0, 0.0;
}
probability ( v_5_5 | v_5_4, v_4_5 ) {
  (true, true) 0.0381216, 0.961878;
  (true, false) 0.941584, 0.0584163;
  (false, true) 0.478505, 0.521495;
  (false, false) 0.234359, 0.765641;
}
probability ( v_5_6 | v_5_5, v_4_6 ) {
  (true, true) 0.352001, 0.647999;
  (true, false) 0.962269, 0.0377308;
  (false, true) 0.063086, 0.936914;
  (false, false) 0.090228, 0.909772;
}
probability ( v_5_7 | v_5_6, v_4_7 ) {
  (true, true) 0.235939, 0.764061;
  (true, false) 0.523399, 0.476601;
  (false, true) 0.265641, 0.734359;
  (false, false) 0.385267, 0.614733;
}
probability ( v_5_8 | v_5_7, v_4_8 ) {
  (true, true) 0.510132, 0.489868;
  (true, false) 0.485322, 0.514678;
  (false, true) 0.797853, 0.202147;
  (false, false) 0.273189, 0.726811;
}
probability ( v_5_9 | v_5_8, v_4_9 ) {
  (true, true) 0.506462, 0.493538;
  (true, false) 0.146753, 0.853247;
  (false, true) 0.024595, 0.975405;
  (false, false) 0.151056, 0.848944;
}
probability ( v_5_10 | v_5_9, v_4_10 ) {
  (true, true) 0.079342, 0.920658;
  (true, false) 0.668625, 0.331375;
  (false, true) 0.257757, 0.742243;
  (false, false) 0.960242, 0.0397582;
}
probability ( v_6_1 | v_5_1 ) {
  (true) 0.154009, 0.845991;
  (false) 0.998363, 0.00163654;
}
probability ( v_6_2 | v_6_1, v_5_2 ) {
  (true, true) 0.632514, 0.367486;
  (true, false) 0.232722, 0.767278;
  (false, true) 0.49936, 0.50064;
  (false, false) 0.984515, 0.0154849;
}
probability ( v_6_3 | v_6_2, v_5_3 ) {
  (true, true) 0.0, 1.0;
  (true, false) 1.0, 0.0;
  (false, true) 1.0, 0.0;
  (false, false) 0.0, 1.0;
}
probability ( v_6_4 | v_6_3, v_5_4 ) {
  (true, true) 0.259077, 0.740923;
  (true, false) 0.183651, 0.816349;
  (false, true) 0.579875, 0.420125;
  (false, false) 0.769209, 0.230791;
}
probability ( v_6_5 | v_6_4, v_5_5 ) {
  (true, true) 0.377727, 0.622273;
  (true, false) 0.0423982, 0.957602;
  (false, true) 0.230692, 0.769308;
  (false, false) 0.884189, 0.115811;
}
probability ( v_6_6 | v_6_5, v_5_6 ) {
  (true, true) 1.0, 0.0;
  (true, false) 0.0, 1.0;
  (false, true) 1.0, 0.0;
  (false, false) 1.0, 0.0;
}
probability ( v_6_7 | v_6_6, v_5_7 ) {
  (true, true) 1.0, 0.0;
  (true, false) 0.0, 1.0;
  (false, true) 1.0, 0.0;
  (false, false) 1.0, 0.0;
}
probability ( v_6_8 | v_6_7, v_5_8 ) {
  (true, true) 0.0183245, 0.981676;
  (true, false) 0.525957, 0.474043;
  (false, true) 0.414306, 0.585694;
  (false, false) 0.00283956, 0.99716;
}
probability ( v_6_9 | v_6_8, v_5_9 ) {
  (true, true) 0.976751, 0.0232485;
  (true, false) 0.0775827, 0.922417;
  (false, true) 0.714385, 0.285615;
  (false, false) 0.775136, 0.224864;
}
probability ( v_6_10 | v_6_9, v_5_10 ) {
  (true, true) 0.973462, 0.0265377;
  (true, false) 0.958787, 0.0412128;
  (false, true) 0.255599, 0.744401;
  (false, false) 0.742672, 0.257328;
}
probability ( v_7_1 | v_6_1 ) {
  (true) 0.633326, 0.366674;
  (false) 0.78507, 0.21493;
}
probability ( v_7_2 | v_7_1, v_6_2 ) {
  (true, true) 0.517516, 0.482484;
  (true, false) 0.974221, 0.0257789;
  (false, true) 0.113741, 0.886259;
  (false, false) 0.552762, 0.447238;
}
probability ( v_7_3 | v_7_2, v_6_3 ) {
  (true, true) 0.44837, 0.55163;
  (true, false) 0.256633, 0.743367;
  (false, true) 0.180068, 0.819932;
  (false, false) 0.743241, 0.256759;
}
probability ( v_7_4 | v_7_3, v_6_4 ) {
  (true, true) 0.565878, 0.434122;
  (true, false) 0.036476, 0.963524;
  (false, true) 0.510196, 0.489804;
  (false, false) 0.584203, 0.415797;
}
probability ( v_7_5 | v_7_4, v_6_5 ) {
  (true, true) 0.924502, 0.0754977;
  (true, false) 0.587042, 0.412958;
  (false, true) 0.283381, 0.716619;
  (false, false) 0.901254, 0.0987462;
}
probability ( v_7_6 | v_7_5, v_6_6 ) {
  (true, true) 0.997766, 0.00223352;
  (true, false) 0.67639, 0.32361;
  (false, true) 0.340349, 0.659651;
  (false, false) 0.971229, 0.0287712;
}
probability ( v_7_7 | v_7_6, v_6_7 ) {
  (true, true) 0.595949, 0.404051;
  (true, false) 0.7139, 0.2861;
  (false, true) 0.262938, 0.737062;
  (false, false) 0.229275, 0.770725;
}
probability ( v_7_8 | v_7_7, v_6_8 ) {
  (true, true) 1.0, 0.0;
  (true, false) 0.0, 1.0;
  (false, true) 0.0, 1.0;
  (false, false) 0.0, 1.0;
}
probability ( v_7_9 | v_7_8, v_6_9 ) {
  (true, true) 1.0, 0.0;
  (true, false) 0.0, 1.0;
  (false, true) 0.0, 1.0;
  (false, false) 1.0, 0.0;
}
probability ( v_7_10 | v_7_9, v_6_10 ) {
  (true, true) 0.0, 1.0;
  (true, false) 0.0, 1.0;
  (false, true) 1.0, 0.0;
  (false, false) 1.0, 0.0;
}
probability ( v_8_1 | v_7_1 ) {
  (true) 1.0, 0.0;
  (false) 0.0, 1.0;
}
probability ( v_8_2 | v_8_1, v_7_2 ) {
  (true, true) 0.0, 1.0;
  (true, false) 1.0, 0.0;
  (false, true) 1.0, 0.0;
  (false, false) 1.0, 0.0;
}
probability ( v_8_3 | v_8_2, v_7_3 ) {
  (true, true) 1.0, 0.0;
  (true, false) 0.0, 1.0;
  (false, true) 0.0, 1.0;
  (false, false) 1.0, 0.0;
}
probability ( v_8_4 | v_8_3, v_7_4 ) {
  (true, true) 1.0, 0.0;
  (true, false) 1.0, 0.0;
  (false, true) 0.0, 1.0;
  (false, false) 1.0, 0.0;
}
probability ( v_8_5 | v_8_4, v_7_5 ) {
  (true, true) 0.418417, 0.581583;
  (true, false) 0.21519, 0.78481;
  (false, true) 0.385548, 0.614452;
  (false, false) 0.101919, 0.898081;
}
probability ( v_8_6 | v_8_5, v_7_6 ) {
  (true, true) 0.987073, 0.0129266;
  (true, false) 0.528662, 0.471338;
  (false, true) 0.922813, 0.0771873;
  (false, false) 0.154477, 0.845523;
}
probability ( v_8_7 | v_8_6, v_7_7 ) {
  (true, true) 0.584445, 0.415555;
  (true, false) 0.906083, 0.0939174;
  (false, true) 0.0175338, 0.982466;
  (false, false) 0.17058, 0.82942;
}
probability ( v_8_8 | v_8_7, v_7_8 ) {
  (true, true) 1.0, 0.0;
  (true, false) 0.0, 1.0;
  (false, true) 0.0, 1.0;
  (false, false) 0.0, 1.0;
}
probability ( v_8_9 | v_8_8, v_7_9 ) {
  (true, true) 0.591626, 0.408374;
  (true, false) 0.911397, 0.0886034;
  (false, true) 0.620703, 0.379297;
  (false, false) 0.531198, 0.468802;
}
probability ( v_8_10 | v_8_9, v_7_10 ) {
  (true, true) 0.682597, 0.317403;
  (true, false) 0.700044, 0.299956;
  (false, true) 0.394226, 0.605774;
  (false, false) 0.865881, 0.134119;
}
probability ( v_9_1 | v_8_1 ) {
  (true) 0.358317, 0.641683;
  (false) 0.284298, 0.715702;
}
probability ( v_9_2 | v_9_1, v_8_2 ) {
  (true, true) 0.743865, 0.256135;
  (true, false) 0.386217, 0.613783;
  (false, true) 0.602248, 0.397752;
  (false, false) 0.730938, 0.269062;
}
probability ( v_9_3 | v_9_2, v_8_3 ) {
  (true, true) 0.525061, 0.474939;
  (true, false) 0.885415, 0.114585;
  (false, true) 0.906761, 0.0932392;
  (false, false) 0.109506, 0.890494;
}
probability ( v_9_4 | v_9_3, v_8_4 ) {
  (true, true) 0.924295, 0.0757053;
  (true, false) 0.280087, 0.719913;
  (false, true) 0.0362282, 0.963772;
  (false, false) 0.250862, 0.749138;
}
probability ( v_9_5 | v_9_4, v_8_5 ) {
  (true, true) 0.284232, 0.715768;
  (true, false) 0.88423, 0.11577;
  (false, true) 0.759804, 0.240196;
  (false, false) 0.875859, 0.124141;
}
probability ( v_9_6 | v_9_5, v_8_6 ) {
  (true, true) 0.380507, 0.619493;
  (true, false) 0.407056, 0.592944;
  (false, true) 0.698952, 0.301048;
  (false, false) 0.0631034, 0.936897;
}
probability ( v_9_7 | v_9_6, v_8_7 ) {
  (true, true) 1.0, 0.0;
  (true, false) 1.0, 0.0;
  (false, true) 0.0, 1.0;
  (false, false) 1.0, 0.0;
}
probability ( v_9_8 | v_9_7, v_8_8 ) {
  (true, true) 0.19536, 0.80464;
  (true, false) 0.5995, 0.4005;
  (false, true) 0.155902, 0.844098;
  (false, false) 0.926298, 0.0737021;
}
probability ( v_9_9 | v_9_8, v_8_9 ) {
  (true, true) 0.680963, 0.319037;
  (true, false) 0.811713, 0.188287;
  (false, true) 0.42114, 0.57886;
  (false, false) 0.79047, 0.20953;
}
probability ( v_9_10 | v_9_9, v_8_10 ) {
  (true, true) 0.345435, 0.654565;
  (true, false) 0.0705565, 0.929444;
  (false, true) 0.639439, 0.360561;
  (false, false) 0.596297, 0.403703;
}
probability ( v_10_1 | v_9_1 ) {
  (true) 0.0, 1.0;
  (false) 1.0, 0.0;
}
probability ( v_10_2 | v_10_1, v_9_2 ) {
  (true, true) 1.0, 0.0;
  (true, false) 1.0, 0.0;
  (false, true) 1.0, 0.0;
  (false, false) 0.0, 1.0;
}
probability ( v_10_3 | v_10_2, v_9_3 ) {
  (true, true) 0.0, 1.0;
  (true, false) 1.0, 0.0;
  (false, true) 0.0, 1.0;
  (false, false) 1.0, 0.0;
}
probability ( v_10_4 | v_10_3, v_9_4 ) {
  (true, true) 1.0, 0.0;
  (true, false) 0.0, 1.0;
  (false, true) 1.0, 0.0;
  (false, false) 1.0, 0.0;
}
probability ( v_10_5 | v_10_4, v_9_5 ) {
  (true, true) 0.953794, 0.0462057;
  (true, false) 0.746024, 0.253976;
  (false, true) 0.641436, 0.358564;
  (false, false) 0.468174, 0.531826;
}
probability ( v_10_6 | v_10_5, v_9_6 ) {
  (true, true) 1.0, 0.0;
  (true, false) 1.0, 0.0;
  (false, true) 0.0, 1.0;
  (false, false) 1.0, 0.0;
}
probability ( v_10_7 | v_10_6, v_9_7 ) {
  (true, true) 0.0, 1.0;
  (true, false) 0.0, 1.0;
  (false, true) 0.0, 1.0;
  (false, false) 1.0, 0.0;
}
probability ( v_10_8 | v_10_7, v_9_8 ) {
  (true, true) 0.311572, 0.688428;
  (true, false) 0.0650421, 0.934958;
  (false, true) 0.418998, 0.581002;
  (false, false) 0.587725, 0.412275;
}
probability ( v_10_9 | v_10_8, v_9_9 ) {
  (true, true) 0.0, 1.0;
  (true, false) 0.0, 1.0;
  (false, true) 1.0, 0.0;
  (false, false) 0.0, 1.0;
}
probability ( v_10_10 | v_10_9, v_9_10 ) {
  (true, true) 0.567003, 0.432997;
  (true, false) 0.975738, 0.0242624;
  (false, true) 0.150893, 0.849107;
  (false, false) 0.921297, 0.0787029;
}
