network unknown{
}
variable v_1_1 {
  type discrete [ 2 ] { yes, false };
}
variable v_1_2 {
  type discrete [ 2 ] { yes, false };
}
variable v_1_3 {
  type discrete [ 2 ] { yes, false };
}
variable v_1_4 {
  type discrete [ 2 ] { yes, false };
}
variable v_1_5 {
  type discrete [ 2 ] { yes, false };
}
variable v_1_6 {
  type discrete [ 2 ] { yes, false };
}
variable v_1_7 {
  type discrete [ 2 ] { yes, false };
}
variable v_1_8 {
  type discrete [ 2 ] { yes, false };
}
variable v_1_9 {
  type discrete [ 2 ] { yes, false };
}
variable v_1_10 {
  type discrete [ 2 ] { yes, false };
}
variable v_2_1 {
  type discrete [ 2 ] { yes, false };
}
variable v_2_2 {
  type discrete [ 2 ] { yes, false };
}
variable v_2_3 {
  type discrete [ 2 ] { yes, false };
}
variable v_2_4 {
  type discrete [ 2 ] { yes, false };
}
variable v_2_5 {
  type discrete [ 2 ] { yes, false };
}
variable v_2_6 {
  type discrete [ 2 ] { yes, false };
}
variable v_2_7 {
  type discrete [ 2 ] { yes, false };
}
variable v_2_8 {
  type discrete [ 2 ] { yes, false };
}
variable v_2_9 {
  type discrete [ 2 ] { yes, false };
}
variable v_2_10 {
  type discrete [ 2 ] { yes, false };
}
variable v_3_1 {
  type discrete [ 2 ] { yes, false };
}
variable v_3_2 {
  type discrete [ 2 ] { yes, false };
}
variable v_3_3 {
  type discrete [ 2 ] { yes, false };
}
variable v_3_4 {
  type discrete [ 2 ] { yes, false };
}
variable v_3_5 {
  type discrete [ 2 ] { yes, false };
}
variable v_3_6 {
  type discrete [ 2 ] { yes, false };
}
variable v_3_7 {
  type discrete [ 2 ] { yes, false };
}
variable v_3_8 {
  type discrete [ 2 ] { yes, false };
}
variable v_3_9 {
  type discrete [ 2 ] { yes, false };
}
variable v_3_10 {
  type discrete [ 2 ] { yes, false };
}
variable v_4_1 {
  type discrete [ 2 ] { yes, false };
}
variable v_4_2 {
  type discrete [ 2 ] { yes, false };
}
variable v_4_3 {
  type discrete [ 2 ] { yes, false };
}
variable v_4_4 {
  type discrete [ 2 ] { yes, false };
}
variable v_4_5 {
  type discrete [ 2 ] { yes, false };
}
variable v_4_6 {
  type discrete [ 2 ] { yes, false };
}
variable v_4_7 {
  type discrete [ 2 ] { yes, false };
}
variable v_4_8 {
  type discrete [ 2 ] { yes, false };
}
variable v_4_9 {
  type discrete [ 2 ] { yes, false };
}
variable v_4_10 {
  type discrete [ 2 ] { yes, false };
}
variable v_5_1 {
  type discrete [ 2 ] { yes, false };
}
variable v_5_2 {
  type discrete [ 2 ] { yes, false };
}
variable v_5_3 {
  type discrete [ 2 ] { yes, false };
}
variable v_5_4 {
  type discrete [ 2 ] { yes, false };
}
variable v_5_5 {
  type discrete [ 2 ] { yes, false };
}
variable v_5_6 {
  type discrete [ 2 ] { yes, false };
}
variable v_5_7 {
  type discrete [ 2 ] { yes, false };
}
variable v_5_8 {
  type discrete [ 2 ] { yes, false };
}
variable v_5_9 {
  type discrete [ 2 ] { yes, false };
}
variable v_5_10 {
  type discrete [ 2 ] { yes, false };
}
variable v_6_1 {
  type discrete [ 2 ] { yes, false };
}
variable v_6_2 {
  type discrete [ 2 ] { yes, false };
}
variable v_6_3 {
  type discrete [ 2 ] { yes, false };
}
variable v_6_4 {
  type discrete [ 2 ] { yes, false };
}
variable v_6_5 {
  type discrete [ 2 ] { yes, false };
}
variable v_6_6 {
  type discrete [ 2 ] { yes, false };
}
variable v_6_7 {
  type discrete [ 2 ] { yes, false };
}
variable v_6_8 {
  type discrete [ 2 ] { yes, false };
}
variable v_6_9 {
  type discrete [ 2 ] { yes, false };
}
variable v_6_10 {
  type discrete [ 2 ] { yes, false };
}
variable v_7_1 {
  type discrete [ 2 ] { yes, false };
}
variable v_7_2 {
  type discrete [ 2 ] { yes, false };
}
variable v_7_3 {
  type discrete [ 2 ] { yes, false };
}
variable v_7_4 {
  type discrete [ 2 ] { yes, false };
}
variable v_7_5 {
  type discrete [ 2 ] { yes, false };
}
variable v_7_6 {
  type discrete [ 2 ] { yes, false };
}
variable v_7_7 {
  type discrete [ 2 ] { yes, false };
}
variable v_7_8 {
  type discrete [ 2 ] { yes, false };
}
variable v_7_9 {
  type discrete [ 2 ] { yes, false };
}
variable v_7_10 {
  type discrete [ 2 ] { yes, false };
}
variable v_8_1 {
  type discrete [ 2 ] { yes, false };
}
variable v_8_2 {
  type discrete [ 2 ] { yes, false };
}
variable v_8_3 {
  type discrete [ 2 ] { yes, false };
}
variable v_8_4 {
  type discrete [ 2 ] { yes, false };
}
variable v_8_5 {
  type discrete [ 2 ] { yes, false };
}
variable v_8_6 {
  type discrete [ 2 ] { yes, false };
}
variable v_8_7 {
  type discrete [ 2 ] { yes, false };
}
variable v_8_8 {
  type discrete [ 2 ] { yes, false };
}
variable v_8_9 {
  type discrete [ 2 ] { yes, false };
}
variable v_8_10 {
  type discrete [ 2 ] { yes, false };
}
variable v_9_1 {
  type discrete [ 2 ] { yes, false };
}
variable v_9_2 {
  type discrete [ 2 ] { yes, false };
}
variable v_9_3 {
  type discrete [ 2 ] { yes, false };
}
variable v_9_4 {
  type discrete [ 2 ] { yes, false };
}
variable v_9_5 {
  type discrete [ 2 ] { yes, false };
}
variable v_9_6 {
  type discrete [ 2 ] { yes, false };
}
variable v_9_7 {
  type discrete [ 2 ] { yes, false };
}
variable v_9_8 {
  type discrete [ 2 ] { yes, false };
}
variable v_9_9 {
  type discrete [ 2 ] { yes, false };
}
variable v_9_10 {
  type discrete [ 2 ] { yes, false };
}
variable v_10_1 {
  type discrete [ 2 ] { yes, false };
}
variable v_10_2 {
  type discrete [ 2 ] { yes, false };
}
variable v_10_3 {
  type discrete [ 2 ] { yes, false };
}
variable v_10_4 {
  type discrete [ 2 ] { yes, false };
}
variable v_10_5 {
  type discrete [ 2 ] { yes, false };
}
variable v_10_6 {
  type discrete [ 2 ] { yes, false };
}
variable v_10_7 {
  type discrete [ 2 ] { yes, false };
}
variable v_10_8 {
  type discrete [ 2 ] { yes, false };
}
variable v_10_9 {
  type discrete [ 2 ] { yes, false };
}
variable v_10_10 {
  type discrete [ 2 ] { yes, false };
}
probability ( v_1_1 ) {
  table 0.344598, 0.655402;
}
probability ( v_1_2 | v_1_1 ) {
  (true) 1.0, 0.0;
  (false) 0.0, 1.0;
}
probability ( v_1_3 | v_1_2 ) {
  (true) 1.0, 0.0;
  (false) 0.0, 1.0;
}
probability ( v_1_4 | v_1_3 ) {
  (true) 0.959413, 0.0405873;
  (false) 0.487659, 0.512341;
}
probability ( v_1_5 | v_1_4 ) {
  (true) 0.0, 1.0;
  (false) 1.0, 0.0;
}
probability ( v_1_6 | v_1_5 ) {
  (true) 0.0, 1.0;
  (false) 1.0, 0.0;
}
probability ( v_1_7 | v_1_6 ) {
  (true) 0.0, 1.0;
  (false) 1.0, 0.0;
}
probability ( v_1_8 | v_1_7 ) {
  (true) 0.0, 1.0;
  (false) 1.0, 0.0;
}
probability ( v_1_9 | v_1_8 ) {
  (true) 0.0, 1.0;
  (false) 1.0, 0.0;
}
probability ( v_1_10 | v_1_9 ) {
  (true) 1.0, 0.0;
  (false) 0.0, 1.0;
}
probability ( v_2_1 | v_1_1 ) {
  (true) 0.692777, 0.307223;
  (false) 0.915637, 0.0843625;
}
probability ( v_2_2 | v_2_1, v_1_2 ) {
  (true, true) 0.947341, 0.0526585;
  (true, false) 0.854789, 0.145211;
  (false, true) 0.139232, 0.860768;
  (false, false) 0.0398961, 0.960104;
}
probability ( v_2_3 | v_2_2, v_1_3 ) {
  (true, true) 1.0, 0.0;
  (true, false) 0.0, 1.0;
  (false, true) 1.0, 0.0;
  (false, false) 0.0, 1.0;
}
probability ( v_2_4 | v_2_3, v_1_4 ) {
  (true, true) 1.0, 0.0;
  (true, false) 1.0, 0.0;
  (false, true) 1.0, 0.0;
  (false, false) 0.0, 1.0;
}
probability ( v_2_5 | v_2_4, v_1_5 ) {
  (true, true) 1.0, 0.0;
  (true, false) 0.0, 1.0;
  (false, true) 1.0, 0.0;
  (false, false) 1.0, 0.0;
}
probability ( v_2_6 | v_2_5, v_1_6 ) {
  (true, true) 1.0, 0.0;
  (true, false) 1.0, 0.0;
  (false, true) 1.0, 0.0;
  (false, false) 0.0, 1.0;
}
probability ( v_2_7 | v_2_6, v_1_7 ) {
  (true, true) 0.0, 1.0;
  (true, false) 1.0, 0.0;
  (false, true) 0.0, 1.0;
  (false, false) 1.0, 0.0;
}
probability ( v_2_8 | v_2_7, v_1_8 ) {
  (true, true) 1.0, 0.0;
  (true, false) 0.0, 1.0;
  (false, true) 1.0, 0.0;
  (false, false) 1.0, 0.0;
}
probability ( v_2_9 | v_2_8, v_1_9 ) {
  (true, true) 0.628961, 0.371039;
  (true, false) 0.280291, 0.719709;
  (false, true) 0.383826, 0.616174;
  (false, false) 0.899308, 0.100692;
}
probability ( v_2_10 | v_2_9, v_1_10 ) {
  (true, true) 0.0, 1.0;
  (true, false) 0.0, 1.0;
  (false, true) 1.0, 0.0;
  (false, false) 0.0, 1.0;
}
probability ( v_3_1 | v_2_1 ) {
  (true) 0.0, 1.0;
  (false) 1.0, 0.0;
}
probability ( v_3_2 | v_3_1, v_2_2 ) {
  (true, true) 1.0, 0.0;
  (true, false) 1.0, 0.0;
  (false, true) 0.0, 1.0;
  (false, false) 1.0, 0.0;
}
probability ( v_3_3 | v_3_2, v_2_3 ) {
  (true, true) 1.0, 0.0;
  (true, false) 0.0, 1.0;
  (false, true) 1.0, 0.0;
  (false, false) 1.0, 0.0;
}
probability ( v_3_4 | v_3_3, v_2_4 ) {
  (true, true) 0.0, 1.0;
  (true, false) 0.0, 1.0;
  (false, true) 0.0, 1.0;
  (false, false) 1.0, 0.0;
}
probability ( v_3_5 | v_3_4, v_2_5 ) {
  (true, true) 1.0, 0.0;
  (true, false) 0.0, 1.0;
  (false, true) 1.0, 0.0;
  (false, false) 1.0, 0.0;
}
probability ( v_3_6 | v_3_5, v_2_6 ) {
  (true, true) 0.0, 1.0;
  (true, false) 0.0, 1.0;
  (false, true) 1.0, 0.0;
  (false, false) 0.0, 1.0;
}
probability ( v_3_7 | v_3_6, v_2_7 ) {
  (true, true) 0.482969, 0.517031;
  (true, false) 0.916113, 0.0838866;
  (false, true) 0.810689, 0.189311;
  (false, false) 0.0536192, 0.946381;
}
probability ( v_3_8 | v_3_7, v_2_8 ) {
  (true, true) 1.0, 0.0;
  (true, false) 1.0, 0.0;
  (false, true) 0.0, 1.0;
  (false, false) 0.0, 1.0;
}
probability ( v_3_9 | v_3_8, v_2_9 ) {
  (true, true) 1.0, 0.0;
  (true, false) 1.0, 0.0;
  (false, true) 0.0, 1.0;
  (false, false) 1.0, 0.0;
}
probability ( v_3_10 | v_3_9, v_2_10 ) {
  (true, true) 0.0, 1.0;
  (true, false) 1.0, 0.0;
  (false, true) 0.0, 1.0;
  (false, false) 1.0, 0.0;
}
probability ( v_4_1 | v_3_1 ) {
  (true) 1.0, 0.0;
  (false) 0.0, 1.0;
}
probability ( v_4_2 | v_4_1, v_3_2 ) {
  (true, true) 0.345141, 0.654859;
  (true, false) 0.996397, 0.00360306;
  (false, true) 0.299488, 0.700512;
  (false, false) 0.878094, 0.121906;
}
probability ( v_4_3 | v_4_2, v_3_3 ) {
  (true, true) 1.0, 0.0;
  (true, false) 1.0, 0.0;
  (false, true) 1.0, 0.0;
  (false, false) 0.0, 1.0;
}
probability ( v_4_4 | v_4_3, v_3_4 ) {
  (true, true) 1.0, 0.0;
  (true, false) 1.0, 0.0;
  (false, true) 0.0, 1.0;
  (false, false) 0.0, 1.0;
}
probability ( v_4_5 | v_4_4, v_3_5 ) {
  (true, true) 0.0, 1.0;
  (true, false) 1.0, 0.0;
  (false, true) 1.0, 0.0;
  (false, false) 1.0, 0.0;
}
probability ( v_4_6 | v_4_5, v_3_6 ) {
  (true, true) 1.0, 0.0;
  (true, false) 1.0, 0.0;
  (false, true) 0.0, 1.0;
  (false, false) 1.0, 0.0;
}
probability ( v_4_7 | v_4_6, v_3_7 ) {
  (true, true) 0.495808, 0.504192;
  (true, false) 0.0167717, 0.983228;
  (false, true) 0.160605, 0.839395;
  (false, false) 0.0371914, 0.962809;
}
probability ( v_4_8 | v_4_7, v_3_8 ) {
  (true, true) 0.505746, 0.494254;
  (true, false) 0.0335883, 0.966412;
  (false, true) 0.105823, 0.894177;
  (false, false) 0.38384, 0.61616;
}
probability ( v_4_9 | v_4_8, v_3_9 ) {
  (true, true) 1.0, 0.0;
  (true, false) 0.0, 1.0;
  (false, true) 1.0, 0.0;
  (false, false) 0.0, 1.0;
}
probability ( v_4_10 | v_4_9, v_3_10 ) {
  (true, true) 0.0, 1.0;
  (true, false) 1.0, 0.0;
  (false, true) 0.0, 1.0;
  (false, false) 0.0, 1.0;
}
probability ( v_5_1 | v_4_1 ) {
  (true) 1.0, 0.0;
  (false) 0.0, 1.0;
}
probability ( v_5_2 | v_5_1, v_4_2 ) {
  (true, true) 0.246061, 0.753939;
  (true, false) 0.34557, 0.65443;
  (false, true) 0.449924, 0.550076;
  (false, false) 0.635421, 0.364579;
}
probability ( v_5_3 | v_5_2, v_4_3 ) {
  (true, true) 1.0, 0.0;
  (true, false) 1.0, 0.0;
  (false, true) 0.0, 1.0;
  (false, false) 0.0, 1.0;
}
probability ( v_5_4 | v_5_3, v_4_4 ) {
  (true, true) 0.479881, 0.520119;
  (true, false) 0.569922, 0.430078;
  (false, true) 0.948898, 0.051102;
  (false, false) 0.286216, 0.713784;
}
probability ( v_5_5 | v_5_4, v_4_5 ) {
  (true, true) 0.0, 1.0;
  (true, false) 0.0, 1.0;
  (false, true) 1.0, 0.0;
  (false, false) 1.0, 0.0;
}
probability ( v_5_6 | v_5_5, v_4_6 ) {
  (true, true) 0.536455, 0.463545;
  (true, false) 0.483276, 0.516724;
  (false, true) 0.543225, 0.456775;
  (false, false) 0.789478, 0.210522;
}
probability ( v_5_7 | v_5_6, v_4_7 ) {
  (true, true) 0.0, 1.0;
  (true, false) 1.0, 0.0;
  (false, true) 1.0, 0.0;
  (false, false) 0.0, 1.0;
}
probability ( v_5_8 | v_5_7, v_4_8 ) {
  (true, true) 0.489293, 0.510707;
  (true, false) 0.88106, 0.11894;
  (false, true) 0.331005, 0.668995;
  (false, false) 0.939216, 0.0607837;
}
probability ( v_5_9 | v_5_8, v_4_9 ) {
  (true, true) 1.0, 0.0;
  (true, false) 0.0, 1.0;
  (false, true) 0.0, 1.0;
  (false, false) 1.0, 0.0;
}
probability ( v_5_10 | v_5_9, v_4_10 ) {
  (true, true) 0.844086, 0.155914;
  (true, false) 0.280262, 0.719738;
  (false, true) 0.363179, 0.636821;
  (false, false) 0.792983, 0.207017;
}
probability ( v_6_1 | v_5_1 ) {
  (true) 1.0, 0.0;
  (false) 0.0, 1.0;
}
probability ( v_6_2 | v_6_1, v_5_2 ) {
  (true, true) 0.958517, 0.0414828;
  (true, false) 0.898355, 0.101645;
  (false, true) 0.142264, 0.857736;
  (false, false) 0.819502, 0.180498;
}
probability ( v_6_3 | v_6_2, v_5_3 ) {
  (true, true) 0.0, 1.0;
  (true, false) 0.0, 1.0;
  (false, true) 1.0, 0.0;
  (false, false) 1.0, 0.0;
}
probability ( v_6_4 | v_6_3, v_5_4 ) {
  (true, true) 0.0, 1.0;
  (true, false) 0.0, 1.0;
  (false, true) 1.0, 0.0;
  (false, false) 1.0, 0.0;
}
probability ( v_6_5 | v_6_4, v_5_5 ) {
  (true, true) 1.0, 0.0;
  (true, false) 1.0, 0.0;
  (false, true) 0.0, 1.0;
  (false, false) 1.0, 0.0;
}
probability ( v_6_6 | v_6_5, v_5_6 ) {
  (true, true) 0.0, 1.0;
  (true, false) 1.0, 0.0;
  (false, true) 0.0, 1.0;
  (false, false) 1.0, 0.0;
}
probability ( v_6_7 | v_6_6, v_5_7 ) {
  (true, true) 0.0, 1.0;
  (true, false) 1.0, 0.0;
  (false, true) 1.0, 0.0;
  (false, false) 1.0, 0.0;
}
probability ( v_6_8 | v_6_7, v_5_8 ) {
  (true, true) 0.989633, 0.0103669;
  (true, false) 0.755836, 0.244164;
  (false, true) 0.850779, 0.149221;
  (false, false) 0.131897, 0.868103;
}
probability ( v_6_9 | v_6_8, v_5_9 ) {
  (true, true) 1.0, 0.0;
  (true, false) 1.0, 0.0;
  (false, true) 0.0, 1.0;
  (false, false) 0.0, 1.0;
}
probability ( v_6_10 | v_6_9, v_5_10 ) {
  (true, true) 1.0, 0.0;
  (true, false) 0.0, 1.0;
  (false, true) 0.0, 1.0;
  (false, false) 0.0, 1.0;
}
probability ( v_7_1 | v_6_1 ) {
  (true) 1.0, 0.0;
  (false) 0.0, 1.0;
}
probability ( v_7_2 | v_7_1, v_6_2 ) {
  (true, true) 0.301202, 0.698798;
  (true, false) 0.182901, 0.817099;
  (false, true) 0.570365, 0.429635;
  (false, false) 0.451399, 0.548601;
}
probability ( v_7_3 | v_7_2, v_6_3 ) {
  (true, true) 0.0, 1.0;
  (true, false) 0.0, 1.0;
  (false, true) 1.0, 0.0;
  (false, false) 1.0, 0.0;
}
probability ( v_7_4 | v_7_3, v_6_4 ) {
  (true, true) 0.0, 1.0;
  (true, false) 0.0, 1.0;
  (false, true) 0.0, 1.0;
  (false, false) 1.0, 0.0;
}
probability ( v_7_5 | v_7_4, v_6_5 ) {
  (true, true) 0.185971, 0.814029;
  (true, false) 0.00722234, 0.992778;
  (false, true) 0.904332, 0.0956683;
  (false, false) 0.761309, 0.238691;
}
probability ( v_7_6 | v_7_5, v_6_6 ) {
  (true, true) 0.0, 1.0;
  (true, false) 0.0, 1.0;
  (false, true) 1.0, 0.0;
  (false, false) 0.0, 1.0;
}
probability ( v_7_7 | v_7_6, v_6_7 ) {
  (true, true) 1.0, 0.0;
  (true, false) 0.0, 1.0;
  (false, true) 0.0, 1.0;
  (false, false) 1.0, 0.0;
}
probability ( v_7_8 | v_7_7, v_6_8 ) {
  (true, true) 0.0, 1.0;
  (true, false) 0.0, 1.0;
  (false, true) 1.0, 0.0;
  (false, false) 1.0, 0.0;
}
probability ( v_7_9 | v_7_8, v_6_9 ) {
  (true, true) 1.0, 0.0;
  (true, false) 1.0, 0.0;
  (false, true) 0.0, 1.0;
  (false, false) 0.0, 1.0;
}
probability ( v_7_10 | v_7_9, v_6_10 ) {
  (true, true) 1.0, 0.0;
  (true, false) 1.0, 0.0;
  (false, true) 1.0, 0.0;
  (false, false) 0.0, 1.0;
}
probability ( v_8_1 | v_7_1 ) {
  (true) 1.0, 0.0;
  (false) 0.0, 1.0;
}
probability ( v_8_2 | v_8_1, v_7_2 ) {
  (true, true) 0.0, 1.0;
  (true, false) 0.0, 1.0;
  (false, true) 1.0, 0.0;
  (false, false) 1.0, 0.0;
}
probability ( v_8_3 | v_8_2, v_7_3 ) {
  (true, true) 1.0, 0.0;
  (true, false) 0.0, 1.0;
  (false, true) 0.0, 1.0;
  (false, false) 0.0, 1.0;
}
probability ( v_8_4 | v_8_3, v_7_4 ) {
  (true, true) 1.0, 0.0;
  (true, false) 0.0, 1.0;
  (false, true) 0.0, 1.0;
  (false, false) 1.0, 0.0;
}
probability ( v_8_5 | v_8_4, v_7_5 ) {
  (true, true) 0.0, 1.0;
  (true, false) 0.0, 1.0;
  (false, true) 1.0, 0.0;
  (false, false) 0.0, 1.0;
}
probability ( v_8_6 | v_8_5, v_7_6 ) {
  (true, true) 1.0, 0.0;
  (true, false) 1.0, 0.0;
  (false, true) 0.0, 1.0;
  (false, false) 0.0, 1.0;
}
probability ( v_8_7 | v_8_6, v_7_7 ) {
  (true, true) 0.469455, 0.530545;
  (true, false) 0.96544, 0.0345598;
  (false, true) 0.361058, 0.638942;
  (false, false) 0.921512, 0.0784877;
}
probability ( v_8_8 | v_8_7, v_7_8 ) {
  (true, true) 0.0618814, 0.938119;
  (true, false) 0.380792, 0.619208;
  (false, true) 0.498522, 0.501478;
  (false, false) 0.524013, 0.475987;
}
probability ( v_8_9 | v_8_8, v_7_9 ) {
  (true, true) 0.0, 1.0;
  (true, false) 0.0, 1.0;
  (false, true) 1.0, 0.0;
  (false, false) 0.0, 1.0;
}
probability ( v_8_10 | v_8_9, v_7_10 ) {
  (true, true) 1.0, 0.0;
  (true, false) 1.0, 0.0;
  (false, true) 0.0, 1.0;
  (false, false) 0.0, 1.0;
}
probability ( v_9_1 | v_8_1 ) {
  (true) 0.972291, 0.0277093;
  (false) 0.195119, 0.804881;
}
probability ( v_9_2 | v_9_1, v_8_2 ) {
  (true, true) 0.281881, 0.718119;
  (true, false) 0.277366, 0.722634;
  (false, true) 0.623826, 0.376174;
  (false, false) 0.0433709, 0.956629;
}
probability ( v_9_3 | v_9_2, v_8_3 ) {
  (true, true) 0.0, 1.0;
  (true, false) 1.0, 0.0;
  (false, true) 1.0, 0.0;
  (false, false) 1.0, 0.0;
}
probability ( v_9_4 | v_9_3, v_8_4 ) {
  (true, true) 0.0, 1.0;
  (true, false) 0.0, 1.0;
  (false, true) 1.0, 0.0;
  (false, false) 0.0, 1.0;
}
probability ( v_9_5 | v_9_4, v_8_5 ) {
  (true, true) 0.83653, 0.16347;
  (true, false) 0.355849, 0.644151;
  (false, true) 0.670102, 0.329898;
  (false, false) 0.522049, 0.477951;
}
probability ( v_9_6 | v_9_5, v_8_6 ) {
  (true, true) 0.0, 1.0;
  (true, false) 1.0, 0.0;
  (false, true) 1.0, 0.0;
  (false, false) 0.0, 1.0;
}
probability ( v_9_7 | v_9_6, v_8_7 ) {
  (true, true) 1.0, 0.0;
  (true, false) 0.0, 1.0;
  (false, true) 1.0, 0.0;
  (false, false) 0.0, 1.0;
}
probability ( v_9_8 | v_9_7, v_8_8 ) {
  (true, true) 0.0, 1.0;
  (true, false) 0.0, 1.0;
  (false, true) 1.0, 0.0;
  (false, false) 0.0, 1.0;
}
probability ( v_9_9 | v_9_8, v_8_9 ) {
  (true, true) 0.0, 1.0;
  (true, false) 1.0, 0.0;
  (false, true) 1.0, 0.0;
  (false, false) 0.0, 1.0;
}
probability ( v_9_10 | v_9_9, v_8_10 ) {
  (true, true) 1.0, 0.0;
  (true, false) 0.0, 1.0;
  (false, true) 0.0, 1.0;
  (false, false) 1.0, 0.0;
}
probability ( v_10_1 | v_9_1 ) {
  (true) 0.394412, 0.605588;
  (false) 0.695778, 0.304222;
}
probability ( v_10_2 | v_10_1, v_9_2 ) {
  (true, true) 1.0, 0.0;
  (true, false) 1.0, 0.0;
  (false, true) 1.0, 0.0;
  (false, false) 0.0, 1.0;
}
probability ( v_10_3 | v_10_2, v_9_3 ) {
  (true, true) 0.695017, 0.304983;
  (true, false) 0.708612, 0.291388;
  (false, true) 0.641882, 0.358118;
  (false, false) 0.12545, 0.87455;
}
probability ( v_10_4 | v_10_3, v_9_4 ) {
  (true, true) 0.421783, 0.578217;
  (true, false) 0.751003, 0.248997;
  (false, true) 0.986215, 0.0137853;
  (false, false) 0.483565, 0.516435;
}
probability ( v_10_5 | v_10_4, v_9_5 ) {
  (true, true) 1.0, 0.0;
  (true, false) 0.0, 1.0;
  (false, true) 1.0, 0.0;
  (false, false) 1.0, 0.0;
}
probability ( v_10_6 | v_10_5, v_9_6 ) {
  (true, true) 0.0, 1.0;
  (true, false) 1.0, 0.0;
  (false, true) 1.0, 0.0;
  (false, false) 0.0, 1.0;
}
probability ( v_10_7 | v_10_6, v_9_7 ) {
  (true, true) 0.386694, 0.613306;
  (true, false) 0.739728, 0.260272;
  (false, true) 0.801888, 0.198112;
  (false, false) 0.781107, 0.218893;
}
probability ( v_10_8 | v_10_7, v_9_8 ) {
  (true, true) 1.0, 0.0;
  (true, false) 0.0, 1.0;
  (false, true) 0.0, 1.0;
  (false, false) 0.0, 1.0;
}
probability ( v_10_9 | v_10_8, v_9_9 ) {
  (true, true) 0.0, 1.0;
  (true, false) 1.0, 0.0;
  (false, true) 1.0, 0.0;
  (false, false) 0.0, 1.0;
}
probability ( v_10_10 | v_10_9, v_9_10 ) {
  (true, true) 0.809007, 0.190993;
  (true, false) 0.072728, 0.927272;
  (false, true) 0.708208, 0.291792;
  (false, false) 0.795222, 0.204778;
}
