network unknown{
}
variable v_1_1 {
  type discrete [ 2 ] { yes, false };
}
variable v_1_2 {
  type discrete [ 2 ] { yes, false };
}
variable v_1_3 {
  type discrete [ 2 ] { yes, false };
}
variable v_1_4 {
  type discrete [ 2 ] { yes, false };
}
variable v_1_5 {
  type discrete [ 2 ] { yes, false };
}
variable v_1_6 {
  type discrete [ 2 ] { yes, false };
}
variable v_1_7 {
  type discrete [ 2 ] { yes, false };
}
variable v_1_8 {
  type discrete [ 2 ] { yes, false };
}
variable v_1_9 {
  type discrete [ 2 ] { yes, false };
}
variable v_1_10 {
  type discrete [ 2 ] { yes, false };
}
variable v_2_1 {
  type discrete [ 2 ] { yes, false };
}
variable v_2_2 {
  type discrete [ 2 ] { yes, false };
}
variable v_2_3 {
  type discrete [ 2 ] { yes, false };
}
variable v_2_4 {
  type discrete [ 2 ] { yes, false };
}
variable v_2_5 {
  type discrete [ 2 ] { yes, false };
}
variable v_2_6 {
  type discrete [ 2 ] { yes, false };
}
variable v_2_7 {
  type discrete [ 2 ] { yes, false };
}
variable v_2_8 {
  type discrete [ 2 ] { yes, false };
}
variable v_2_9 {
  type discrete [ 2 ] { yes, false };
}
variable v_2_10 {
  type discrete [ 2 ] { yes, false };
}
variable v_3_1 {
  type discrete [ 2 ] { yes, false };
}
variable v_3_2 {
  type discrete [ 2 ] { yes, false };
}
variable v_3_3 {
  type discrete [ 2 ] { yes, false };
}
variable v_3_4 {
  type discrete [ 2 ] { yes, false };
}
variable v_3_5 {
  type discrete [ 2 ] { yes, false };
}
variable v_3_6 {
  type discrete [ 2 ] { yes, false };
}
variable v_3_7 {
  type discrete [ 2 ] { yes, false };
}
variable v_3_8 {
  type discrete [ 2 ] { yes, false };
}
variable v_3_9 {
  type discrete [ 2 ] { yes, false };
}
variable v_3_10 {
  type discrete [ 2 ] { yes, false };
}
variable v_4_1 {
  type discrete [ 2 ] { yes, false };
}
variable v_4_2 {
  type discrete [ 2 ] { yes, false };
}
variable v_4_3 {
  type discrete [ 2 ] { yes, false };
}
variable v_4_4 {
  type discrete [ 2 ] { yes, false };
}
variable v_4_5 {
  type discrete [ 2 ] { yes, false };
}
variable v_4_6 {
  type discrete [ 2 ] { yes, false };
}
variable v_4_7 {
  type discrete [ 2 ] { yes, false };
}
variable v_4_8 {
  type discrete [ 2 ] { yes, false };
}
variable v_4_9 {
  type discrete [ 2 ] { yes, false };
}
variable v_4_10 {
  type discrete [ 2 ] { yes, false };
}
variable v_5_1 {
  type discrete [ 2 ] { yes, false };
}
variable v_5_2 {
  type discrete [ 2 ] { yes, false };
}
variable v_5_3 {
  type discrete [ 2 ] { yes, false };
}
variable v_5_4 {
  type discrete [ 2 ] { yes, false };
}
variable v_5_5 {
  type discrete [ 2 ] { yes, false };
}
variable v_5_6 {
  type discrete [ 2 ] { yes, false };
}
variable v_5_7 {
  type discrete [ 2 ] { yes, false };
}
variable v_5_8 {
  type discrete [ 2 ] { yes, false };
}
variable v_5_9 {
  type discrete [ 2 ] { yes, false };
}
variable v_5_10 {
  type discrete [ 2 ] { yes, false };
}
variable v_6_1 {
  type discrete [ 2 ] { yes, false };
}
variable v_6_2 {
  type discrete [ 2 ] { yes, false };
}
variable v_6_3 {
  type discrete [ 2 ] { yes, false };
}
variable v_6_4 {
  type discrete [ 2 ] { yes, false };
}
variable v_6_5 {
  type discrete [ 2 ] { yes, false };
}
variable v_6_6 {
  type discrete [ 2 ] { yes, false };
}
variable v_6_7 {
  type discrete [ 2 ] { yes, false };
}
variable v_6_8 {
  type discrete [ 2 ] { yes, false };
}
variable v_6_9 {
  type discrete [ 2 ] { yes, false };
}
variable v_6_10 {
  type discrete [ 2 ] { yes, false };
}
variable v_7_1 {
  type discrete [ 2 ] { yes, false };
}
variable v_7_2 {
  type discrete [ 2 ] { yes, false };
}
variable v_7_3 {
  type discrete [ 2 ] { yes, false };
}
variable v_7_4 {
  type discrete [ 2 ] { yes, false };
}
variable v_7_5 {
  type discrete [ 2 ] { yes, false };
}
variable v_7_6 {
  type discrete [ 2 ] { yes, false };
}
variable v_7_7 {
  type discrete [ 2 ] { yes, false };
}
variable v_7_8 {
  type discrete [ 2 ] { yes, false };
}
variable v_7_9 {
  type discrete [ 2 ] { yes, false };
}
variable v_7_10 {
  type discrete [ 2 ] { yes, false };
}
variable v_8_1 {
  type discrete [ 2 ] { yes, false };
}
variable v_8_2 {
  type discrete [ 2 ] { yes, false };
}
variable v_8_3 {
  type discrete [ 2 ] { yes, false };
}
variable v_8_4 {
  type discrete [ 2 ] { yes, false };
}
variable v_8_5 {
  type discrete [ 2 ] { yes, false };
}
variable v_8_6 {
  type discrete [ 2 ] { yes, false };
}
variable v_8_7 {
  type discrete [ 2 ] { yes, false };
}
variable v_8_8 {
  type discrete [ 2 ] { yes, false };
}
variable v_8_9 {
  type discrete [ 2 ] { yes, false };
}
variable v_8_10 {
  type discrete [ 2 ] { yes, false };
}
variable v_9_1 {
  type discrete [ 2 ] { yes, false };
}
variable v_9_2 {
  type discrete [ 2 ] { yes, false };
}
variable v_9_3 {
  type discrete [ 2 ] { yes, false };
}
variable v_9_4 {
  type discrete [ 2 ] { yes, false };
}
variable v_9_5 {
  type discrete [ 2 ] { yes, false };
}
variable v_9_6 {
  type discrete [ 2 ] { yes, false };
}
variable v_9_7 {
  type discrete [ 2 ] { yes, false };
}
variable v_9_8 {
  type discrete [ 2 ] { yes, false };
}
variable v_9_9 {
  type discrete [ 2 ] { yes, false };
}
variable v_9_10 {
  type discrete [ 2 ] { yes, false };
}
variable v_10_1 {
  type discrete [ 2 ] { yes, false };
}
variable v_10_2 {
  type discrete [ 2 ] { yes, false };
}
variable v_10_3 {
  type discrete [ 2 ] { yes, false };
}
variable v_10_4 {
  type discrete [ 2 ] { yes, false };
}
variable v_10_5 {
  type discrete [ 2 ] { yes, false };
}
variable v_10_6 {
  type discrete [ 2 ] { yes, false };
}
variable v_10_7 {
  type discrete [ 2 ] { yes, false };
}
variable v_10_8 {
  type discrete [ 2 ] { yes, false };
}
variable v_10_9 {
  type discrete [ 2 ] { yes, false };
}
variable v_10_10 {
  type discrete [ 2 ] { yes, false };
}
probability ( v_1_1 ) {
  table 0.408956, 0.591044;
}
probability ( v_1_2 | v_1_1 ) {
  (true) 1.0, 0.0;
  (false) 0.0, 1.0;
}
probability ( v_1_3 | v_1_2 ) {
  (true) 0.0, 1.0;
  (false) 1.0, 0.0;
}
probability ( v_1_4 | v_1_3 ) {
  (true) 0.0, 1.0;
  (false) 1.0, 0.0;
}
probability ( v_1_5 | v_1_4 ) {
  (true) 1.0, 0.0;
  (false) 0.0, 1.0;
}
probability ( v_1_6 | v_1_5 ) {
  (true) 0.0, 1.0;
  (false) 1.0, 0.0;
}
probability ( v_1_7 | v_1_6 ) {
  (true) 1.0, 0.0;
  (false) 0.0, 1.0;
}
probability ( v_1_8 | v_1_7 ) {
  (true) 0.0, 1.0;
  (false) 1.0, 0.0;
}
probability ( v_1_9 | v_1_8 ) {
  (true) 0.0, 1.0;
  (false) 1.0, 0.0;
}
probability ( v_1_10 | v_1_9 ) {
  (true) 1.0, 0.0;
  (false) 0.0, 1.0;
}
probability ( v_2_1 | v_1_1 ) {
  (true) 1.0, 0.0;
  (false) 0.0, 1.0;
}
probability ( v_2_2 | v_2_1, v_1_2 ) {
  (true, true) 0.0, 1.0;
  (true, false) 1.0, 0.0;
  (false, true) 1.0, 0.0;
  (false, false) 1.0, 0.0;
}
probability ( v_2_3 | v_2_2, v_1_3 ) {
  (true, true) 0.0, 1.0;
  (true, false) 0.0, 1.0;
  (false, true) 1.0, 0.0;
  (false, false) 0.0, 1.0;
}
probability ( v_2_4 | v_2_3, v_1_4 ) {
  (true, true) 0.0, 1.0;
  (true, false) 1.0, 0.0;
  (false, true) 1.0, 0.0;
  (false, false) 0.0, 1.0;
}
probability ( v_2_5 | v_2_4, v_1_5 ) {
  (true, true) 0.0, 1.0;
  (true, false) 0.0, 1.0;
  (false, true) 1.0, 0.0;
  (false, false) 1.0, 0.0;
}
probability ( v_2_6 | v_2_5, v_1_6 ) {
  (true, true) 0.0, 1.0;
  (true, false) 0.0, 1.0;
  (false, true) 1.0, 0.0;
  (false, false) 0.0, 1.0;
}
probability ( v_2_7 | v_2_6, v_1_7 ) {
  (true, true) 1.0, 0.0;
  (true, false) 0.0, 1.0;
  (false, true) 0.0, 1.0;
  (false, false) 1.0, 0.0;
}
probability ( v_2_8 | v_2_7, v_1_8 ) {
  (true, true) 0.812689, 0.187311;
  (true, false) 0.112664, 0.887336;
  (false, true) 0.466838, 0.533162;
  (false, false) 0.655016, 0.344984;
}
probability ( v_2_9 | v_2_8, v_1_9 ) {
  (true, true) 0.0, 1.0;
  (true, false) 1.0, 0.0;
  (false, true) 0.0, 1.0;
  (false, false) 0.0, 1.0;
}
probability ( v_2_10 | v_2_9, v_1_10 ) {
  (true, true) 0.0, 1.0;
  (true, false) 0.0, 1.0;
  (false, true) 0.0, 1.0;
  (false, false) 1.0, 0.0;
}
probability ( v_3_1 | v_2_1 ) {
  (true) 0.0, 1.0;
  (false) 1.0, 0.0;
}
probability ( v_3_2 | v_3_1, v_2_2 ) {
  (true, true) 0.0, 1.0;
  (true, false) 1.0, 0.0;
  (false, true) 0.0, 1.0;
  (false, false) 0.0, 1.0;
}
probability ( v_3_3 | v_3_2, v_2_3 ) {
  (true, true) 1.0, 0.0;
  (true, false) 0.0, 1.0;
  (false, true) 0.0, 1.0;
  (false, false) 0.0, 1.0;
}
probability ( v_3_4 | v_3_3, v_2_4 ) {
  (true, true) 0.0, 1.0;
  (true, false) 1.0, 0.0;
  (false, true) 0.0, 1.0;
  (false, false) 1.0, 0.0;
}
probability ( v_3_5 | v_3_4, v_2_5 ) {
  (true, true) 1.0, 0.0;
  (true, false) 0.0, 1.0;
  (false, true) 0.0, 1.0;
  (false, false) 0.0, 1.0;
}
probability ( v_3_6 | v_3_5, v_2_6 ) {
  (true, true) 0.367514, 0.632486;
  (true, false) 0.107672, 0.892328;
  (false, true) 0.224668, 0.775332;
  (false, false) 0.401761, 0.598239;
}
probability ( v_3_7 | v_3_6, v_2_7 ) {
  (true, true) 0.0, 1.0;
  (true, false) 1.0, 0.0;
  (false, true) 0.0, 1.0;
  (false, false) 1.0, 0.0;
}
probability ( v_3_8 | v_3_7, v_2_8 ) {
  (true, true) 0.157003, 0.842997;
  (true, false) 0.899962, 0.100038;
  (false, true) 0.514638, 0.485362;
  (false, false) 0.681265, 0.318735;
}
probability ( v_3_9 | v_3_8, v_2_9 ) {
  (true, true) 0.0, 1.0;
  (true, false) 1.0, 0.0;
  (false, true) 0.0, 1.0;
  (false, false) 0.0, 1.0;
}
probability ( v_3_10 | v_3_9, v_2_10 ) {
  (true, true) 0.428223, 0.571777;
  (true, false) 0.103263, 0.896737;
  (false, true) 0.541448, 0.458552;
  (false, false) 0.380992, 0.619008;
}
probability ( v_4_1 | v_3_1 ) {
  (true) 0.0, 1.0;
  (false) 1.0, 0.0;
}
probability ( v_4_2 | v_4_1, v_3_2 ) {
  (true, true) 0.0, 1.0;
  (true, false) 1.0, 0.0;
  (false, true) 1.0, 0.0;
  (false, false) 0.0, 1.0;
}
probability ( v_4_3 | v_4_2, v_3_3 ) {
  (true, true) 0.0, 1.0;
  (true, false) 1.0, 0.0;
  (false, true) 1.0, 0.0;
  (false, false) 0.0, 1.0;
}
probability ( v_4_4 | v_4_3, v_3_4 ) {
  (true, true) 0.136904, 0.863096;
  (true, false) 0.326266, 0.673734;
  (false, true) 0.525789, 0.474211;
  (false, false) 0.131541, 0.868459;
}
probability ( v_4_5 | v_4_4, v_3_5 ) {
  (true, true) 0.0, 1.0;
  (true, false) 0.0, 1.0;
  (false, true) 0.0, 1.0;
  (false, false) 1.0, 0.0;
}
probability ( v_4_6 | v_4_5, v_3_6 ) {
  (true, true) 0.697731, 0.302269;
  (true, false) 0.653188, 0.346812;
  (false, true) 0.621688, 0.378312;
  (false, false) 0.125954, 0.874046;
}
probability ( v_4_7 | v_4_6, v_3_7 ) {
  (true, true) 0.163135, 0.836865;
  (true, false) 0.506946, 0.493054;
  (false, true) 0.10203, 0.89797;
  (false, false) 0.26156, 0.73844;
}
probability ( v_4_8 | v_4_7, v_3_8 ) {
  (true, true) 0.156761, 0.843239;
  (true, false) 0.571978, 0.428022;
  (false, true) 0.972044, 0.0279555;
  (false, false) 0.993407, 0.00659295;
}
probability ( v_4_9 | v_4_8, v_3_9 ) {
  (true, true) 0.0, 1.0;
  (true, false) 1.0, 0.0;
  (false, true) 0.0, 1.0;
  (false, false) 1.0, 0.0;
}
probability ( v_4_10 | v_4_9, v_3_10 ) {
  (true, true) 0.466506, 0.533494;
  (true, false) 0.631655, 0.368345;
  (false, true) 0.346599, 0.653401;
  (false, false) 0.598047, 0.401953;
}
probability ( v_5_1 | v_4_1 ) {
  (true) 1.0, 0.0;
  (false) 0.0, 1.0;
}
probability ( v_5_2 | v_5_1, v_4_2 ) {
  (true, true) 1.0, 0.0;
  (true, false) 1.0, 0.0;
  (false, true) 1.0, 0.0;
  (false, false) 0.0, 1.0;
}
probability ( v_5_3 | v_5_2, v_4_3 ) {
  (true, true) 0.0, 1.0;
  (true, false) 1.0, 0.0;
  (false, true) 1.0, 0.0;
  (false, false) 0.0, 1.0;
}
probability ( v_5_4 | v_5_3, v_4_4 ) {
  (true, true) 0.975303, 0.0246971;
  (true, false) 0.574246, 0.425754;
  (false, true) 0.15037, 0.84963;
  (false, false) 0.928672, 0.0713275;
}
probability ( v_5_5 | v_5_4, v_4_5 ) {
  (true, true) 0.0, 1.0;
  (true, false) 0.0, 1.0;
  (false, true) 1.0, 0.0;
  (false, false) 1.0, 0.0;
}
probability ( v_5_6 | v_5_5, v_4_6 ) {
  (true, true) 0.779135, 0.220865;
  (true, false) 0.301859, 0.698141;
  (false, true) 0.304497, 0.695503;
  (false, false) 0.599944, 0.400056;
}
probability ( v_5_7 | v_5_6, v_4_7 ) {
  (true, true) 0.936152, 0.0638478;
  (true, false) 0.946543, 0.0534572;
  (false, true) 0.366412, 0.633588;
  (false, false) 0.0510764, 0.948924;
}
probability ( v_5_8 | v_5_7, v_4_8 ) {
  (true, true) 0.0, 1.0;
  (true, false) 0.0, 1.0;
  (false, true) 0.0, 1.0;
  (false, false) 1.0, 0.0;
}
probability ( v_5_9 | v_5_8, v_4_9 ) {
  (true, true) 1.0, 0.0;
  (true, false) 0.0, 1.0;
  (false, true) 1.0, 0.0;
  (false, false) 0.0, 1.0;
}
probability ( v_5_10 | v_5_9, v_4_10 ) {
  (true, true) 0.0490069, 0.950993;
  (true, false) 0.149627, 0.850373;
  (false, true) 0.435442, 0.564558;
  (false, false) 0.199377, 0.800623;
}
probability ( v_6_1 | v_5_1 ) {
  (true) 1.0, 0.0;
  (false) 0.0, 1.0;
}
probability ( v_6_2 | v_6_1, v_5_2 ) {
  (true, true) 0.979017, 0.0209834;
  (true, false) 0.890862, 0.109138;
  (false, true) 0.893982, 0.106018;
  (false, false) 0.978125, 0.0218753;
}
probability ( v_6_3 | v_6_2, v_5_3 ) {
  (true, true) 1.0, 0.0;
  (true, false) 0.0, 1.0;
  (false, true) 0.0, 1.0;
  (false, false) 0.0, 1.0;
}
probability ( v_6_4 | v_6_3, v_5_4 ) {
  (true, true) 1.0, 0.0;
  (true, false) 0.0, 1.0;
  (false, true) 0.0, 1.0;
  (false, false) 0.0, 1.0;
}
probability ( v_6_5 | v_6_4, v_5_5 ) {
  (true, true) 0.600385, 0.399615;
  (true, false) 0.29894, 0.70106;
  (false, true) 0.61447, 0.38553;
  (false, false) 0.0349075, 0.965093;
}
probability ( v_6_6 | v_6_5, v_5_6 ) {
  (true, true) 0.0, 1.0;
  (true, false) 0.0, 1.0;
  (false, true) 0.0, 1.0;
  (false, false) 1.0, 0.0;
}
probability ( v_6_7 | v_6_6, v_5_7 ) {
  (true, true) 1.0, 0.0;
  (true, false) 0.0, 1.0;
  (false, true) 0.0, 1.0;
  (false, false) 1.0, 0.0;
}
probability ( v_6_8 | v_6_7, v_5_8 ) {
  (true, true) 1.0, 0.0;
  (true, false) 0.0, 1.0;
  (false, true) 0.0, 1.0;
  (false, false) 1.0, 0.0;
}
probability ( v_6_9 | v_6_8, v_5_9 ) {
  (true, true) 1.0, 0.0;
  (true, false) 0.0, 1.0;
  (false, true) 1.0, 0.0;
  (false, false) 1.0, 0.0;
}
probability ( v_6_10 | v_6_9, v_5_10 ) {
  (true, true) 1.0, 0.0;
  (true, false) 1.0, 0.0;
  (false, true) 1.0, 0.0;
  (false, false) 0.0, 1.0;
}
probability ( v_7_1 | v_6_1 ) {
  (true) 1.0, 0.0;
  (false) 0.0, 1.0;
}
probability ( v_7_2 | v_7_1, v_6_2 ) {
  (true, true) 0.0, 1.0;
  (true, false) 1.0, 0.0;
  (false, true) 0.0, 1.0;
  (false, false) 1.0, 0.0;
}
probability ( v_7_3 | v_7_2, v_6_3 ) {
  (true, true) 0.932275, 0.0677252;
  (true, false) 0.173682, 0.826318;
  (false, true) 0.210054, 0.789946;
  (false, false) 0.261133, 0.738867;
}
probability ( v_7_4 | v_7_3, v_6_4 ) {
  (true, true) 1.0, 0.0;
  (true, false) 0.0, 1.0;
  (false, true) 1.0, 0.0;
  (false, false) 1.0, 0.0;
}
probability ( v_7_5 | v_7_4, v_6_5 ) {
  (true, true) 0.0, 1.0;
  (true, false) 0.0, 1.0;
  (false, true) 0.0, 1.0;
  (false, false) 1.0, 0.0;
}
probability ( v_7_6 | v_7_5, v_6_6 ) {
  (true, true) 0.0, 1.0;
  (true, false) 1.0, 0.0;
  (false, true) 0.0, 1.0;
  (false, false) 1.0, 0.0;
}
probability ( v_7_7 | v_7_6, v_6_7 ) {
  (true, true) 0.0669268, 0.933073;
  (true, false) 0.585447, 0.414553;
  (false, true) 0.59321, 0.40679;
  (false, false) 0.802858, 0.197142;
}
probability ( v_7_8 | v_7_7, v_6_8 ) {
  (true, true) 1.0, 0.0;
  (true, false) 0.0, 1.0;
  (false, true) 1.0, 0.0;
  (false, false) 0.0, 1.0;
}
probability ( v_7_9 | v_7_8, v_6_9 ) {
  (true, true) 0.0, 1.0;
  (true, false) 0.0, 1.0;
  (false, true) 0.0, 1.0;
  (false, false) 1.0, 0.0;
}
probability ( v_7_10 | v_7_9, v_6_10 ) {
  (true, true) 0.403234, 0.596766;
  (true, false) 0.948326, 0.0516736;
  (false, true) 0.795589, 0.204411;
  (false, false) 0.421989, 0.578011;
}
probability ( v_8_1 | v_7_1 ) {
  (true) 1.0, 0.0;
  (false) 0.0, 1.0;
}
probability ( v_8_2 | v_8_1, v_7_2 ) {
  (true, true) 1.0, 0.0;
  (true, false) 1.0, 0.0;
  (false, true) 0.0, 1.0;
  (false, false) 1.0, 0.0;
}
probability ( v_8_3 | v_8_2, v_7_3 ) {
  (true, true) 0.0, 1.0;
  (true, false) 1.0, 0.0;
  (false, true) 0.0, 1.0;
  (false, false) 0.0, 1.0;
}
probability ( v_8_4 | v_8_3, v_7_4 ) {
  (true, true) 0.0, 1.0;
  (true, false) 1.0, 0.0;
  (false, true) 1.0, 0.0;
  (false, false) 1.0, 0.0;
}
probability ( v_8_5 | v_8_4, v_7_5 ) {
  (true, true) 0.862106, 0.137894;
  (true, false) 0.182724, 0.817276;
  (false, true) 0.187092, 0.812908;
  (false, false) 0.401745, 0.598255;
}
probability ( v_8_6 | v_8_5, v_7_6 ) {
  (true, true) 0.0, 1.0;
  (true, false) 1.0, 0.0;
  (false, true) 0.0, 1.0;
  (false, false) 0.0, 1.0;
}
probability ( v_8_7 | v_8_6, v_7_7 ) {
  (true, true) 1.0, 0.0;
  (true, false) 1.0, 0.0;
  (false, true) 0.0, 1.0;
  (false, false) 0.0, 1.0;
}
probability ( v_8_8 | v_8_7, v_7_8 ) {
  (true, true) 0.0, 1.0;
  (true, false) 0.0, 1.0;
  (false, true) 0.0, 1.0;
  (false, false) 1.0, 0.0;
}
probability ( v_8_9 | v_8_8, v_7_9 ) {
  (true, true) 0.694683, 0.305317;
  (true, false) 0.760207, 0.239793;
  (false, true) 0.949038, 0.0509622;
  (false, false) 0.181933, 0.818067;
}
probability ( v_8_10 | v_8_9, v_7_10 ) {
  (true, true) 0.0, 1.0;
  (true, false) 0.0, 1.0;
  (false, true) 1.0, 0.0;
  (false, false) 0.0, 1.0;
}
probability ( v_9_1 | v_8_1 ) {
  (true) 0.0, 1.0;
  (false) 1.0, 0.0;
}
probability ( v_9_2 | v_9_1, v_8_2 ) {
  (true, true) 0.428743, 0.571257;
  (true, false) 0.798021, 0.201979;
  (false, true) 0.191998, 0.808002;
  (false, false) 0.997352, 0.00264772;
}
probability ( v_9_3 | v_9_2, v_8_3 ) {
  (true, true) 0.673659, 0.326341;
  (true, false) 0.421246, 0.578754;
  (false, true) 0.504129, 0.495871;
  (false, false) 0.103646, 0.896354;
}
probability ( v_9_4 | v_9_3, v_8_4 ) {
  (true, true) 1.0, 0.0;
  (true, false) 0.0, 1.0;
  (false, true) 0.0, 1.0;
  (false, false) 1.0, 0.0;
}
probability ( v_9_5 | v_9_4, v_8_5 ) {
  (true, true) 0.0, 1.0;
  (true, false) 1.0, 0.0;
  (false, true) 1.0, 0.0;
  (false, false) 1.0, 0.0;
}
probability ( v_9_6 | v_9_5, v_8_6 ) {
  (true, true) 0.492551, 0.507449;
  (true, false) 0.405666, 0.594334;
  (false, true) 0.143529, 0.856471;
  (false, false) 0.738311, 0.261689;
}
probability ( v_9_7 | v_9_6, v_8_7 ) {
  (true, true) 1.0, 0.0;
  (true, false) 0.0, 1.0;
  (false, true) 0.0, 1.0;
  (false, false) 1.0, 0.0;
}
probability ( v_9_8 | v_9_7, v_8_8 ) {
  (true, true) 1.0, 0.0;
  (true, false) 1.0, 0.0;
  (false, true) 0.0, 1.0;
  (false, false) 1.0, 0.0;
}
probability ( v_9_9 | v_9_8, v_8_9 ) {
  (true, true) 1.0, 0.0;
  (true, false) 1.0, 0.0;
  (false, true) 1.0, 0.0;
  (false, false) 0.0, 1.0;
}
probability ( v_9_10 | v_9_9, v_8_10 ) {
  (true, true) 0.0, 1.0;
  (true, false) 1.0, 0.0;
  (false, true) 0.0, 1.0;
  (false, false) 1.0, 0.0;
}
probability ( v_10_1 | v_9_1 ) {
  (true) 0.773801, 0.226199;
  (false) 0.825453, 0.174547;
}
probability ( v_10_2 | v_10_1, v_9_2 ) {
  (true, true) 0.0, 1.0;
  (true, false) 1.0, 0.0;
  (false, true) 1.0, 0.0;
  (false, false) 1.0, 0.0;
}
probability ( v_10_3 | v_10_2, v_9_3 ) {
  (true, true) 0.774932, 0.225068;
  (true, false) 0.753312, 0.246688;
  (false, true) 0.3365, 0.6635;
  (false, false) 0.0474126, 0.952587;
}
probability ( v_10_4 | v_10_3, v_9_4 ) {
  (true, true) 0.0, 1.0;
  (true, false) 1.0, 0.0;
  (false, true) 0.0, 1.0;
  (false, false) 1.0, 0.0;
}
probability ( v_10_5 | v_10_4, v_9_5 ) {
  (true, true) 1.0, 0.0;
  (true, false) 0.0, 1.0;
  (false, true) 0.0, 1.0;
  (false, false) 1.0, 0.0;
}
probability ( v_10_6 | v_10_5, v_9_6 ) {
  (true, true) 1.0, 0.0;
  (true, false) 0.0, 1.0;
  (false, true) 1.0, 0.0;
  (false, false) 0.0, 1.0;
}
probability ( v_10_7 | v_10_6, v_9_7 ) {
  (true, true) 0.853761, 0.146239;
  (true, false) 0.479241, 0.520759;
  (false, true) 0.598774, 0.401226;
  (false, false) 0.627562, 0.372438;
}
probability ( v_10_8 | v_10_7, v_9_8 ) {
  (true, true) 0.0, 1.0;
  (true, false) 0.0, 1.0;
  (false, true) 1.0, 0.0;
  (false, false) 1.0, 0.0;
}
probability ( v_10_9 | v_10_8, v_9_9 ) {
  (true, true) 1.0, 0.0;
  (true, false) 0.0, 1.0;
  (false, true) 1.0, 0.0;
  (false, false) 0.0, 1.0;
}
probability ( v_10_10 | v_10_9, v_9_10 ) {
  (true, true) 1.0, 0.0;
  (true, false) 0.0, 1.0;
  (false, true) 1.0, 0.0;
  (false, false) 1.0, 0.0;
}
