network unknown{
}
variable v_1_1 {
  type discrete [ 2 ] { yes, false };
}
variable v_1_2 {
  type discrete [ 2 ] { yes, false };
}
variable v_1_3 {
  type discrete [ 2 ] { yes, false };
}
variable v_1_4 {
  type discrete [ 2 ] { yes, false };
}
variable v_1_5 {
  type discrete [ 2 ] { yes, false };
}
variable v_1_6 {
  type discrete [ 2 ] { yes, false };
}
variable v_1_7 {
  type discrete [ 2 ] { yes, false };
}
variable v_1_8 {
  type discrete [ 2 ] { yes, false };
}
variable v_1_9 {
  type discrete [ 2 ] { yes, false };
}
variable v_1_10 {
  type discrete [ 2 ] { yes, false };
}
variable v_2_1 {
  type discrete [ 2 ] { yes, false };
}
variable v_2_2 {
  type discrete [ 2 ] { yes, false };
}
variable v_2_3 {
  type discrete [ 2 ] { yes, false };
}
variable v_2_4 {
  type discrete [ 2 ] { yes, false };
}
variable v_2_5 {
  type discrete [ 2 ] { yes, false };
}
variable v_2_6 {
  type discrete [ 2 ] { yes, false };
}
variable v_2_7 {
  type discrete [ 2 ] { yes, false };
}
variable v_2_8 {
  type discrete [ 2 ] { yes, false };
}
variable v_2_9 {
  type discrete [ 2 ] { yes, false };
}
variable v_2_10 {
  type discrete [ 2 ] { yes, false };
}
variable v_3_1 {
  type discrete [ 2 ] { yes, false };
}
variable v_3_2 {
  type discrete [ 2 ] { yes, false };
}
variable v_3_3 {
  type discrete [ 2 ] { yes, false };
}
variable v_3_4 {
  type discrete [ 2 ] { yes, false };
}
variable v_3_5 {
  type discrete [ 2 ] { yes, false };
}
variable v_3_6 {
  type discrete [ 2 ] { yes, false };
}
variable v_3_7 {
  type discrete [ 2 ] { yes, false };
}
variable v_3_8 {
  type discrete [ 2 ] { yes, false };
}
variable v_3_9 {
  type discrete [ 2 ] { yes, false };
}
variable v_3_10 {
  type discrete [ 2 ] { yes, false };
}
variable v_4_1 {
  type discrete [ 2 ] { yes, false };
}
variable v_4_2 {
  type discrete [ 2 ] { yes, false };
}
variable v_4_3 {
  type discrete [ 2 ] { yes, false };
}
variable v_4_4 {
  type discrete [ 2 ] { yes, false };
}
variable v_4_5 {
  type discrete [ 2 ] { yes, false };
}
variable v_4_6 {
  type discrete [ 2 ] { yes, false };
}
variable v_4_7 {
  type discrete [ 2 ] { yes, false };
}
variable v_4_8 {
  type discrete [ 2 ] { yes, false };
}
variable v_4_9 {
  type discrete [ 2 ] { yes, false };
}
variable v_4_10 {
  type discrete [ 2 ] { yes, false };
}
variable v_5_1 {
  type discrete [ 2 ] { yes, false };
}
variable v_5_2 {
  type discrete [ 2 ] { yes, false };
}
variable v_5_3 {
  type discrete [ 2 ] { yes, false };
}
variable v_5_4 {
  type discrete [ 2 ] { yes, false };
}
variable v_5_5 {
  type discrete [ 2 ] { yes, false };
}
variable v_5_6 {
  type discrete [ 2 ] { yes, false };
}
variable v_5_7 {
  type discrete [ 2 ] { yes, false };
}
variable v_5_8 {
  type discrete [ 2 ] { yes, false };
}
variable v_5_9 {
  type discrete [ 2 ] { yes, false };
}
variable v_5_10 {
  type discrete [ 2 ] { yes, false };
}
variable v_6_1 {
  type discrete [ 2 ] { yes, false };
}
variable v_6_2 {
  type discrete [ 2 ] { yes, false };
}
variable v_6_3 {
  type discrete [ 2 ] { yes, false };
}
variable v_6_4 {
  type discrete [ 2 ] { yes, false };
}
variable v_6_5 {
  type discrete [ 2 ] { yes, false };
}
variable v_6_6 {
  type discrete [ 2 ] { yes, false };
}
variable v_6_7 {
  type discrete [ 2 ] { yes, false };
}
variable v_6_8 {
  type discrete [ 2 ] { yes, false };
}
variable v_6_9 {
  type discrete [ 2 ] { yes, false };
}
variable v_6_10 {
  type discrete [ 2 ] { yes, false };
}
variable v_7_1 {
  type discrete [ 2 ] { yes, false };
}
variable v_7_2 {
  type discrete [ 2 ] { yes, false };
}
variable v_7_3 {
  type discrete [ 2 ] { yes, false };
}
variable v_7_4 {
  type discrete [ 2 ] { yes, false };
}
variable v_7_5 {
  type discrete [ 2 ] { yes, false };
}
variable v_7_6 {
  type discrete [ 2 ] { yes, false };
}
variable v_7_7 {
  type discrete [ 2 ] { yes, false };
}
variable v_7_8 {
  type discrete [ 2 ] { yes, false };
}
variable v_7_9 {
  type discrete [ 2 ] { yes, false };
}
variable v_7_10 {
  type discrete [ 2 ] { yes, false };
}
variable v_8_1 {
  type discrete [ 2 ] { yes, false };
}
variable v_8_2 {
  type discrete [ 2 ] { yes, false };
}
variable v_8_3 {
  type discrete [ 2 ] { yes, false };
}
variable v_8_4 {
  type discrete [ 2 ] { yes, false };
}
variable v_8_5 {
  type discrete [ 2 ] { yes, false };
}
variable v_8_6 {
  type discrete [ 2 ] { yes, false };
}
variable v_8_7 {
  type discrete [ 2 ] { yes, false };
}
variable v_8_8 {
  type discrete [ 2 ] { yes, false };
}
variable v_8_9 {
  type discrete [ 2 ] { yes, false };
}
variable v_8_10 {
  type discrete [ 2 ] { yes, false };
}
variable v_9_1 {
  type discrete [ 2 ] { yes, false };
}
variable v_9_2 {
  type discrete [ 2 ] { yes, false };
}
variable v_9_3 {
  type discrete [ 2 ] { yes, false };
}
variable v_9_4 {
  type discrete [ 2 ] { yes, false };
}
variable v_9_5 {
  type discrete [ 2 ] { yes, false };
}
variable v_9_6 {
  type discrete [ 2 ] { yes, false };
}
variable v_9_7 {
  type discrete [ 2 ] { yes, false };
}
variable v_9_8 {
  type discrete [ 2 ] { yes, false };
}
variable v_9_9 {
  type discrete [ 2 ] { yes, false };
}
variable v_9_10 {
  type discrete [ 2 ] { yes, false };
}
variable v_10_1 {
  type discrete [ 2 ] { yes, false };
}
variable v_10_2 {
  type discrete [ 2 ] { yes, false };
}
variable v_10_3 {
  type discrete [ 2 ] { yes, false };
}
variable v_10_4 {
  type discrete [ 2 ] { yes, false };
}
variable v_10_5 {
  type discrete [ 2 ] { yes, false };
}
variable v_10_6 {
  type discrete [ 2 ] { yes, false };
}
variable v_10_7 {
  type discrete [ 2 ] { yes, false };
}
variable v_10_8 {
  type discrete [ 2 ] { yes, false };
}
variable v_10_9 {
  type discrete [ 2 ] { yes, false };
}
variable v_10_10 {
  type discrete [ 2 ] { yes, false };
}
probability ( v_1_1 ) {
  table 0.793998, 0.206002;
}
probability ( v_1_2 | v_1_1 ) {
  (true) 0.0, 1.0;
  (false) 1.0, 0.0;
}
probability ( v_1_3 | v_1_2 ) {
  (true) 0.842476, 0.157524;
  (false) 0.273111, 0.726889;
}
probability ( v_1_4 | v_1_3 ) {
  (true) 0.0, 1.0;
  (false) 1.0, 0.0;
}
probability ( v_1_5 | v_1_4 ) {
  (true) 1.0, 0.0;
  (false) 0.0, 1.0;
}
probability ( v_1_6 | v_1_5 ) {
  (true) 0.667413, 0.332587;
  (false) 0.748865, 0.251135;
}
probability ( v_1_7 | v_1_6 ) {
  (true) 0.36236, 0.63764;
  (false) 0.432848, 0.567152;
}
probability ( v_1_8 | v_1_7 ) {
  (true) 0.608997, 0.391003;
  (false) 0.399961, 0.600039;
}
probability ( v_1_9 | v_1_8 ) {
  (true) 0.989484, 0.0105158;
  (false) 0.112762, 0.887238;
}
probability ( v_1_10 | v_1_9 ) {
  (true) 0.23723, 0.76277;
  (false) 0.602898, 0.397102;
}
probability ( v_2_1 | v_1_1 ) {
  (true) 0.459736, 0.540264;
  (false) 0.236935, 0.763065;
}
probability ( v_2_2 | v_2_1, v_1_2 ) {
  (true, true) 0.0, 1.0;
  (true, false) 0.0, 1.0;
  (false, true) 0.0, 1.0;
  (false, false) 1.0, 0.0;
}
probability ( v_2_3 | v_2_2, v_1_3 ) {
  (true, true) 1.0, 0.0;
  (true, false) 0.0, 1.0;
  (false, true) 1.0, 0.0;
  (false, false) 0.0, 1.0;
}
probability ( v_2_4 | v_2_3, v_1_4 ) {
  (true, true) 0.0, 1.0;
  (true, false) 1.0, 0.0;
  (false, true) 1.0, 0.0;
  (false, false) 0.0, 1.0;
}
probability ( v_2_5 | v_2_4, v_1_5 ) {
  (true, true) 0.0, 1.0;
  (true, false) 1.0, 0.0;
  (false, true) 0.0, 1.0;
  (false, false) 0.0, 1.0;
}
probability ( v_2_6 | v_2_5, v_1_6 ) {
  (true, true) 1.0, 0.0;
  (true, false) 0.0, 1.0;
  (false, true) 1.0, 0.0;
  (false, false) 1.0, 0.0;
}
probability ( v_2_7 | v_2_6, v_1_7 ) {
  (true, true) 0.468657, 0.531343;
  (true, false) 0.881057, 0.118943;
  (false, true) 0.39997, 0.60003;
  (false, false) 0.928392, 0.0716075;
}
probability ( v_2_8 | v_2_7, v_1_8 ) {
  (true, true) 1.0, 0.0;
  (true, false) 1.0, 0.0;
  (false, true) 0.0, 1.0;
  (false, false) 1.0, 0.0;
}
probability ( v_2_9 | v_2_8, v_1_9 ) {
  (true, true) 0.844092, 0.155908;
  (true, false) 0.512072, 0.487928;
  (false, true) 0.352143, 0.647857;
  (false, false) 0.534781, 0.465219;
}
probability ( v_2_10 | v_2_9, v_1_10 ) {
  (true, true) 0.955315, 0.0446855;
  (true, false) 0.118504, 0.881496;
  (false, true) 0.198062, 0.801938;
  (false, false) 0.225899, 0.774101;
}
probability ( v_3_1 | v_2_1 ) {
  (true) 1.0, 0.0;
  (false) 0.0, 1.0;
}
probability ( v_3_2 | v_3_1, v_2_2 ) {
  (true, true) 0.216529, 0.783471;
  (true, false) 0.533816, 0.466184;
  (false, true) 0.100787, 0.899213;
  (false, false) 0.381926, 0.618074;
}
probability ( v_3_3 | v_3_2, v_2_3 ) {
  (true, true) 1.0, 0.0;
  (true, false) 0.0, 1.0;
  (false, true) 0.0, 1.0;
  (false, false) 1.0, 0.0;
}
probability ( v_3_4 | v_3_3, v_2_4 ) {
  (true, true) 0.257128, 0.742872;
  (true, false) 0.729264, 0.270736;
  (false, true) 0.659135, 0.340865;
  (false, false) 0.704746, 0.295254;
}
probability ( v_3_5 | v_3_4, v_2_5 ) {
  (true, true) 1.0, 0.0;
  (true, false) 1.0, 0.0;
  (false, true) 0.0, 1.0;
  (false, false) 1.0, 0.0;
}
probability ( v_3_6 | v_3_5, v_2_6 ) {
  (true, true) 0.439273, 0.560727;
  (true, false) 0.316305, 0.683695;
  (false, true) 0.372882, 0.627118;
  (false, false) 0.40591, 0.59409;
}
probability ( v_3_7 | v_3_6, v_2_7 ) {
  (true, true) 0.0, 1.0;
  (true, false) 1.0, 0.0;
  (false, true) 1.0, 0.0;
  (false, false) 0.0, 1.0;
}
probability ( v_3_8 | v_3_7, v_2_8 ) {
  (true, true) 0.356364, 0.643636;
  (true, false) 0.159007, 0.840993;
  (false, true) 0.505347, 0.494653;
  (false, false) 0.457152, 0.542848;
}
probability ( v_3_9 | v_3_8, v_2_9 ) {
  (true, true) 0.8321, 0.1679;
  (true, false) 0.789366, 0.210634;
  (false, true) 0.201019, 0.798981;
  (false, false) 0.689258, 0.310742;
}
probability ( v_3_10 | v_3_9, v_2_10 ) {
  (true, true) 0.742162, 0.257838;
  (true, false) 0.946386, 0.0536137;
  (false, true) 0.319501, 0.680499;
  (false, false) 0.401296, 0.598704;
}
probability ( v_4_1 | v_3_1 ) {
  (true) 0.624191, 0.375809;
  (false) 0.570773, 0.429227;
}
probability ( v_4_2 | v_4_1, v_3_2 ) {
  (true, true) 0.551392, 0.448608;
  (true, false) 0.534935, 0.465065;
  (false, true) 0.483241, 0.516759;
  (false, false) 0.990664, 0.00933566;
}
probability ( v_4_3 | v_4_2, v_3_3 ) {
  (true, true) 0.856123, 0.143877;
  (true, false) 0.396574, 0.603426;
  (false, true) 0.12286, 0.87714;
  (false, false) 0.347509, 0.652491;
}
probability ( v_4_4 | v_4_3, v_3_4 ) {
  (true, true) 1.0, 0.0;
  (true, false) 1.0, 0.0;
  (false, true) 0.0, 1.0;
  (false, false) 0.0, 1.0;
}
probability ( v_4_5 | v_4_4, v_3_5 ) {
  (true, true) 0.0, 1.0;
  (true, false) 0.0, 1.0;
  (false, true) 1.0, 0.0;
  (false, false) 0.0, 1.0;
}
probability ( v_4_6 | v_4_5, v_3_6 ) {
  (true, true) 1.0, 0.0;
  (true, false) 1.0, 0.0;
  (false, true) 0.0, 1.0;
  (false, false) 0.0, 1.0;
}
probability ( v_4_7 | v_4_6, v_3_7 ) {
  (true, true) 1.0, 0.0;
  (true, false) 0.0, 1.0;
  (false, true) 0.0, 1.0;
  (false, false) 0.0, 1.0;
}
probability ( v_4_8 | v_4_7, v_3_8 ) {
  (true, true) 0.0, 1.0;
  (true, false) 1.0, 0.0;
  (false, true) 0.0, 1.0;
  (false, false) 0.0, 1.0;
}
probability ( v_4_9 | v_4_8, v_3_9 ) {
  (true, true) 0.0, 1.0;
  (true, false) 1.0, 0.0;
  (false, true) 0.0, 1.0;
  (false, false) 1.0, 0.0;
}
probability ( v_4_10 | v_4_9, v_3_10 ) {
  (true, true) 0.0345954, 0.965405;
  (true, false) 0.218303, 0.781697;
  (false, true) 0.668443, 0.331557;
  (false, false) 0.0113393, 0.988661;
}
probability ( v_5_1 | v_4_1 ) {
  (true) 0.145867, 0.854133;
  (false) 0.445235, 0.554765;
}
probability ( v_5_2 | v_5_1, v_4_2 ) {
  (true, true) 0.455391, 0.544609;
  (true, false) 0.668496, 0.331504;
  (false, true) 0.848177, 0.151823;
  (false, false) 0.454174, 0.545826;
}
probability ( v_5_3 | v_5_2, v_4_3 ) {
  (true, true) 1.0, 0.0;
  (true, false) 0.0, 1.0;
  (false, true) 1.0, 0.0;
  (false, false) 1.0, 0.0;
}
probability ( v_5_4 | v_5_3, v_4_4 ) {
  (true, true) 0.372183, 0.627817;
  (true, false) 0.0208728, 0.979127;
  (false, true) 0.237084, 0.762916;
  (false, false) 0.680765, 0.319235;
}
probability ( v_5_5 | v_5_4, v_4_5 ) {
  (true, true) 0.0, 1.0;
  (true, false) 0.0, 1.0;
  (false, true) 0.0, 1.0;
  (false, false) 1.0, 0.0;
}
probability ( v_5_6 | v_5_5, v_4_6 ) {
  (true, true) 0.166558, 0.833442;
  (true, false) 0.470887, 0.529113;
  (false, true) 0.372196, 0.627804;
  (false, false) 0.201154, 0.798846;
}
probability ( v_5_7 | v_5_6, v_4_7 ) {
  (true, true) 0.0406395, 0.959361;
  (true, false) 0.212493, 0.787507;
  (false, true) 0.356489, 0.643511;
  (false, false) 0.186507, 0.813493;
}
probability ( v_5_8 | v_5_7, v_4_8 ) {
  (true, true) 0.0137172, 0.986283;
  (true, false) 0.641898, 0.358102;
  (false, true) 0.326224, 0.673776;
  (false, false) 0.861894, 0.138106;
}
probability ( v_5_9 | v_5_8, v_4_9 ) {
  (true, true) 1.0, 0.0;
  (true, false) 0.0, 1.0;
  (false, true) 1.0, 0.0;
  (false, false) 0.0, 1.0;
}
probability ( v_5_10 | v_5_9, v_4_10 ) {
  (true, true) 0.491057, 0.508943;
  (true, false) 0.795395, 0.204605;
  (false, true) 0.779747, 0.220253;
  (false, false) 0.728141, 0.271859;
}
probability ( v_6_1 | v_5_1 ) {
  (true) 1.0, 0.0;
  (false) 0.0, 1.0;
}
probability ( v_6_2 | v_6_1, v_5_2 ) {
  (true, true) 0.45617, 0.54383;
  (true, false) 0.993077, 0.00692276;
  (false, true) 0.232479, 0.767521;
  (false, false) 0.132, 0.868;
}
probability ( v_6_3 | v_6_2, v_5_3 ) {
  (true, true) 1.0, 0.0;
  (true, false) 1.0, 0.0;
  (false, true) 0.0, 1.0;
  (false, false) 1.0, 0.0;
}
probability ( v_6_4 | v_6_3, v_5_4 ) {
  (true, true) 0.573282, 0.426718;
  (true, false) 0.749045, 0.250955;
  (false, true) 0.731343, 0.268657;
  (false, false) 0.23101, 0.76899;
}
probability ( v_6_5 | v_6_4, v_5_5 ) {
  (true, true) 0.373241, 0.626759;
  (true, false) 0.557233, 0.442767;
  (false, true) 0.624656, 0.375344;
  (false, false) 0.469313, 0.530687;
}
probability ( v_6_6 | v_6_5, v_5_6 ) {
  (true, true) 1.0, 0.0;
  (true, false) 1.0, 0.0;
  (false, true) 0.0, 1.0;
  (false, false) 0.0, 1.0;
}
probability ( v_6_7 | v_6_6, v_5_7 ) {
  (true, true) 0.0, 1.0;
  (true, false) 1.0, 0.0;
  (false, true) 0.0, 1.0;
  (false, false) 0.0, 1.0;
}
probability ( v_6_8 | v_6_7, v_5_8 ) {
  (true, true) 1.0, 0.0;
  (true, false) 0.0, 1.0;
  (false, true) 1.0, 0.0;
  (false, false) 0.0, 1.0;
}
probability ( v_6_9 | v_6_8, v_5_9 ) {
  (true, true) 0.199906, 0.800094;
  (true, false) 0.809678, 0.190322;
  (false, true) 0.152586, 0.847414;
  (false, false) 0.560695, 0.439305;
}
probability ( v_6_10 | v_6_9, v_5_10 ) {
  (true, true) 0.0, 1.0;
  (true, false) 0.0, 1.0;
  (false, true) 1.0, 0.0;
  (false, false) 0.0, 1.0;
}
probability ( v_7_1 | v_6_1 ) {
  (true) 1.0, 0.0;
  (false) 0.0, 1.0;
}
probability ( v_7_2 | v_7_1, v_6_2 ) {
  (true, true) 0.92222, 0.0777798;
  (true, false) 0.338698, 0.661302;
  (false, true) 0.271319, 0.728681;
  (false, false) 0.287672, 0.712328;
}
probability ( v_7_3 | v_7_2, v_6_3 ) {
  (true, true) 0.236046, 0.763954;
  (true, false) 0.0763348, 0.923665;
  (false, true) 0.633247, 0.366753;
  (false, false) 0.69183, 0.30817;
}
probability ( v_7_4 | v_7_3, v_6_4 ) {
  (true, true) 0.439706, 0.560294;
  (true, false) 0.875755, 0.124245;
  (false, true) 0.720611, 0.279389;
  (false, false) 0.4869, 0.5131;
}
probability ( v_7_5 | v_7_4, v_6_5 ) {
  (true, true) 0.236999, 0.763001;
  (true, false) 0.527171, 0.472829;
  (false, true) 0.8559, 0.1441;
  (false, false) 0.885388, 0.114612;
}
probability ( v_7_6 | v_7_5, v_6_6 ) {
  (true, true) 0.665578, 0.334422;
  (true, false) 0.0379735, 0.962026;
  (false, true) 0.287773, 0.712227;
  (false, false) 0.867812, 0.132188;
}
probability ( v_7_7 | v_7_6, v_6_7 ) {
  (true, true) 0.421751, 0.578249;
  (true, false) 0.819092, 0.180908;
  (false, true) 0.16416, 0.83584;
  (false, false) 0.786738, 0.213262;
}
probability ( v_7_8 | v_7_7, v_6_8 ) {
  (true, true) 0.966166, 0.0338338;
  (true, false) 0.708958, 0.291042;
  (false, true) 0.871832, 0.128168;
  (false, false) 0.237485, 0.762515;
}
probability ( v_7_9 | v_7_8, v_6_9 ) {
  (true, true) 0.478368, 0.521632;
  (true, false) 0.473532, 0.526468;
  (false, true) 0.0729641, 0.927036;
  (false, false) 0.111615, 0.888385;
}
probability ( v_7_10 | v_7_9, v_6_10 ) {
  (true, true) 0.0, 1.0;
  (true, false) 0.0, 1.0;
  (false, true) 1.0, 0.0;
  (false, false) 0.0, 1.0;
}
probability ( v_8_1 | v_7_1 ) {
  (true) 0.0, 1.0;
  (false) 1.0, 0.0;
}
probability ( v_8_2 | v_8_1, v_7_2 ) {
  (true, true) 0.565393, 0.434607;
  (true, false) 0.646605, 0.353395;
  (false, true) 0.576356, 0.423644;
  (false, false) 0.292471, 0.707529;
}
probability ( v_8_3 | v_8_2, v_7_3 ) {
  (true, true) 0.0, 1.0;
  (true, false) 1.0, 0.0;
  (false, true) 0.0, 1.0;
  (false, false) 0.0, 1.0;
}
probability ( v_8_4 | v_8_3, v_7_4 ) {
  (true, true) 0.513885, 0.486115;
  (true, false) 0.788732, 0.211268;
  (false, true) 0.53222, 0.46778;
  (false, false) 0.480051, 0.519949;
}
probability ( v_8_5 | v_8_4, v_7_5 ) {
  (true, true) 1.0, 0.0;
  (true, false) 1.0, 0.0;
  (false, true) 0.0, 1.0;
  (false, false) 0.0, 1.0;
}
probability ( v_8_6 | v_8_5, v_7_6 ) {
  (true, true) 1.0, 0.0;
  (true, false) 1.0, 0.0;
  (false, true) 1.0, 0.0;
  (false, false) 0.0, 1.0;
}
probability ( v_8_7 | v_8_6, v_7_7 ) {
  (true, true) 0.0, 1.0;
  (true, false) 1.0, 0.0;
  (false, true) 0.0, 1.0;
  (false, false) 0.0, 1.0;
}
probability ( v_8_8 | v_8_7, v_7_8 ) {
  (true, true) 0.0219322, 0.978068;
  (true, false) 0.441442, 0.558558;
  (false, true) 0.14704, 0.85296;
  (false, false) 0.636261, 0.363739;
}
probability ( v_8_9 | v_8_8, v_7_9 ) {
  (true, true) 1.0, 0.0;
  (true, false) 0.0, 1.0;
  (false, true) 1.0, 0.0;
  (false, false) 1.0, 0.0;
}
probability ( v_8_10 | v_8_9, v_7_10 ) {
  (true, true) 1.0, 0.0;
  (true, false) 1.0, 0.0;
  (false, true) 0.0, 1.0;
  (false, false) 1.0, 0.0;
}
probability ( v_9_1 | v_8_1 ) {
  (true) 0.804422, 0.195578;
  (false) 0.144812, 0.855188;
}
probability ( v_9_2 | v_9_1, v_8_2 ) {
  (true, true) 0.371705, 0.628295;
  (true, false) 0.138847, 0.861153;
  (false, true) 0.244955, 0.755045;
  (false, false) 0.672346, 0.327654;
}
probability ( v_9_3 | v_9_2, v_8_3 ) {
  (true, true) 0.642502, 0.357498;
  (true, false) 0.426954, 0.573046;
  (false, true) 0.267781, 0.732219;
  (false, false) 0.830755, 0.169245;
}
probability ( v_9_4 | v_9_3, v_8_4 ) {
  (true, true) 0.416753, 0.583247;
  (true, false) 0.665612, 0.334388;
  (false, true) 0.894463, 0.105537;
  (false, false) 0.858195, 0.141805;
}
probability ( v_9_5 | v_9_4, v_8_5 ) {
  (true, true) 0.530725, 0.469275;
  (true, false) 0.879882, 0.120118;
  (false, true) 0.139686, 0.860314;
  (false, false) 0.516711, 0.483289;
}
probability ( v_9_6 | v_9_5, v_8_6 ) {
  (true, true) 0.465807, 0.534193;
  (true, false) 0.0165812, 0.983419;
  (false, true) 0.715976, 0.284024;
  (false, false) 0.324147, 0.675853;
}
probability ( v_9_7 | v_9_6, v_8_7 ) {
  (true, true) 0.0260784, 0.973922;
  (true, false) 0.58654, 0.41346;
  (false, true) 0.693961, 0.306039;
  (false, false) 0.8305, 0.1695;
}
probability ( v_9_8 | v_9_7, v_8_8 ) {
  (true, true) 0.582486, 0.417514;
  (true, false) 0.202206, 0.797794;
  (false, true) 0.870198, 0.129802;
  (false, false) 0.827442, 0.172558;
}
probability ( v_9_9 | v_9_8, v_8_9 ) {
  (true, true) 0.554401, 0.445599;
  (true, false) 0.469944, 0.530056;
  (false, true) 0.301506, 0.698494;
  (false, false) 0.822183, 0.177817;
}
probability ( v_9_10 | v_9_9, v_8_10 ) {
  (true, true) 1.0, 0.0;
  (true, false) 1.0, 0.0;
  (false, true) 0.0, 1.0;
  (false, false) 1.0, 0.0;
}
probability ( v_10_1 | v_9_1 ) {
  (true) 0.0, 1.0;
  (false) 1.0, 0.0;
}
probability ( v_10_2 | v_10_1, v_9_2 ) {
  (true, true) 0.977012, 0.0229875;
  (true, false) 0.918649, 0.0813508;
  (false, true) 0.115935, 0.884065;
  (false, false) 0.880575, 0.119425;
}
probability ( v_10_3 | v_10_2, v_9_3 ) {
  (true, true) 0.0, 1.0;
  (true, false) 1.0, 0.0;
  (false, true) 1.0, 0.0;
  (false, false) 1.0, 0.0;
}
probability ( v_10_4 | v_10_3, v_9_4 ) {
  (true, true) 0.295144, 0.704856;
  (true, false) 0.82298, 0.17702;
  (false, true) 0.453129, 0.546871;
  (false, false) 0.0264952, 0.973505;
}
probability ( v_10_5 | v_10_4, v_9_5 ) {
  (true, true) 0.0, 1.0;
  (true, false) 1.0, 0.0;
  (false, true) 1.0, 0.0;
  (false, false) 1.0, 0.0;
}
probability ( v_10_6 | v_10_5, v_9_6 ) {
  (true, true) 1.0, 0.0;
  (true, false) 1.0, 0.0;
  (false, true) 0.0, 1.0;
  (false, false) 0.0, 1.0;
}
probability ( v_10_7 | v_10_6, v_9_7 ) {
  (true, true) 0.0, 1.0;
  (true, false) 0.0, 1.0;
  (false, true) 1.0, 0.0;
  (false, false) 0.0, 1.0;
}
probability ( v_10_8 | v_10_7, v_9_8 ) {
  (true, true) 0.586357, 0.413643;
  (true, false) 0.667473, 0.332527;
  (false, true) 0.789088, 0.210912;
  (false, false) 0.466932, 0.533068;
}
probability ( v_10_9 | v_10_8, v_9_9 ) {
  (true, true) 0.0, 1.0;
  (true, false) 1.0, 0.0;
  (false, true) 0.0, 1.0;
  (false, false) 1.0, 0.0;
}
probability ( v_10_10 | v_10_9, v_9_10 ) {
  (true, true) 0.0556766, 0.944323;
  (true, false) 0.873603, 0.126397;
  (false, true) 0.13924, 0.86076;
  (false, false) 0.0821719, 0.917828;
}
