network unknown{
}
variable v_1_1 {
  type discrete [ 2 ] { yes, false };
}
variable v_1_2 {
  type discrete [ 2 ] { yes, false };
}
variable v_1_3 {
  type discrete [ 2 ] { yes, false };
}
variable v_1_4 {
  type discrete [ 2 ] { yes, false };
}
variable v_1_5 {
  type discrete [ 2 ] { yes, false };
}
variable v_1_6 {
  type discrete [ 2 ] { yes, false };
}
variable v_1_7 {
  type discrete [ 2 ] { yes, false };
}
variable v_1_8 {
  type discrete [ 2 ] { yes, false };
}
variable v_1_9 {
  type discrete [ 2 ] { yes, false };
}
variable v_1_10 {
  type discrete [ 2 ] { yes, false };
}
variable v_2_1 {
  type discrete [ 2 ] { yes, false };
}
variable v_2_2 {
  type discrete [ 2 ] { yes, false };
}
variable v_2_3 {
  type discrete [ 2 ] { yes, false };
}
variable v_2_4 {
  type discrete [ 2 ] { yes, false };
}
variable v_2_5 {
  type discrete [ 2 ] { yes, false };
}
variable v_2_6 {
  type discrete [ 2 ] { yes, false };
}
variable v_2_7 {
  type discrete [ 2 ] { yes, false };
}
variable v_2_8 {
  type discrete [ 2 ] { yes, false };
}
variable v_2_9 {
  type discrete [ 2 ] { yes, false };
}
variable v_2_10 {
  type discrete [ 2 ] { yes, false };
}
variable v_3_1 {
  type discrete [ 2 ] { yes, false };
}
variable v_3_2 {
  type discrete [ 2 ] { yes, false };
}
variable v_3_3 {
  type discrete [ 2 ] { yes, false };
}
variable v_3_4 {
  type discrete [ 2 ] { yes, false };
}
variable v_3_5 {
  type discrete [ 2 ] { yes, false };
}
variable v_3_6 {
  type discrete [ 2 ] { yes, false };
}
variable v_3_7 {
  type discrete [ 2 ] { yes, false };
}
variable v_3_8 {
  type discrete [ 2 ] { yes, false };
}
variable v_3_9 {
  type discrete [ 2 ] { yes, false };
}
variable v_3_10 {
  type discrete [ 2 ] { yes, false };
}
variable v_4_1 {
  type discrete [ 2 ] { yes, false };
}
variable v_4_2 {
  type discrete [ 2 ] { yes, false };
}
variable v_4_3 {
  type discrete [ 2 ] { yes, false };
}
variable v_4_4 {
  type discrete [ 2 ] { yes, false };
}
variable v_4_5 {
  type discrete [ 2 ] { yes, false };
}
variable v_4_6 {
  type discrete [ 2 ] { yes, false };
}
variable v_4_7 {
  type discrete [ 2 ] { yes, false };
}
variable v_4_8 {
  type discrete [ 2 ] { yes, false };
}
variable v_4_9 {
  type discrete [ 2 ] { yes, false };
}
variable v_4_10 {
  type discrete [ 2 ] { yes, false };
}
variable v_5_1 {
  type discrete [ 2 ] { yes, false };
}
variable v_5_2 {
  type discrete [ 2 ] { yes, false };
}
variable v_5_3 {
  type discrete [ 2 ] { yes, false };
}
variable v_5_4 {
  type discrete [ 2 ] { yes, false };
}
variable v_5_5 {
  type discrete [ 2 ] { yes, false };
}
variable v_5_6 {
  type discrete [ 2 ] { yes, false };
}
variable v_5_7 {
  type discrete [ 2 ] { yes, false };
}
variable v_5_8 {
  type discrete [ 2 ] { yes, false };
}
variable v_5_9 {
  type discrete [ 2 ] { yes, false };
}
variable v_5_10 {
  type discrete [ 2 ] { yes, false };
}
variable v_6_1 {
  type discrete [ 2 ] { yes, false };
}
variable v_6_2 {
  type discrete [ 2 ] { yes, false };
}
variable v_6_3 {
  type discrete [ 2 ] { yes, false };
}
variable v_6_4 {
  type discrete [ 2 ] { yes, false };
}
variable v_6_5 {
  type discrete [ 2 ] { yes, false };
}
variable v_6_6 {
  type discrete [ 2 ] { yes, false };
}
variable v_6_7 {
  type discrete [ 2 ] { yes, false };
}
variable v_6_8 {
  type discrete [ 2 ] { yes, false };
}
variable v_6_9 {
  type discrete [ 2 ] { yes, false };
}
variable v_6_10 {
  type discrete [ 2 ] { yes, false };
}
variable v_7_1 {
  type discrete [ 2 ] { yes, false };
}
variable v_7_2 {
  type discrete [ 2 ] { yes, false };
}
variable v_7_3 {
  type discrete [ 2 ] { yes, false };
}
variable v_7_4 {
  type discrete [ 2 ] { yes, false };
}
variable v_7_5 {
  type discrete [ 2 ] { yes, false };
}
variable v_7_6 {
  type discrete [ 2 ] { yes, false };
}
variable v_7_7 {
  type discrete [ 2 ] { yes, false };
}
variable v_7_8 {
  type discrete [ 2 ] { yes, false };
}
variable v_7_9 {
  type discrete [ 2 ] { yes, false };
}
variable v_7_10 {
  type discrete [ 2 ] { yes, false };
}
variable v_8_1 {
  type discrete [ 2 ] { yes, false };
}
variable v_8_2 {
  type discrete [ 2 ] { yes, false };
}
variable v_8_3 {
  type discrete [ 2 ] { yes, false };
}
variable v_8_4 {
  type discrete [ 2 ] { yes, false };
}
variable v_8_5 {
  type discrete [ 2 ] { yes, false };
}
variable v_8_6 {
  type discrete [ 2 ] { yes, false };
}
variable v_8_7 {
  type discrete [ 2 ] { yes, false };
}
variable v_8_8 {
  type discrete [ 2 ] { yes, false };
}
variable v_8_9 {
  type discrete [ 2 ] { yes, false };
}
variable v_8_10 {
  type discrete [ 2 ] { yes, false };
}
variable v_9_1 {
  type discrete [ 2 ] { yes, false };
}
variable v_9_2 {
  type discrete [ 2 ] { yes, false };
}
variable v_9_3 {
  type discrete [ 2 ] { yes, false };
}
variable v_9_4 {
  type discrete [ 2 ] { yes, false };
}
variable v_9_5 {
  type discrete [ 2 ] { yes, false };
}
variable v_9_6 {
  type discrete [ 2 ] { yes, false };
}
variable v_9_7 {
  type discrete [ 2 ] { yes, false };
}
variable v_9_8 {
  type discrete [ 2 ] { yes, false };
}
variable v_9_9 {
  type discrete [ 2 ] { yes, false };
}
variable v_9_10 {
  type discrete [ 2 ] { yes, false };
}
variable v_10_1 {
  type discrete [ 2 ] { yes, false };
}
variable v_10_2 {
  type discrete [ 2 ] { yes, false };
}
variable v_10_3 {
  type discrete [ 2 ] { yes, false };
}
variable v_10_4 {
  type discrete [ 2 ] { yes, false };
}
variable v_10_5 {
  type discrete [ 2 ] { yes, false };
}
variable v_10_6 {
  type discrete [ 2 ] { yes, false };
}
variable v_10_7 {
  type discrete [ 2 ] { yes, false };
}
variable v_10_8 {
  type discrete [ 2 ] { yes, false };
}
variable v_10_9 {
  type discrete [ 2 ] { yes, false };
}
variable v_10_10 {
  type discrete [ 2 ] { yes, false };
}
probability ( v_1_1 ) {
  table 0.796661, 0.203339;
}
probability ( v_1_2 | v_1_1 ) {
  (true) 1.0, 0.0;
  (false) 0.0, 1.0;
}
probability ( v_1_3 | v_1_2 ) {
  (true) 1.0, 0.0;
  (false) 0.0, 1.0;
}
probability ( v_1_4 | v_1_3 ) {
  (true) 1.0, 0.0;
  (false) 0.0, 1.0;
}
probability ( v_1_5 | v_1_4 ) {
  (true) 0.0, 1.0;
  (false) 1.0, 0.0;
}
probability ( v_1_6 | v_1_5 ) {
  (true) 0.892514, 0.107486;
  (false) 0.814677, 0.185323;
}
probability ( v_1_7 | v_1_6 ) {
  (true) 0.0, 1.0;
  (false) 1.0, 0.0;
}
probability ( v_1_8 | v_1_7 ) {
  (true) 0.0, 1.0;
  (false) 1.0, 0.0;
}
probability ( v_1_9 | v_1_8 ) {
  (true) 0.0, 1.0;
  (false) 1.0, 0.0;
}
probability ( v_1_10 | v_1_9 ) {
  (true) 0.0, 1.0;
  (false) 1.0, 0.0;
}
probability ( v_2_1 | v_1_1 ) {
  (true) 1.0, 0.0;
  (false) 0.0, 1.0;
}
probability ( v_2_2 | v_2_1, v_1_2 ) {
  (true, true) 0.0, 1.0;
  (true, false) 1.0, 0.0;
  (false, true) 1.0, 0.0;
  (false, false) 0.0, 1.0;
}
probability ( v_2_3 | v_2_2, v_1_3 ) {
  (true, true) 0.0, 1.0;
  (true, false) 0.0, 1.0;
  (false, true) 1.0, 0.0;
  (false, false) 0.0, 1.0;
}
probability ( v_2_4 | v_2_3, v_1_4 ) {
  (true, true) 0.0, 1.0;
  (true, false) 0.0, 1.0;
  (false, true) 1.0, 0.0;
  (false, false) 0.0, 1.0;
}
probability ( v_2_5 | v_2_4, v_1_5 ) {
  (true, true) 0.0, 1.0;
  (true, false) 1.0, 0.0;
  (false, true) 1.0, 0.0;
  (false, false) 0.0, 1.0;
}
probability ( v_2_6 | v_2_5, v_1_6 ) {
  (true, true) 0.0, 1.0;
  (true, false) 0.0, 1.0;
  (false, true) 1.0, 0.0;
  (false, false) 0.0, 1.0;
}
probability ( v_2_7 | v_2_6, v_1_7 ) {
  (true, true) 1.0, 0.0;
  (true, false) 0.0, 1.0;
  (false, true) 1.0, 0.0;
  (false, false) 0.0, 1.0;
}
probability ( v_2_8 | v_2_7, v_1_8 ) {
  (true, true) 0.0, 1.0;
  (true, false) 0.0, 1.0;
  (false, true) 1.0, 0.0;
  (false, false) 1.0, 0.0;
}
probability ( v_2_9 | v_2_8, v_1_9 ) {
  (true, true) 0.188055, 0.811945;
  (true, false) 0.86986, 0.13014;
  (false, true) 0.96934, 0.0306603;
  (false, false) 0.940452, 0.0595475;
}
probability ( v_2_10 | v_2_9, v_1_10 ) {
  (true, true) 0.0, 1.0;
  (true, false) 0.0, 1.0;
  (false, true) 1.0, 0.0;
  (false, false) 1.0, 0.0;
}
probability ( v_3_1 | v_2_1 ) {
  (true) 1.0, 0.0;
  (false) 0.0, 1.0;
}
probability ( v_3_2 | v_3_1, v_2_2 ) {
  (true, true) 0.0, 1.0;
  (true, false) 0.0, 1.0;
  (false, true) 1.0, 0.0;
  (false, false) 0.0, 1.0;
}
probability ( v_3_3 | v_3_2, v_2_3 ) {
  (true, true) 1.0, 0.0;
  (true, false) 0.0, 1.0;
  (false, true) 1.0, 0.0;
  (false, false) 1.0, 0.0;
}
probability ( v_3_4 | v_3_3, v_2_4 ) {
  (true, true) 0.0, 1.0;
  (true, false) 1.0, 0.0;
  (false, true) 1.0, 0.0;
  (false, false) 0.0, 1.0;
}
probability ( v_3_5 | v_3_4, v_2_5 ) {
  (true, true) 0.0, 1.0;
  (true, false) 1.0, 0.0;
  (false, true) 0.0, 1.0;
  (false, false) 1.0, 0.0;
}
probability ( v_3_6 | v_3_5, v_2_6 ) {
  (true, true) 1.0, 0.0;
  (true, false) 1.0, 0.0;
  (false, true) 0.0, 1.0;
  (false, false) 1.0, 0.0;
}
probability ( v_3_7 | v_3_6, v_2_7 ) {
  (true, true) 1.0, 0.0;
  (true, false) 1.0, 0.0;
  (false, true) 0.0, 1.0;
  (false, false) 0.0, 1.0;
}
probability ( v_3_8 | v_3_7, v_2_8 ) {
  (true, true) 0.0, 1.0;
  (true, false) 0.0, 1.0;
  (false, true) 1.0, 0.0;
  (false, false) 0.0, 1.0;
}
probability ( v_3_9 | v_3_8, v_2_9 ) {
  (true, true) 0.0, 1.0;
  (true, false) 1.0, 0.0;
  (false, true) 0.0, 1.0;
  (false, false) 1.0, 0.0;
}
probability ( v_3_10 | v_3_9, v_2_10 ) {
  (true, true) 0.0, 1.0;
  (true, false) 0.0, 1.0;
  (false, true) 1.0, 0.0;
  (false, false) 0.0, 1.0;
}
probability ( v_4_1 | v_3_1 ) {
  (true) 0.330855, 0.669145;
  (false) 0.0736472, 0.926353;
}
probability ( v_4_2 | v_4_1, v_3_2 ) {
  (true, true) 0.0, 1.0;
  (true, false) 1.0, 0.0;
  (false, true) 0.0, 1.0;
  (false, false) 1.0, 0.0;
}
probability ( v_4_3 | v_4_2, v_3_3 ) {
  (true, true) 1.0, 0.0;
  (true, false) 0.0, 1.0;
  (false, true) 1.0, 0.0;
  (false, false) 0.0, 1.0;
}
probability ( v_4_4 | v_4_3, v_3_4 ) {
  (true, true) 1.0, 0.0;
  (true, false) 1.0, 0.0;
  (false, true) 1.0, 0.0;
  (false, false) 0.0, 1.0;
}
probability ( v_4_5 | v_4_4, v_3_5 ) {
  (true, true) 0.0, 1.0;
  (true, false) 1.0, 0.0;
  (false, true) 0.0, 1.0;
  (false, false) 0.0, 1.0;
}
probability ( v_4_6 | v_4_5, v_3_6 ) {
  (true, true) 1.0, 0.0;
  (true, false) 1.0, 0.0;
  (false, true) 0.0, 1.0;
  (false, false) 1.0, 0.0;
}
probability ( v_4_7 | v_4_6, v_3_7 ) {
  (true, true) 0.0, 1.0;
  (true, false) 0.0, 1.0;
  (false, true) 1.0, 0.0;
  (false, false) 1.0, 0.0;
}
probability ( v_4_8 | v_4_7, v_3_8 ) {
  (true, true) 1.0, 0.0;
  (true, false) 1.0, 0.0;
  (false, true) 1.0, 0.0;
  (false, false) 0.0, 1.0;
}
probability ( v_4_9 | v_4_8, v_3_9 ) {
  (true, true) 0.0, 1.0;
  (true, false) 1.0, 0.0;
  (false, true) 1.0, 0.0;
  (false, false) 1.0, 0.0;
}
probability ( v_4_10 | v_4_9, v_3_10 ) {
  (true, true) 0.470144, 0.529856;
  (true, false) 0.148536, 0.851464;
  (false, true) 0.253287, 0.746713;
  (false, false) 0.466955, 0.533045;
}
probability ( v_5_1 | v_4_1 ) {
  (true) 1.0, 0.0;
  (false) 0.0, 1.0;
}
probability ( v_5_2 | v_5_1, v_4_2 ) {
  (true, true) 0.989307, 0.0106931;
  (true, false) 0.337842, 0.662158;
  (false, true) 0.786018, 0.213982;
  (false, false) 0.51449, 0.48551;
}
probability ( v_5_3 | v_5_2, v_4_3 ) {
  (true, true) 0.0, 1.0;
  (true, false) 1.0, 0.0;
  (false, true) 0.0, 1.0;
  (false, false) 1.0, 0.0;
}
probability ( v_5_4 | v_5_3, v_4_4 ) {
  (true, true) 0.0, 1.0;
  (true, false) 0.0, 1.0;
  (false, true) 1.0, 0.0;
  (false, false) 1.0, 0.0;
}
probability ( v_5_5 | v_5_4, v_4_5 ) {
  (true, true) 0.0, 1.0;
  (true, false) 0.0, 1.0;
  (false, true) 1.0, 0.0;
  (false, false) 0.0, 1.0;
}
probability ( v_5_6 | v_5_5, v_4_6 ) {
  (true, true) 0.0, 1.0;
  (true, false) 1.0, 0.0;
  (false, true) 1.0, 0.0;
  (false, false) 1.0, 0.0;
}
probability ( v_5_7 | v_5_6, v_4_7 ) {
  (true, true) 1.0, 0.0;
  (true, false) 0.0, 1.0;
  (false, true) 1.0, 0.0;
  (false, false) 0.0, 1.0;
}
probability ( v_5_8 | v_5_7, v_4_8 ) {
  (true, true) 1.0, 0.0;
  (true, false) 0.0, 1.0;
  (false, true) 0.0, 1.0;
  (false, false) 1.0, 0.0;
}
probability ( v_5_9 | v_5_8, v_4_9 ) {
  (true, true) 1.0, 0.0;
  (true, false) 0.0, 1.0;
  (false, true) 0.0, 1.0;
  (false, false) 0.0, 1.0;
}
probability ( v_5_10 | v_5_9, v_4_10 ) {
  (true, true) 0.0, 1.0;
  (true, false) 0.0, 1.0;
  (false, true) 1.0, 0.0;
  (false, false) 1.0, 0.0;
}
probability ( v_6_1 | v_5_1 ) {
  (true) 1.0, 0.0;
  (false) 0.0, 1.0;
}
probability ( v_6_2 | v_6_1, v_5_2 ) {
  (true, true) 1.0, 0.0;
  (true, false) 1.0, 0.0;
  (false, true) 0.0, 1.0;
  (false, false) 0.0, 1.0;
}
probability ( v_6_3 | v_6_2, v_5_3 ) {
  (true, true) 1.0, 0.0;
  (true, false) 0.0, 1.0;
  (false, true) 0.0, 1.0;
  (false, false) 1.0, 0.0;
}
probability ( v_6_4 | v_6_3, v_5_4 ) {
  (true, true) 0.0, 1.0;
  (true, false) 0.0, 1.0;
  (false, true) 1.0, 0.0;
  (false, false) 0.0, 1.0;
}
probability ( v_6_5 | v_6_4, v_5_5 ) {
  (true, true) 1.0, 0.0;
  (true, false) 0.0, 1.0;
  (false, true) 0.0, 1.0;
  (false, false) 0.0, 1.0;
}
probability ( v_6_6 | v_6_5, v_5_6 ) {
  (true, true) 1.0, 0.0;
  (true, false) 0.0, 1.0;
  (false, true) 1.0, 0.0;
  (false, false) 1.0, 0.0;
}
probability ( v_6_7 | v_6_6, v_5_7 ) {
  (true, true) 0.0, 1.0;
  (true, false) 0.0, 1.0;
  (false, true) 0.0, 1.0;
  (false, false) 1.0, 0.0;
}
probability ( v_6_8 | v_6_7, v_5_8 ) {
  (true, true) 1.0, 0.0;
  (true, false) 0.0, 1.0;
  (false, true) 0.0, 1.0;
  (false, false) 0.0, 1.0;
}
probability ( v_6_9 | v_6_8, v_5_9 ) {
  (true, true) 1.0, 0.0;
  (true, false) 0.0, 1.0;
  (false, true) 0.0, 1.0;
  (false, false) 0.0, 1.0;
}
probability ( v_6_10 | v_6_9, v_5_10 ) {
  (true, true) 1.0, 0.0;
  (true, false) 0.0, 1.0;
  (false, true) 0.0, 1.0;
  (false, false) 1.0, 0.0;
}
probability ( v_7_1 | v_6_1 ) {
  (true) 0.0, 1.0;
  (false) 1.0, 0.0;
}
probability ( v_7_2 | v_7_1, v_6_2 ) {
  (true, true) 0.0, 1.0;
  (true, false) 0.0, 1.0;
  (false, true) 1.0, 0.0;
  (false, false) 1.0, 0.0;
}
probability ( v_7_3 | v_7_2, v_6_3 ) {
  (true, true) 0.0, 1.0;
  (true, false) 0.0, 1.0;
  (false, true) 1.0, 0.0;
  (false, false) 0.0, 1.0;
}
probability ( v_7_4 | v_7_3, v_6_4 ) {
  (true, true) 0.0, 1.0;
  (true, false) 1.0, 0.0;
  (false, true) 1.0, 0.0;
  (false, false) 0.0, 1.0;
}
probability ( v_7_5 | v_7_4, v_6_5 ) {
  (true, true) 1.0, 0.0;
  (true, false) 0.0, 1.0;
  (false, true) 0.0, 1.0;
  (false, false) 1.0, 0.0;
}
probability ( v_7_6 | v_7_5, v_6_6 ) {
  (true, true) 0.0, 1.0;
  (true, false) 0.0, 1.0;
  (false, true) 0.0, 1.0;
  (false, false) 1.0, 0.0;
}
probability ( v_7_7 | v_7_6, v_6_7 ) {
  (true, true) 0.0, 1.0;
  (true, false) 0.0, 1.0;
  (false, true) 1.0, 0.0;
  (false, false) 0.0, 1.0;
}
probability ( v_7_8 | v_7_7, v_6_8 ) {
  (true, true) 0.0, 1.0;
  (true, false) 0.0, 1.0;
  (false, true) 0.0, 1.0;
  (false, false) 1.0, 0.0;
}
probability ( v_7_9 | v_7_8, v_6_9 ) {
  (true, true) 1.0, 0.0;
  (true, false) 1.0, 0.0;
  (false, true) 0.0, 1.0;
  (false, false) 1.0, 0.0;
}
probability ( v_7_10 | v_7_9, v_6_10 ) {
  (true, true) 0.452506, 0.547494;
  (true, false) 0.462219, 0.537781;
  (false, true) 0.369191, 0.630809;
  (false, false) 0.258519, 0.741481;
}
probability ( v_8_1 | v_7_1 ) {
  (true) 1.0, 0.0;
  (false) 0.0, 1.0;
}
probability ( v_8_2 | v_8_1, v_7_2 ) {
  (true, true) 1.0, 0.0;
  (true, false) 1.0, 0.0;
  (false, true) 1.0, 0.0;
  (false, false) 0.0, 1.0;
}
probability ( v_8_3 | v_8_2, v_7_3 ) {
  (true, true) 0.0928839, 0.907116;
  (true, false) 0.818794, 0.181206;
  (false, true) 0.161902, 0.838098;
  (false, false) 0.296276, 0.703724;
}
probability ( v_8_4 | v_8_3, v_7_4 ) {
  (true, true) 0.0, 1.0;
  (true, false) 0.0, 1.0;
  (false, true) 1.0, 0.0;
  (false, false) 1.0, 0.0;
}
probability ( v_8_5 | v_8_4, v_7_5 ) {
  (true, true) 1.0, 0.0;
  (true, false) 0.0, 1.0;
  (false, true) 1.0, 0.0;
  (false, false) 0.0, 1.0;
}
probability ( v_8_6 | v_8_5, v_7_6 ) {
  (true, true) 0.0, 1.0;
  (true, false) 0.0, 1.0;
  (false, true) 0.0, 1.0;
  (false, false) 1.0, 0.0;
}
probability ( v_8_7 | v_8_6, v_7_7 ) {
  (true, true) 1.0, 0.0;
  (true, false) 1.0, 0.0;
  (false, true) 0.0, 1.0;
  (false, false) 0.0, 1.0;
}
probability ( v_8_8 | v_8_7, v_7_8 ) {
  (true, true) 0.0, 1.0;
  (true, false) 1.0, 0.0;
  (false, true) 1.0, 0.0;
  (false, false) 1.0, 0.0;
}
probability ( v_8_9 | v_8_8, v_7_9 ) {
  (true, true) 0.0, 1.0;
  (true, false) 1.0, 0.0;
  (false, true) 1.0, 0.0;
  (false, false) 0.0, 1.0;
}
probability ( v_8_10 | v_8_9, v_7_10 ) {
  (true, true) 0.0, 1.0;
  (true, false) 0.0, 1.0;
  (false, true) 1.0, 0.0;
  (false, false) 0.0, 1.0;
}
probability ( v_9_1 | v_8_1 ) {
  (true) 1.0, 0.0;
  (false) 0.0, 1.0;
}
probability ( v_9_2 | v_9_1, v_8_2 ) {
  (true, true) 0.0, 1.0;
  (true, false) 0.0, 1.0;
  (false, true) 1.0, 0.0;
  (false, false) 1.0, 0.0;
}
probability ( v_9_3 | v_9_2, v_8_3 ) {
  (true, true) 1.0, 0.0;
  (true, false) 1.0, 0.0;
  (false, true) 0.0, 1.0;
  (false, false) 1.0, 0.0;
}
probability ( v_9_4 | v_9_3, v_8_4 ) {
  (true, true) 1.0, 0.0;
  (true, false) 0.0, 1.0;
  (false, true) 0.0, 1.0;
  (false, false) 1.0, 0.0;
}
probability ( v_9_5 | v_9_4, v_8_5 ) {
  (true, true) 0.0, 1.0;
  (true, false) 1.0, 0.0;
  (false, true) 1.0, 0.0;
  (false, false) 0.0, 1.0;
}
probability ( v_9_6 | v_9_5, v_8_6 ) {
  (true, true) 0.0, 1.0;
  (true, false) 1.0, 0.0;
  (false, true) 1.0, 0.0;
  (false, false) 1.0, 0.0;
}
probability ( v_9_7 | v_9_6, v_8_7 ) {
  (true, true) 0.735402, 0.264598;
  (true, false) 0.668933, 0.331067;
  (false, true) 0.800791, 0.199209;
  (false, false) 0.550299, 0.449701;
}
probability ( v_9_8 | v_9_7, v_8_8 ) {
  (true, true) 1.0, 0.0;
  (true, false) 1.0, 0.0;
  (false, true) 0.0, 1.0;
  (false, false) 0.0, 1.0;
}
probability ( v_9_9 | v_9_8, v_8_9 ) {
  (true, true) 1.0, 0.0;
  (true, false) 0.0, 1.0;
  (false, true) 0.0, 1.0;
  (false, false) 1.0, 0.0;
}
probability ( v_9_10 | v_9_9, v_8_10 ) {
  (true, true) 0.0, 1.0;
  (true, false) 0.0, 1.0;
  (false, true) 1.0, 0.0;
  (false, false) 0.0, 1.0;
}
probability ( v_10_1 | v_9_1 ) {
  (true) 1.0, 0.0;
  (false) 0.0, 1.0;
}
probability ( v_10_2 | v_10_1, v_9_2 ) {
  (true, true) 1.0, 0.0;
  (true, false) 0.0, 1.0;
  (false, true) 1.0, 0.0;
  (false, false) 1.0, 0.0;
}
probability ( v_10_3 | v_10_2, v_9_3 ) {
  (true, true) 0.115531, 0.884469;
  (true, false) 0.918802, 0.0811979;
  (false, true) 0.0054299, 0.99457;
  (false, false) 0.0239389, 0.976061;
}
probability ( v_10_4 | v_10_3, v_9_4 ) {
  (true, true) 1.0, 0.0;
  (true, false) 1.0, 0.0;
  (false, true) 0.0, 1.0;
  (false, false) 1.0, 0.0;
}
probability ( v_10_5 | v_10_4, v_9_5 ) {
  (true, true) 1.0, 0.0;
  (true, false) 1.0, 0.0;
  (false, true) 1.0, 0.0;
  (false, false) 0.0, 1.0;
}
probability ( v_10_6 | v_10_5, v_9_6 ) {
  (true, true) 0.0, 1.0;
  (true, false) 1.0, 0.0;
  (false, true) 1.0, 0.0;
  (false, false) 0.0, 1.0;
}
probability ( v_10_7 | v_10_6, v_9_7 ) {
  (true, true) 1.0, 0.0;
  (true, false) 0.0, 1.0;
  (false, true) 1.0, 0.0;
  (false, false) 0.0, 1.0;
}
probability ( v_10_8 | v_10_7, v_9_8 ) {
  (true, true) 0.299552, 0.700448;
  (true, false) 0.825362, 0.174638;
  (false, true) 0.918116, 0.0818843;
  (false, false) 0.274515, 0.725485;
}
probability ( v_10_9 | v_10_8, v_9_9 ) {
  (true, true) 0.836918, 0.163082;
  (true, false) 0.279945, 0.720055;
  (false, true) 0.964833, 0.0351675;
  (false, false) 0.491122, 0.508878;
}
probability ( v_10_10 | v_10_9, v_9_10 ) {
  (true, true) 0.789562, 0.210438;
  (true, false) 0.695625, 0.304375;
  (false, true) 0.528446, 0.471554;
  (false, false) 0.894942, 0.105058;
}
