network unknown{
}
variable v_1_1 {
  type discrete [ 2 ] { yes, false };
}
variable v_1_2 {
  type discrete [ 2 ] { yes, false };
}
variable v_1_3 {
  type discrete [ 2 ] { yes, false };
}
variable v_1_4 {
  type discrete [ 2 ] { yes, false };
}
variable v_1_5 {
  type discrete [ 2 ] { yes, false };
}
variable v_1_6 {
  type discrete [ 2 ] { yes, false };
}
variable v_1_7 {
  type discrete [ 2 ] { yes, false };
}
variable v_1_8 {
  type discrete [ 2 ] { yes, false };
}
variable v_1_9 {
  type discrete [ 2 ] { yes, false };
}
variable v_1_10 {
  type discrete [ 2 ] { yes, false };
}
variable v_2_1 {
  type discrete [ 2 ] { yes, false };
}
variable v_2_2 {
  type discrete [ 2 ] { yes, false };
}
variable v_2_3 {
  type discrete [ 2 ] { yes, false };
}
variable v_2_4 {
  type discrete [ 2 ] { yes, false };
}
variable v_2_5 {
  type discrete [ 2 ] { yes, false };
}
variable v_2_6 {
  type discrete [ 2 ] { yes, false };
}
variable v_2_7 {
  type discrete [ 2 ] { yes, false };
}
variable v_2_8 {
  type discrete [ 2 ] { yes, false };
}
variable v_2_9 {
  type discrete [ 2 ] { yes, false };
}
variable v_2_10 {
  type discrete [ 2 ] { yes, false };
}
variable v_3_1 {
  type discrete [ 2 ] { yes, false };
}
variable v_3_2 {
  type discrete [ 2 ] { yes, false };
}
variable v_3_3 {
  type discrete [ 2 ] { yes, false };
}
variable v_3_4 {
  type discrete [ 2 ] { yes, false };
}
variable v_3_5 {
  type discrete [ 2 ] { yes, false };
}
variable v_3_6 {
  type discrete [ 2 ] { yes, false };
}
variable v_3_7 {
  type discrete [ 2 ] { yes, false };
}
variable v_3_8 {
  type discrete [ 2 ] { yes, false };
}
variable v_3_9 {
  type discrete [ 2 ] { yes, false };
}
variable v_3_10 {
  type discrete [ 2 ] { yes, false };
}
variable v_4_1 {
  type discrete [ 2 ] { yes, false };
}
variable v_4_2 {
  type discrete [ 2 ] { yes, false };
}
variable v_4_3 {
  type discrete [ 2 ] { yes, false };
}
variable v_4_4 {
  type discrete [ 2 ] { yes, false };
}
variable v_4_5 {
  type discrete [ 2 ] { yes, false };
}
variable v_4_6 {
  type discrete [ 2 ] { yes, false };
}
variable v_4_7 {
  type discrete [ 2 ] { yes, false };
}
variable v_4_8 {
  type discrete [ 2 ] { yes, false };
}
variable v_4_9 {
  type discrete [ 2 ] { yes, false };
}
variable v_4_10 {
  type discrete [ 2 ] { yes, false };
}
variable v_5_1 {
  type discrete [ 2 ] { yes, false };
}
variable v_5_2 {
  type discrete [ 2 ] { yes, false };
}
variable v_5_3 {
  type discrete [ 2 ] { yes, false };
}
variable v_5_4 {
  type discrete [ 2 ] { yes, false };
}
variable v_5_5 {
  type discrete [ 2 ] { yes, false };
}
variable v_5_6 {
  type discrete [ 2 ] { yes, false };
}
variable v_5_7 {
  type discrete [ 2 ] { yes, false };
}
variable v_5_8 {
  type discrete [ 2 ] { yes, false };
}
variable v_5_9 {
  type discrete [ 2 ] { yes, false };
}
variable v_5_10 {
  type discrete [ 2 ] { yes, false };
}
variable v_6_1 {
  type discrete [ 2 ] { yes, false };
}
variable v_6_2 {
  type discrete [ 2 ] { yes, false };
}
variable v_6_3 {
  type discrete [ 2 ] { yes, false };
}
variable v_6_4 {
  type discrete [ 2 ] { yes, false };
}
variable v_6_5 {
  type discrete [ 2 ] { yes, false };
}
variable v_6_6 {
  type discrete [ 2 ] { yes, false };
}
variable v_6_7 {
  type discrete [ 2 ] { yes, false };
}
variable v_6_8 {
  type discrete [ 2 ] { yes, false };
}
variable v_6_9 {
  type discrete [ 2 ] { yes, false };
}
variable v_6_10 {
  type discrete [ 2 ] { yes, false };
}
variable v_7_1 {
  type discrete [ 2 ] { yes, false };
}
variable v_7_2 {
  type discrete [ 2 ] { yes, false };
}
variable v_7_3 {
  type discrete [ 2 ] { yes, false };
}
variable v_7_4 {
  type discrete [ 2 ] { yes, false };
}
variable v_7_5 {
  type discrete [ 2 ] { yes, false };
}
variable v_7_6 {
  type discrete [ 2 ] { yes, false };
}
variable v_7_7 {
  type discrete [ 2 ] { yes, false };
}
variable v_7_8 {
  type discrete [ 2 ] { yes, false };
}
variable v_7_9 {
  type discrete [ 2 ] { yes, false };
}
variable v_7_10 {
  type discrete [ 2 ] { yes, false };
}
variable v_8_1 {
  type discrete [ 2 ] { yes, false };
}
variable v_8_2 {
  type discrete [ 2 ] { yes, false };
}
variable v_8_3 {
  type discrete [ 2 ] { yes, false };
}
variable v_8_4 {
  type discrete [ 2 ] { yes, false };
}
variable v_8_5 {
  type discrete [ 2 ] { yes, false };
}
variable v_8_6 {
  type discrete [ 2 ] { yes, false };
}
variable v_8_7 {
  type discrete [ 2 ] { yes, false };
}
variable v_8_8 {
  type discrete [ 2 ] { yes, false };
}
variable v_8_9 {
  type discrete [ 2 ] { yes, false };
}
variable v_8_10 {
  type discrete [ 2 ] { yes, false };
}
variable v_9_1 {
  type discrete [ 2 ] { yes, false };
}
variable v_9_2 {
  type discrete [ 2 ] { yes, false };
}
variable v_9_3 {
  type discrete [ 2 ] { yes, false };
}
variable v_9_4 {
  type discrete [ 2 ] { yes, false };
}
variable v_9_5 {
  type discrete [ 2 ] { yes, false };
}
variable v_9_6 {
  type discrete [ 2 ] { yes, false };
}
variable v_9_7 {
  type discrete [ 2 ] { yes, false };
}
variable v_9_8 {
  type discrete [ 2 ] { yes, false };
}
variable v_9_9 {
  type discrete [ 2 ] { yes, false };
}
variable v_9_10 {
  type discrete [ 2 ] { yes, false };
}
variable v_10_1 {
  type discrete [ 2 ] { yes, false };
}
variable v_10_2 {
  type discrete [ 2 ] { yes, false };
}
variable v_10_3 {
  type discrete [ 2 ] { yes, false };
}
variable v_10_4 {
  type discrete [ 2 ] { yes, false };
}
variable v_10_5 {
  type discrete [ 2 ] { yes, false };
}
variable v_10_6 {
  type discrete [ 2 ] { yes, false };
}
variable v_10_7 {
  type discrete [ 2 ] { yes, false };
}
variable v_10_8 {
  type discrete [ 2 ] { yes, false };
}
variable v_10_9 {
  type discrete [ 2 ] { yes, false };
}
variable v_10_10 {
  type discrete [ 2 ] { yes, false };
}
probability ( v_1_1 ) {
  table 0.861142, 0.138858;
}
probability ( v_1_2 | v_1_1 ) {
  (true) 0.0, 1.0;
  (false) 1.0, 0.0;
}
probability ( v_1_3 | v_1_2 ) {
  (true) 0.447794, 0.552206;
  (false) 0.0790394, 0.920961;
}
probability ( v_1_4 | v_1_3 ) {
  (true) 0.0, 1.0;
  (false) 1.0, 0.0;
}
probability ( v_1_5 | v_1_4 ) {
  (true) 1.0, 0.0;
  (false) 0.0, 1.0;
}
probability ( v_1_6 | v_1_5 ) {
  (true) 0.67503, 0.32497;
  (false) 0.011004, 0.988996;
}
probability ( v_1_7 | v_1_6 ) {
  (true) 1.0, 0.0;
  (false) 0.0, 1.0;
}
probability ( v_1_8 | v_1_7 ) {
  (true) 0.821509, 0.178491;
  (false) 0.576813, 0.423187;
}
probability ( v_1_9 | v_1_8 ) {
  (true) 1.0, 0.0;
  (false) 0.0, 1.0;
}
probability ( v_1_10 | v_1_9 ) {
  (true) 0.0, 1.0;
  (false) 1.0, 0.0;
}
probability ( v_2_1 | v_1_1 ) {
  (true) 0.0, 1.0;
  (false) 1.0, 0.0;
}
probability ( v_2_2 | v_2_1, v_1_2 ) {
  (true, true) 1.0, 0.0;
  (true, false) 0.0, 1.0;
  (false, true) 0.0, 1.0;
  (false, false) 1.0, 0.0;
}
probability ( v_2_3 | v_2_2, v_1_3 ) {
  (true, true) 1.0, 0.0;
  (true, false) 0.0, 1.0;
  (false, true) 1.0, 0.0;
  (false, false) 1.0, 0.0;
}
probability ( v_2_4 | v_2_3, v_1_4 ) {
  (true, true) 0.0935058, 0.906494;
  (true, false) 0.226492, 0.773508;
  (false, true) 0.984968, 0.0150319;
  (false, false) 0.18755, 0.81245;
}
probability ( v_2_5 | v_2_4, v_1_5 ) {
  (true, true) 0.428157, 0.571843;
  (true, false) 0.775965, 0.224035;
  (false, true) 0.371525, 0.628475;
  (false, false) 0.439161, 0.560839;
}
probability ( v_2_6 | v_2_5, v_1_6 ) {
  (true, true) 0.0, 1.0;
  (true, false) 1.0, 0.0;
  (false, true) 0.0, 1.0;
  (false, false) 0.0, 1.0;
}
probability ( v_2_7 | v_2_6, v_1_7 ) {
  (true, true) 1.0, 0.0;
  (true, false) 0.0, 1.0;
  (false, true) 0.0, 1.0;
  (false, false) 0.0, 1.0;
}
probability ( v_2_8 | v_2_7, v_1_8 ) {
  (true, true) 1.0, 0.0;
  (true, false) 0.0, 1.0;
  (false, true) 1.0, 0.0;
  (false, false) 1.0, 0.0;
}
probability ( v_2_9 | v_2_8, v_1_9 ) {
  (true, true) 0.994913, 0.00508684;
  (true, false) 0.123725, 0.876275;
  (false, true) 0.329052, 0.670948;
  (false, false) 0.142366, 0.857634;
}
probability ( v_2_10 | v_2_9, v_1_10 ) {
  (true, true) 0.422557, 0.577443;
  (true, false) 0.368858, 0.631142;
  (false, true) 0.980257, 0.0197435;
  (false, false) 0.610108, 0.389892;
}
probability ( v_3_1 | v_2_1 ) {
  (true) 1.0, 0.0;
  (false) 0.0, 1.0;
}
probability ( v_3_2 | v_3_1, v_2_2 ) {
  (true, true) 0.0, 1.0;
  (true, false) 1.0, 0.0;
  (false, true) 1.0, 0.0;
  (false, false) 1.0, 0.0;
}
probability ( v_3_3 | v_3_2, v_2_3 ) {
  (true, true) 1.0, 0.0;
  (true, false) 1.0, 0.0;
  (false, true) 1.0, 0.0;
  (false, false) 0.0, 1.0;
}
probability ( v_3_4 | v_3_3, v_2_4 ) {
  (true, true) 0.633577, 0.366423;
  (true, false) 0.214418, 0.785582;
  (false, true) 0.892776, 0.107224;
  (false, false) 0.646123, 0.353877;
}
probability ( v_3_5 | v_3_4, v_2_5 ) {
  (true, true) 0.733526, 0.266474;
  (true, false) 0.783688, 0.216312;
  (false, true) 0.349585, 0.650415;
  (false, false) 0.728439, 0.271561;
}
probability ( v_3_6 | v_3_5, v_2_6 ) {
  (true, true) 0.678637, 0.321363;
  (true, false) 0.870804, 0.129196;
  (false, true) 0.902701, 0.097299;
  (false, false) 0.101194, 0.898806;
}
probability ( v_3_7 | v_3_6, v_2_7 ) {
  (true, true) 1.0, 0.0;
  (true, false) 0.0, 1.0;
  (false, true) 0.0, 1.0;
  (false, false) 0.0, 1.0;
}
probability ( v_3_8 | v_3_7, v_2_8 ) {
  (true, true) 0.0, 1.0;
  (true, false) 1.0, 0.0;
  (false, true) 0.0, 1.0;
  (false, false) 1.0, 0.0;
}
probability ( v_3_9 | v_3_8, v_2_9 ) {
  (true, true) 0.0, 1.0;
  (true, false) 1.0, 0.0;
  (false, true) 0.0, 1.0;
  (false, false) 1.0, 0.0;
}
probability ( v_3_10 | v_3_9, v_2_10 ) {
  (true, true) 0.657394, 0.342606;
  (true, false) 0.8949, 0.1051;
  (false, true) 0.210224, 0.789776;
  (false, false) 0.550171, 0.449829;
}
probability ( v_4_1 | v_3_1 ) {
  (true) 0.876469, 0.123531;
  (false) 0.283696, 0.716304;
}
probability ( v_4_2 | v_4_1, v_3_2 ) {
  (true, true) 1.0, 0.0;
  (true, false) 0.0, 1.0;
  (false, true) 1.0, 0.0;
  (false, false) 1.0, 0.0;
}
probability ( v_4_3 | v_4_2, v_3_3 ) {
  (true, true) 0.134825, 0.865175;
  (true, false) 0.0058863, 0.994114;
  (false, true) 0.122601, 0.877399;
  (false, false) 0.0177822, 0.982218;
}
probability ( v_4_4 | v_4_3, v_3_4 ) {
  (true, true) 0.427616, 0.572384;
  (true, false) 0.309153, 0.690847;
  (false, true) 0.814563, 0.185437;
  (false, false) 0.169509, 0.830491;
}
probability ( v_4_5 | v_4_4, v_3_5 ) {
  (true, true) 0.0, 1.0;
  (true, false) 1.0, 0.0;
  (false, true) 0.0, 1.0;
  (false, false) 0.0, 1.0;
}
probability ( v_4_6 | v_4_5, v_3_6 ) {
  (true, true) 0.617674, 0.382326;
  (true, false) 0.949304, 0.0506956;
  (false, true) 0.66986, 0.33014;
  (false, false) 0.275068, 0.724932;
}
probability ( v_4_7 | v_4_6, v_3_7 ) {
  (true, true) 0.880084, 0.119916;
  (true, false) 0.825239, 0.174761;
  (false, true) 0.385229, 0.614771;
  (false, false) 0.756553, 0.243447;
}
probability ( v_4_8 | v_4_7, v_3_8 ) {
  (true, true) 0.0, 1.0;
  (true, false) 0.0, 1.0;
  (false, true) 0.0, 1.0;
  (false, false) 1.0, 0.0;
}
probability ( v_4_9 | v_4_8, v_3_9 ) {
  (true, true) 0.00400881, 0.995991;
  (true, false) 0.076888, 0.923112;
  (false, true) 0.893187, 0.106813;
  (false, false) 0.12661, 0.87339;
}
probability ( v_4_10 | v_4_9, v_3_10 ) {
  (true, true) 0.0, 1.0;
  (true, false) 0.0, 1.0;
  (false, true) 1.0, 0.0;
  (false, false) 0.0, 1.0;
}
probability ( v_5_1 | v_4_1 ) {
  (true) 0.851923, 0.148077;
  (false) 0.897685, 0.102315;
}
probability ( v_5_2 | v_5_1, v_4_2 ) {
  (true, true) 0.570389, 0.429611;
  (true, false) 0.585666, 0.414334;
  (false, true) 0.279395, 0.720605;
  (false, false) 0.188063, 0.811937;
}
probability ( v_5_3 | v_5_2, v_4_3 ) {
  (true, true) 0.949255, 0.0507451;
  (true, false) 0.463131, 0.536869;
  (false, true) 0.379175, 0.620825;
  (false, false) 0.829339, 0.170661;
}
probability ( v_5_4 | v_5_3, v_4_4 ) {
  (true, true) 0.0, 1.0;
  (true, false) 1.0, 0.0;
  (false, true) 0.0, 1.0;
  (false, false) 0.0, 1.0;
}
probability ( v_5_5 | v_5_4, v_4_5 ) {
  (true, true) 0.518374, 0.481626;
  (true, false) 0.416407, 0.583593;
  (false, true) 0.455801, 0.544199;
  (false, false) 0.522383, 0.477617;
}
probability ( v_5_6 | v_5_5, v_4_6 ) {
  (true, true) 1.0, 0.0;
  (true, false) 0.0, 1.0;
  (false, true) 1.0, 0.0;
  (false, false) 1.0, 0.0;
}
probability ( v_5_7 | v_5_6, v_4_7 ) {
  (true, true) 0.0, 1.0;
  (true, false) 1.0, 0.0;
  (false, true) 0.0, 1.0;
  (false, false) 1.0, 0.0;
}
probability ( v_5_8 | v_5_7, v_4_8 ) {
  (true, true) 0.0, 1.0;
  (true, false) 1.0, 0.0;
  (false, true) 0.0, 1.0;
  (false, false) 0.0, 1.0;
}
probability ( v_5_9 | v_5_8, v_4_9 ) {
  (true, true) 0.0, 1.0;
  (true, false) 0.0, 1.0;
  (false, true) 1.0, 0.0;
  (false, false) 0.0, 1.0;
}
probability ( v_5_10 | v_5_9, v_4_10 ) {
  (true, true) 1.0, 0.0;
  (true, false) 0.0, 1.0;
  (false, true) 1.0, 0.0;
  (false, false) 1.0, 0.0;
}
probability ( v_6_1 | v_5_1 ) {
  (true) 0.269343, 0.730657;
  (false) 0.436952, 0.563048;
}
probability ( v_6_2 | v_6_1, v_5_2 ) {
  (true, true) 1.0, 0.0;
  (true, false) 0.0, 1.0;
  (false, true) 0.0, 1.0;
  (false, false) 0.0, 1.0;
}
probability ( v_6_3 | v_6_2, v_5_3 ) {
  (true, true) 0.643939, 0.356061;
  (true, false) 0.510002, 0.489998;
  (false, true) 0.89313, 0.10687;
  (false, false) 0.570893, 0.429107;
}
probability ( v_6_4 | v_6_3, v_5_4 ) {
  (true, true) 0.0, 1.0;
  (true, false) 1.0, 0.0;
  (false, true) 1.0, 0.0;
  (false, false) 0.0, 1.0;
}
probability ( v_6_5 | v_6_4, v_5_5 ) {
  (true, true) 0.369977, 0.630023;
  (true, false) 0.445389, 0.554611;
  (false, true) 0.675828, 0.324172;
  (false, false) 0.435271, 0.564729;
}
probability ( v_6_6 | v_6_5, v_5_6 ) {
  (true, true) 0.0, 1.0;
  (true, false) 0.0, 1.0;
  (false, true) 1.0, 0.0;
  (false, false) 0.0, 1.0;
}
probability ( v_6_7 | v_6_6, v_5_7 ) {
  (true, true) 0.793933, 0.206067;
  (true, false) 0.18697, 0.81303;
  (false, true) 0.809245, 0.190755;
  (false, false) 0.230885, 0.769115;
}
probability ( v_6_8 | v_6_7, v_5_8 ) {
  (true, true) 1.0, 0.0;
  (true, false) 1.0, 0.0;
  (false, true) 0.0, 1.0;
  (false, false) 1.0, 0.0;
}
probability ( v_6_9 | v_6_8, v_5_9 ) {
  (true, true) 0.445747, 0.554253;
  (true, false) 0.685629, 0.314371;
  (false, true) 0.189347, 0.810653;
  (false, false) 0.338877, 0.661123;
}
probability ( v_6_10 | v_6_9, v_5_10 ) {
  (true, true) 1.0, 0.0;
  (true, false) 0.0, 1.0;
  (false, true) 1.0, 0.0;
  (false, false) 0.0, 1.0;
}
probability ( v_7_1 | v_6_1 ) {
  (true) 0.274594, 0.725406;
  (false) 0.680851, 0.319149;
}
probability ( v_7_2 | v_7_1, v_6_2 ) {
  (true, true) 1.0, 0.0;
  (true, false) 0.0, 1.0;
  (false, true) 1.0, 0.0;
  (false, false) 1.0, 0.0;
}
probability ( v_7_3 | v_7_2, v_6_3 ) {
  (true, true) 0.0, 1.0;
  (true, false) 0.0, 1.0;
  (false, true) 1.0, 0.0;
  (false, false) 0.0, 1.0;
}
probability ( v_7_4 | v_7_3, v_6_4 ) {
  (true, true) 1.0, 0.0;
  (true, false) 0.0, 1.0;
  (false, true) 0.0, 1.0;
  (false, false) 0.0, 1.0;
}
probability ( v_7_5 | v_7_4, v_6_5 ) {
  (true, true) 1.0, 0.0;
  (true, false) 1.0, 0.0;
  (false, true) 1.0, 0.0;
  (false, false) 0.0, 1.0;
}
probability ( v_7_6 | v_7_5, v_6_6 ) {
  (true, true) 1.0, 0.0;
  (true, false) 0.0, 1.0;
  (false, true) 0.0, 1.0;
  (false, false) 0.0, 1.0;
}
probability ( v_7_7 | v_7_6, v_6_7 ) {
  (true, true) 0.0, 1.0;
  (true, false) 1.0, 0.0;
  (false, true) 0.0, 1.0;
  (false, false) 0.0, 1.0;
}
probability ( v_7_8 | v_7_7, v_6_8 ) {
  (true, true) 1.0, 0.0;
  (true, false) 1.0, 0.0;
  (false, true) 0.0, 1.0;
  (false, false) 1.0, 0.0;
}
probability ( v_7_9 | v_7_8, v_6_9 ) {
  (true, true) 0.259753, 0.740247;
  (true, false) 0.29911, 0.70089;
  (false, true) 0.0582891, 0.941711;
  (false, false) 0.0564108, 0.943589;
}
probability ( v_7_10 | v_7_9, v_6_10 ) {
  (true, true) 1.0, 0.0;
  (true, false) 1.0, 0.0;
  (false, true) 0.0, 1.0;
  (false, false) 1.0, 0.0;
}
probability ( v_8_1 | v_7_1 ) {
  (true) 1.0, 0.0;
  (false) 0.0, 1.0;
}
probability ( v_8_2 | v_8_1, v_7_2 ) {
  (true, true) 1.0, 0.0;
  (true, false) 0.0, 1.0;
  (false, true) 0.0, 1.0;
  (false, false) 0.0, 1.0;
}
probability ( v_8_3 | v_8_2, v_7_3 ) {
  (true, true) 0.0, 1.0;
  (true, false) 0.0, 1.0;
  (false, true) 1.0, 0.0;
  (false, false) 0.0, 1.0;
}
probability ( v_8_4 | v_8_3, v_7_4 ) {
  (true, true) 0.613353, 0.386647;
  (true, false) 0.158097, 0.841903;
  (false, true) 0.301903, 0.698097;
  (false, false) 0.641046, 0.358954;
}
probability ( v_8_5 | v_8_4, v_7_5 ) {
  (true, true) 0.010178, 0.989822;
  (true, false) 0.898075, 0.101925;
  (false, true) 0.222125, 0.777875;
  (false, false) 0.623509, 0.376491;
}
probability ( v_8_6 | v_8_5, v_7_6 ) {
  (true, true) 0.0, 1.0;
  (true, false) 0.0, 1.0;
  (false, true) 1.0, 0.0;
  (false, false) 1.0, 0.0;
}
probability ( v_8_7 | v_8_6, v_7_7 ) {
  (true, true) 0.298193, 0.701807;
  (true, false) 0.0442994, 0.955701;
  (false, true) 0.161958, 0.838042;
  (false, false) 0.570822, 0.429178;
}
probability ( v_8_8 | v_8_7, v_7_8 ) {
  (true, true) 0.226491, 0.773509;
  (true, false) 0.711473, 0.288527;
  (false, true) 0.756857, 0.243143;
  (false, false) 0.873518, 0.126482;
}
probability ( v_8_9 | v_8_8, v_7_9 ) {
  (true, true) 0.875883, 0.124117;
  (true, false) 0.359563, 0.640437;
  (false, true) 0.707938, 0.292062;
  (false, false) 0.463692, 0.536308;
}
probability ( v_8_10 | v_8_9, v_7_10 ) {
  (true, true) 0.0, 1.0;
  (true, false) 0.0, 1.0;
  (false, true) 0.0, 1.0;
  (false, false) 1.0, 0.0;
}
probability ( v_9_1 | v_8_1 ) {
  (true) 0.784276, 0.215724;
  (false) 0.729768, 0.270232;
}
probability ( v_9_2 | v_9_1, v_8_2 ) {
  (true, true) 0.00640111, 0.993599;
  (true, false) 0.353277, 0.646723;
  (false, true) 0.773995, 0.226005;
  (false, false) 0.527636, 0.472364;
}
probability ( v_9_3 | v_9_2, v_8_3 ) {
  (true, true) 1.0, 0.0;
  (true, false) 0.0, 1.0;
  (false, true) 0.0, 1.0;
  (false, false) 0.0, 1.0;
}
probability ( v_9_4 | v_9_3, v_8_4 ) {
  (true, true) 0.0, 1.0;
  (true, false) 1.0, 0.0;
  (false, true) 0.0, 1.0;
  (false, false) 1.0, 0.0;
}
probability ( v_9_5 | v_9_4, v_8_5 ) {
  (true, true) 0.587557, 0.412443;
  (true, false) 0.291333, 0.708667;
  (false, true) 0.478214, 0.521786;
  (false, false) 0.46344, 0.53656;
}
probability ( v_9_6 | v_9_5, v_8_6 ) {
  (true, true) 0.186151, 0.813849;
  (true, false) 0.927131, 0.0728686;
  (false, true) 0.695231, 0.304769;
  (false, false) 0.603838, 0.396162;
}
probability ( v_9_7 | v_9_6, v_8_7 ) {
  (true, true) 1.0, 0.0;
  (true, false) 0.0, 1.0;
  (false, true) 0.0, 1.0;
  (false, false) 1.0, 0.0;
}
probability ( v_9_8 | v_9_7, v_8_8 ) {
  (true, true) 1.0, 0.0;
  (true, false) 0.0, 1.0;
  (false, true) 1.0, 0.0;
  (false, false) 1.0, 0.0;
}
probability ( v_9_9 | v_9_8, v_8_9 ) {
  (true, true) 1.0, 0.0;
  (true, false) 0.0, 1.0;
  (false, true) 1.0, 0.0;
  (false, false) 1.0, 0.0;
}
probability ( v_9_10 | v_9_9, v_8_10 ) {
  (true, true) 1.0, 0.0;
  (true, false) 0.0, 1.0;
  (false, true) 0.0, 1.0;
  (false, false) 0.0, 1.0;
}
probability ( v_10_1 | v_9_1 ) {
  (true) 0.0, 1.0;
  (false) 1.0, 0.0;
}
probability ( v_10_2 | v_10_1, v_9_2 ) {
  (true, true) 1.0, 0.0;
  (true, false) 1.0, 0.0;
  (false, true) 0.0, 1.0;
  (false, false) 0.0, 1.0;
}
probability ( v_10_3 | v_10_2, v_9_3 ) {
  (true, true) 0.0, 1.0;
  (true, false) 1.0, 0.0;
  (false, true) 1.0, 0.0;
  (false, false) 1.0, 0.0;
}
probability ( v_10_4 | v_10_3, v_9_4 ) {
  (true, true) 0.404694, 0.595306;
  (true, false) 0.183105, 0.816895;
  (false, true) 0.297115, 0.702885;
  (false, false) 0.45789, 0.54211;
}
probability ( v_10_5 | v_10_4, v_9_5 ) {
  (true, true) 0.985457, 0.0145431;
  (true, false) 0.864362, 0.135638;
  (false, true) 0.633965, 0.366035;
  (false, false) 0.201435, 0.798565;
}
probability ( v_10_6 | v_10_5, v_9_6 ) {
  (true, true) 0.0, 1.0;
  (true, false) 0.0, 1.0;
  (false, true) 1.0, 0.0;
  (false, false) 1.0, 0.0;
}
probability ( v_10_7 | v_10_6, v_9_7 ) {
  (true, true) 1.0, 0.0;
  (true, false) 1.0, 0.0;
  (false, true) 1.0, 0.0;
  (false, false) 0.0, 1.0;
}
probability ( v_10_8 | v_10_7, v_9_8 ) {
  (true, true) 0.0, 1.0;
  (true, false) 1.0, 0.0;
  (false, true) 1.0, 0.0;
  (false, false) 0.0, 1.0;
}
probability ( v_10_9 | v_10_8, v_9_9 ) {
  (true, true) 0.947823, 0.0521771;
  (true, false) 0.789844, 0.210156;
  (false, true) 0.630277, 0.369723;
  (false, false) 0.0290887, 0.970911;
}
probability ( v_10_10 | v_10_9, v_9_10 ) {
  (true, true) 0.0, 1.0;
  (true, false) 0.0, 1.0;
  (false, true) 1.0, 0.0;
  (false, false) 1.0, 0.0;
}
