network unknown{
}
variable v_1_1 {
  type discrete [ 2 ] { yes, false };
}
variable v_1_2 {
  type discrete [ 2 ] { yes, false };
}
variable v_1_3 {
  type discrete [ 2 ] { yes, false };
}
variable v_1_4 {
  type discrete [ 2 ] { yes, false };
}
variable v_1_5 {
  type discrete [ 2 ] { yes, false };
}
variable v_1_6 {
  type discrete [ 2 ] { yes, false };
}
variable v_1_7 {
  type discrete [ 2 ] { yes, false };
}
variable v_1_8 {
  type discrete [ 2 ] { yes, false };
}
variable v_1_9 {
  type discrete [ 2 ] { yes, false };
}
variable v_1_10 {
  type discrete [ 2 ] { yes, false };
}
variable v_2_1 {
  type discrete [ 2 ] { yes, false };
}
variable v_2_2 {
  type discrete [ 2 ] { yes, false };
}
variable v_2_3 {
  type discrete [ 2 ] { yes, false };
}
variable v_2_4 {
  type discrete [ 2 ] { yes, false };
}
variable v_2_5 {
  type discrete [ 2 ] { yes, false };
}
variable v_2_6 {
  type discrete [ 2 ] { yes, false };
}
variable v_2_7 {
  type discrete [ 2 ] { yes, false };
}
variable v_2_8 {
  type discrete [ 2 ] { yes, false };
}
variable v_2_9 {
  type discrete [ 2 ] { yes, false };
}
variable v_2_10 {
  type discrete [ 2 ] { yes, false };
}
variable v_3_1 {
  type discrete [ 2 ] { yes, false };
}
variable v_3_2 {
  type discrete [ 2 ] { yes, false };
}
variable v_3_3 {
  type discrete [ 2 ] { yes, false };
}
variable v_3_4 {
  type discrete [ 2 ] { yes, false };
}
variable v_3_5 {
  type discrete [ 2 ] { yes, false };
}
variable v_3_6 {
  type discrete [ 2 ] { yes, false };
}
variable v_3_7 {
  type discrete [ 2 ] { yes, false };
}
variable v_3_8 {
  type discrete [ 2 ] { yes, false };
}
variable v_3_9 {
  type discrete [ 2 ] { yes, false };
}
variable v_3_10 {
  type discrete [ 2 ] { yes, false };
}
variable v_4_1 {
  type discrete [ 2 ] { yes, false };
}
variable v_4_2 {
  type discrete [ 2 ] { yes, false };
}
variable v_4_3 {
  type discrete [ 2 ] { yes, false };
}
variable v_4_4 {
  type discrete [ 2 ] { yes, false };
}
variable v_4_5 {
  type discrete [ 2 ] { yes, false };
}
variable v_4_6 {
  type discrete [ 2 ] { yes, false };
}
variable v_4_7 {
  type discrete [ 2 ] { yes, false };
}
variable v_4_8 {
  type discrete [ 2 ] { yes, false };
}
variable v_4_9 {
  type discrete [ 2 ] { yes, false };
}
variable v_4_10 {
  type discrete [ 2 ] { yes, false };
}
variable v_5_1 {
  type discrete [ 2 ] { yes, false };
}
variable v_5_2 {
  type discrete [ 2 ] { yes, false };
}
variable v_5_3 {
  type discrete [ 2 ] { yes, false };
}
variable v_5_4 {
  type discrete [ 2 ] { yes, false };
}
variable v_5_5 {
  type discrete [ 2 ] { yes, false };
}
variable v_5_6 {
  type discrete [ 2 ] { yes, false };
}
variable v_5_7 {
  type discrete [ 2 ] { yes, false };
}
variable v_5_8 {
  type discrete [ 2 ] { yes, false };
}
variable v_5_9 {
  type discrete [ 2 ] { yes, false };
}
variable v_5_10 {
  type discrete [ 2 ] { yes, false };
}
variable v_6_1 {
  type discrete [ 2 ] { yes, false };
}
variable v_6_2 {
  type discrete [ 2 ] { yes, false };
}
variable v_6_3 {
  type discrete [ 2 ] { yes, false };
}
variable v_6_4 {
  type discrete [ 2 ] { yes, false };
}
variable v_6_5 {
  type discrete [ 2 ] { yes, false };
}
variable v_6_6 {
  type discrete [ 2 ] { yes, false };
}
variable v_6_7 {
  type discrete [ 2 ] { yes, false };
}
variable v_6_8 {
  type discrete [ 2 ] { yes, false };
}
variable v_6_9 {
  type discrete [ 2 ] { yes, false };
}
variable v_6_10 {
  type discrete [ 2 ] { yes, false };
}
variable v_7_1 {
  type discrete [ 2 ] { yes, false };
}
variable v_7_2 {
  type discrete [ 2 ] { yes, false };
}
variable v_7_3 {
  type discrete [ 2 ] { yes, false };
}
variable v_7_4 {
  type discrete [ 2 ] { yes, false };
}
variable v_7_5 {
  type discrete [ 2 ] { yes, false };
}
variable v_7_6 {
  type discrete [ 2 ] { yes, false };
}
variable v_7_7 {
  type discrete [ 2 ] { yes, false };
}
variable v_7_8 {
  type discrete [ 2 ] { yes, false };
}
variable v_7_9 {
  type discrete [ 2 ] { yes, false };
}
variable v_7_10 {
  type discrete [ 2 ] { yes, false };
}
variable v_8_1 {
  type discrete [ 2 ] { yes, false };
}
variable v_8_2 {
  type discrete [ 2 ] { yes, false };
}
variable v_8_3 {
  type discrete [ 2 ] { yes, false };
}
variable v_8_4 {
  type discrete [ 2 ] { yes, false };
}
variable v_8_5 {
  type discrete [ 2 ] { yes, false };
}
variable v_8_6 {
  type discrete [ 2 ] { yes, false };
}
variable v_8_7 {
  type discrete [ 2 ] { yes, false };
}
variable v_8_8 {
  type discrete [ 2 ] { yes, false };
}
variable v_8_9 {
  type discrete [ 2 ] { yes, false };
}
variable v_8_10 {
  type discrete [ 2 ] { yes, false };
}
variable v_9_1 {
  type discrete [ 2 ] { yes, false };
}
variable v_9_2 {
  type discrete [ 2 ] { yes, false };
}
variable v_9_3 {
  type discrete [ 2 ] { yes, false };
}
variable v_9_4 {
  type discrete [ 2 ] { yes, false };
}
variable v_9_5 {
  type discrete [ 2 ] { yes, false };
}
variable v_9_6 {
  type discrete [ 2 ] { yes, false };
}
variable v_9_7 {
  type discrete [ 2 ] { yes, false };
}
variable v_9_8 {
  type discrete [ 2 ] { yes, false };
}
variable v_9_9 {
  type discrete [ 2 ] { yes, false };
}
variable v_9_10 {
  type discrete [ 2 ] { yes, false };
}
variable v_10_1 {
  type discrete [ 2 ] { yes, false };
}
variable v_10_2 {
  type discrete [ 2 ] { yes, false };
}
variable v_10_3 {
  type discrete [ 2 ] { yes, false };
}
variable v_10_4 {
  type discrete [ 2 ] { yes, false };
}
variable v_10_5 {
  type discrete [ 2 ] { yes, false };
}
variable v_10_6 {
  type discrete [ 2 ] { yes, false };
}
variable v_10_7 {
  type discrete [ 2 ] { yes, false };
}
variable v_10_8 {
  type discrete [ 2 ] { yes, false };
}
variable v_10_9 {
  type discrete [ 2 ] { yes, false };
}
variable v_10_10 {
  type discrete [ 2 ] { yes, false };
}
probability ( v_1_1 ) {
  table 0.668362, 0.331638;
}
probability ( v_1_2 | v_1_1 ) {
  (true) 0.0, 1.0;
  (false) 1.0, 0.0;
}
probability ( v_1_3 | v_1_2 ) {
  (true) 0.873876, 0.126124;
  (false) 0.0740459, 0.925954;
}
probability ( v_1_4 | v_1_3 ) {
  (true) 0.0, 1.0;
  (false) 1.0, 0.0;
}
probability ( v_1_5 | v_1_4 ) {
  (true) 0.0, 1.0;
  (false) 1.0, 0.0;
}
probability ( v_1_6 | v_1_5 ) {
  (true) 0.84618, 0.15382;
  (false) 0.308601, 0.691399;
}
probability ( v_1_7 | v_1_6 ) {
  (true) 1.0, 0.0;
  (false) 0.0, 1.0;
}
probability ( v_1_8 | v_1_7 ) {
  (true) 1.0, 0.0;
  (false) 0.0, 1.0;
}
probability ( v_1_9 | v_1_8 ) {
  (true) 1.0, 0.0;
  (false) 0.0, 1.0;
}
probability ( v_1_10 | v_1_9 ) {
  (true) 0.948132, 0.0518681;
  (false) 0.0888804, 0.91112;
}
probability ( v_2_1 | v_1_1 ) {
  (true) 1.0, 0.0;
  (false) 0.0, 1.0;
}
probability ( v_2_2 | v_2_1, v_1_2 ) {
  (true, true) 1.0, 0.0;
  (true, false) 1.0, 0.0;
  (false, true) 1.0, 0.0;
  (false, false) 0.0, 1.0;
}
probability ( v_2_3 | v_2_2, v_1_3 ) {
  (true, true) 1.0, 0.0;
  (true, false) 1.0, 0.0;
  (false, true) 1.0, 0.0;
  (false, false) 0.0, 1.0;
}
probability ( v_2_4 | v_2_3, v_1_4 ) {
  (true, true) 1.0, 0.0;
  (true, false) 1.0, 0.0;
  (false, true) 0.0, 1.0;
  (false, false) 0.0, 1.0;
}
probability ( v_2_5 | v_2_4, v_1_5 ) {
  (true, true) 1.0, 0.0;
  (true, false) 1.0, 0.0;
  (false, true) 0.0, 1.0;
  (false, false) 0.0, 1.0;
}
probability ( v_2_6 | v_2_5, v_1_6 ) {
  (true, true) 1.0, 0.0;
  (true, false) 1.0, 0.0;
  (false, true) 0.0, 1.0;
  (false, false) 1.0, 0.0;
}
probability ( v_2_7 | v_2_6, v_1_7 ) {
  (true, true) 0.0, 1.0;
  (true, false) 1.0, 0.0;
  (false, true) 0.0, 1.0;
  (false, false) 1.0, 0.0;
}
probability ( v_2_8 | v_2_7, v_1_8 ) {
  (true, true) 1.0, 0.0;
  (true, false) 0.0, 1.0;
  (false, true) 1.0, 0.0;
  (false, false) 1.0, 0.0;
}
probability ( v_2_9 | v_2_8, v_1_9 ) {
  (true, true) 1.0, 0.0;
  (true, false) 0.0, 1.0;
  (false, true) 0.0, 1.0;
  (false, false) 0.0, 1.0;
}
probability ( v_2_10 | v_2_9, v_1_10 ) {
  (true, true) 1.0, 0.0;
  (true, false) 1.0, 0.0;
  (false, true) 0.0, 1.0;
  (false, false) 1.0, 0.0;
}
probability ( v_3_1 | v_2_1 ) {
  (true) 1.0, 0.0;
  (false) 0.0, 1.0;
}
probability ( v_3_2 | v_3_1, v_2_2 ) {
  (true, true) 0.257136, 0.742864;
  (true, false) 0.746989, 0.253011;
  (false, true) 0.961352, 0.0386482;
  (false, false) 0.374154, 0.625846;
}
probability ( v_3_3 | v_3_2, v_2_3 ) {
  (true, true) 0.0, 1.0;
  (true, false) 1.0, 0.0;
  (false, true) 0.0, 1.0;
  (false, false) 0.0, 1.0;
}
probability ( v_3_4 | v_3_3, v_2_4 ) {
  (true, true) 0.0, 1.0;
  (true, false) 1.0, 0.0;
  (false, true) 0.0, 1.0;
  (false, false) 1.0, 0.0;
}
probability ( v_3_5 | v_3_4, v_2_5 ) {
  (true, true) 1.0, 0.0;
  (true, false) 0.0, 1.0;
  (false, true) 1.0, 0.0;
  (false, false) 1.0, 0.0;
}
probability ( v_3_6 | v_3_5, v_2_6 ) {
  (true, true) 0.900178, 0.0998218;
  (true, false) 0.114928, 0.885072;
  (false, true) 0.424639, 0.575361;
  (false, false) 0.253509, 0.746491;
}
probability ( v_3_7 | v_3_6, v_2_7 ) {
  (true, true) 0.0, 1.0;
  (true, false) 1.0, 0.0;
  (false, true) 0.0, 1.0;
  (false, false) 0.0, 1.0;
}
probability ( v_3_8 | v_3_7, v_2_8 ) {
  (true, true) 0.0, 1.0;
  (true, false) 0.0, 1.0;
  (false, true) 1.0, 0.0;
  (false, false) 1.0, 0.0;
}
probability ( v_3_9 | v_3_8, v_2_9 ) {
  (true, true) 0.0, 1.0;
  (true, false) 1.0, 0.0;
  (false, true) 1.0, 0.0;
  (false, false) 1.0, 0.0;
}
probability ( v_3_10 | v_3_9, v_2_10 ) {
  (true, true) 0.924781, 0.0752186;
  (true, false) 0.652506, 0.347494;
  (false, true) 0.0154444, 0.984556;
  (false, false) 0.423404, 0.576596;
}
probability ( v_4_1 | v_3_1 ) {
  (true) 0.226014, 0.773986;
  (false) 0.935384, 0.0646163;
}
probability ( v_4_2 | v_4_1, v_3_2 ) {
  (true, true) 0.0, 1.0;
  (true, false) 0.0, 1.0;
  (false, true) 1.0, 0.0;
  (false, false) 0.0, 1.0;
}
probability ( v_4_3 | v_4_2, v_3_3 ) {
  (true, true) 1.0, 0.0;
  (true, false) 1.0, 0.0;
  (false, true) 0.0, 1.0;
  (false, false) 1.0, 0.0;
}
probability ( v_4_4 | v_4_3, v_3_4 ) {
  (true, true) 1.0, 0.0;
  (true, false) 0.0, 1.0;
  (false, true) 1.0, 0.0;
  (false, false) 1.0, 0.0;
}
probability ( v_4_5 | v_4_4, v_3_5 ) {
  (true, true) 0.0, 1.0;
  (true, false) 1.0, 0.0;
  (false, true) 1.0, 0.0;
  (false, false) 1.0, 0.0;
}
probability ( v_4_6 | v_4_5, v_3_6 ) {
  (true, true) 0.331029, 0.668971;
  (true, false) 0.986358, 0.0136422;
  (false, true) 0.720457, 0.279543;
  (false, false) 0.983535, 0.0164654;
}
probability ( v_4_7 | v_4_6, v_3_7 ) {
  (true, true) 0.0, 1.0;
  (true, false) 1.0, 0.0;
  (false, true) 0.0, 1.0;
  (false, false) 1.0, 0.0;
}
probability ( v_4_8 | v_4_7, v_3_8 ) {
  (true, true) 0.364376, 0.635624;
  (true, false) 0.79065, 0.20935;
  (false, true) 0.933571, 0.0664292;
  (false, false) 0.401115, 0.598885;
}
probability ( v_4_9 | v_4_8, v_3_9 ) {
  (true, true) 1.0, 0.0;
  (true, false) 0.0, 1.0;
  (false, true) 0.0, 1.0;
  (false, false) 1.0, 0.0;
}
probability ( v_4_10 | v_4_9, v_3_10 ) {
  (true, true) 0.0, 1.0;
  (true, false) 0.0, 1.0;
  (false, true) 1.0, 0.0;
  (false, false) 1.0, 0.0;
}
probability ( v_5_1 | v_4_1 ) {
  (true) 0.421256, 0.578744;
  (false) 0.616191, 0.383809;
}
probability ( v_5_2 | v_5_1, v_4_2 ) {
  (true, true) 0.788812, 0.211188;
  (true, false) 0.60836, 0.39164;
  (false, true) 0.579872, 0.420128;
  (false, false) 0.119841, 0.880159;
}
probability ( v_5_3 | v_5_2, v_4_3 ) {
  (true, true) 1.0, 0.0;
  (true, false) 0.0, 1.0;
  (false, true) 0.0, 1.0;
  (false, false) 1.0, 0.0;
}
probability ( v_5_4 | v_5_3, v_4_4 ) {
  (true, true) 0.824335, 0.175665;
  (true, false) 0.523432, 0.476568;
  (false, true) 0.816595, 0.183405;
  (false, false) 0.188711, 0.811289;
}
probability ( v_5_5 | v_5_4, v_4_5 ) {
  (true, true) 0.0, 1.0;
  (true, false) 1.0, 0.0;
  (false, true) 1.0, 0.0;
  (false, false) 1.0, 0.0;
}
probability ( v_5_6 | v_5_5, v_4_6 ) {
  (true, true) 1.0, 0.0;
  (true, false) 1.0, 0.0;
  (false, true) 0.0, 1.0;
  (false, false) 1.0, 0.0;
}
probability ( v_5_7 | v_5_6, v_4_7 ) {
  (true, true) 1.0, 0.0;
  (true, false) 0.0, 1.0;
  (false, true) 1.0, 0.0;
  (false, false) 1.0, 0.0;
}
probability ( v_5_8 | v_5_7, v_4_8 ) {
  (true, true) 1.0, 0.0;
  (true, false) 0.0, 1.0;
  (false, true) 1.0, 0.0;
  (false, false) 1.0, 0.0;
}
probability ( v_5_9 | v_5_8, v_4_9 ) {
  (true, true) 0.0, 1.0;
  (true, false) 1.0, 0.0;
  (false, true) 1.0, 0.0;
  (false, false) 1.0, 0.0;
}
probability ( v_5_10 | v_5_9, v_4_10 ) {
  (true, true) 0.795583, 0.204417;
  (true, false) 0.975634, 0.0243658;
  (false, true) 0.780322, 0.219678;
  (false, false) 0.984295, 0.0157054;
}
probability ( v_6_1 | v_5_1 ) {
  (true) 0.0, 1.0;
  (false) 1.0, 0.0;
}
probability ( v_6_2 | v_6_1, v_5_2 ) {
  (true, true) 0.0, 1.0;
  (true, false) 1.0, 0.0;
  (false, true) 1.0, 0.0;
  (false, false) 1.0, 0.0;
}
probability ( v_6_3 | v_6_2, v_5_3 ) {
  (true, true) 0.630996, 0.369004;
  (true, false) 0.149363, 0.850637;
  (false, true) 0.317498, 0.682502;
  (false, false) 0.228816, 0.771184;
}
probability ( v_6_4 | v_6_3, v_5_4 ) {
  (true, true) 1.0, 0.0;
  (true, false) 1.0, 0.0;
  (false, true) 1.0, 0.0;
  (false, false) 0.0, 1.0;
}
probability ( v_6_5 | v_6_4, v_5_5 ) {
  (true, true) 1.0, 0.0;
  (true, false) 1.0, 0.0;
  (false, true) 1.0, 0.0;
  (false, false) 0.0, 1.0;
}
probability ( v_6_6 | v_6_5, v_5_6 ) {
  (true, true) 0.0, 1.0;
  (true, false) 1.0, 0.0;
  (false, true) 1.0, 0.0;
  (false, false) 0.0, 1.0;
}
probability ( v_6_7 | v_6_6, v_5_7 ) {
  (true, true) 0.932463, 0.0675366;
  (true, false) 0.758666, 0.241334;
  (false, true) 0.782341, 0.217659;
  (false, false) 0.22218, 0.77782;
}
probability ( v_6_8 | v_6_7, v_5_8 ) {
  (true, true) 1.0, 0.0;
  (true, false) 0.0, 1.0;
  (false, true) 1.0, 0.0;
  (false, false) 0.0, 1.0;
}
probability ( v_6_9 | v_6_8, v_5_9 ) {
  (true, true) 1.0, 0.0;
  (true, false) 0.0, 1.0;
  (false, true) 0.0, 1.0;
  (false, false) 1.0, 0.0;
}
probability ( v_6_10 | v_6_9, v_5_10 ) {
  (true, true) 0.0, 1.0;
  (true, false) 1.0, 0.0;
  (false, true) 1.0, 0.0;
  (false, false) 1.0, 0.0;
}
probability ( v_7_1 | v_6_1 ) {
  (true) 1.0, 0.0;
  (false) 0.0, 1.0;
}
probability ( v_7_2 | v_7_1, v_6_2 ) {
  (true, true) 0.0613664, 0.938634;
  (true, false) 0.358768, 0.641232;
  (false, true) 0.0312093, 0.968791;
  (false, false) 0.565994, 0.434006;
}
probability ( v_7_3 | v_7_2, v_6_3 ) {
  (true, true) 0.0, 1.0;
  (true, false) 0.0, 1.0;
  (false, true) 0.0, 1.0;
  (false, false) 1.0, 0.0;
}
probability ( v_7_4 | v_7_3, v_6_4 ) {
  (true, true) 1.0, 0.0;
  (true, false) 1.0, 0.0;
  (false, true) 1.0, 0.0;
  (false, false) 0.0, 1.0;
}
probability ( v_7_5 | v_7_4, v_6_5 ) {
  (true, true) 0.0, 1.0;
  (true, false) 1.0, 0.0;
  (false, true) 0.0, 1.0;
  (false, false) 1.0, 0.0;
}
probability ( v_7_6 | v_7_5, v_6_6 ) {
  (true, true) 1.0, 0.0;
  (true, false) 1.0, 0.0;
  (false, true) 0.0, 1.0;
  (false, false) 1.0, 0.0;
}
probability ( v_7_7 | v_7_6, v_6_7 ) {
  (true, true) 1.0, 0.0;
  (true, false) 1.0, 0.0;
  (false, true) 1.0, 0.0;
  (false, false) 0.0, 1.0;
}
probability ( v_7_8 | v_7_7, v_6_8 ) {
  (true, true) 1.0, 0.0;
  (true, false) 1.0, 0.0;
  (false, true) 0.0, 1.0;
  (false, false) 1.0, 0.0;
}
probability ( v_7_9 | v_7_8, v_6_9 ) {
  (true, true) 0.0, 1.0;
  (true, false) 1.0, 0.0;
  (false, true) 1.0, 0.0;
  (false, false) 1.0, 0.0;
}
probability ( v_7_10 | v_7_9, v_6_10 ) {
  (true, true) 0.816673, 0.183327;
  (true, false) 0.912595, 0.0874054;
  (false, true) 0.385198, 0.614802;
  (false, false) 0.787194, 0.212806;
}
probability ( v_8_1 | v_7_1 ) {
  (true) 0.0, 1.0;
  (false) 1.0, 0.0;
}
probability ( v_8_2 | v_8_1, v_7_2 ) {
  (true, true) 0.766294, 0.233706;
  (true, false) 0.936733, 0.0632666;
  (false, true) 0.99454, 0.00546013;
  (false, false) 0.261774, 0.738226;
}
probability ( v_8_3 | v_8_2, v_7_3 ) {
  (true, true) 1.0, 0.0;
  (true, false) 0.0, 1.0;
  (false, true) 0.0, 1.0;
  (false, false) 0.0, 1.0;
}
probability ( v_8_4 | v_8_3, v_7_4 ) {
  (true, true) 1.0, 0.0;
  (true, false) 1.0, 0.0;
  (false, true) 1.0, 0.0;
  (false, false) 0.0, 1.0;
}
probability ( v_8_5 | v_8_4, v_7_5 ) {
  (true, true) 1.0, 0.0;
  (true, false) 0.0, 1.0;
  (false, true) 1.0, 0.0;
  (false, false) 1.0, 0.0;
}
probability ( v_8_6 | v_8_5, v_7_6 ) {
  (true, true) 0.747054, 0.252946;
  (true, false) 0.8834, 0.1166;
  (false, true) 0.833217, 0.166783;
  (false, false) 0.563727, 0.436273;
}
probability ( v_8_7 | v_8_6, v_7_7 ) {
  (true, true) 0.218415, 0.781585;
  (true, false) 0.350921, 0.649079;
  (false, true) 0.829017, 0.170983;
  (false, false) 0.980775, 0.0192251;
}
probability ( v_8_8 | v_8_7, v_7_8 ) {
  (true, true) 0.0, 1.0;
  (true, false) 0.0, 1.0;
  (false, true) 1.0, 0.0;
  (false, false) 1.0, 0.0;
}
probability ( v_8_9 | v_8_8, v_7_9 ) {
  (true, true) 1.0, 0.0;
  (true, false) 1.0, 0.0;
  (false, true) 0.0, 1.0;
  (false, false) 1.0, 0.0;
}
probability ( v_8_10 | v_8_9, v_7_10 ) {
  (true, true) 0.0, 1.0;
  (true, false) 1.0, 0.0;
  (false, true) 0.0, 1.0;
  (false, false) 1.0, 0.0;
}
probability ( v_9_1 | v_8_1 ) {
  (true) 1.0, 0.0;
  (false) 0.0, 1.0;
}
probability ( v_9_2 | v_9_1, v_8_2 ) {
  (true, true) 1.0, 0.0;
  (true, false) 0.0, 1.0;
  (false, true) 0.0, 1.0;
  (false, false) 0.0, 1.0;
}
probability ( v_9_3 | v_9_2, v_8_3 ) {
  (true, true) 0.0, 1.0;
  (true, false) 0.0, 1.0;
  (false, true) 0.0, 1.0;
  (false, false) 1.0, 0.0;
}
probability ( v_9_4 | v_9_3, v_8_4 ) {
  (true, true) 0.513155, 0.486845;
  (true, false) 0.148089, 0.851911;
  (false, true) 0.586264, 0.413736;
  (false, false) 0.430663, 0.569337;
}
probability ( v_9_5 | v_9_4, v_8_5 ) {
  (true, true) 0.0, 1.0;
  (true, false) 0.0, 1.0;
  (false, true) 1.0, 0.0;
  (false, false) 1.0, 0.0;
}
probability ( v_9_6 | v_9_5, v_8_6 ) {
  (true, true) 0.0, 1.0;
  (true, false) 1.0, 0.0;
  (false, true) 1.0, 0.0;
  (false, false) 0.0, 1.0;
}
probability ( v_9_7 | v_9_6, v_8_7 ) {
  (true, true) 1.0, 0.0;
  (true, false) 0.0, 1.0;
  (false, true) 1.0, 0.0;
  (false, false) 0.0, 1.0;
}
probability ( v_9_8 | v_9_7, v_8_8 ) {
  (true, true) 1.0, 0.0;
  (true, false) 0.0, 1.0;
  (false, true) 0.0, 1.0;
  (false, false) 0.0, 1.0;
}
probability ( v_9_9 | v_9_8, v_8_9 ) {
  (true, true) 1.0, 0.0;
  (true, false) 0.0, 1.0;
  (false, true) 0.0, 1.0;
  (false, false) 1.0, 0.0;
}
probability ( v_9_10 | v_9_9, v_8_10 ) {
  (true, true) 1.0, 0.0;
  (true, false) 0.0, 1.0;
  (false, true) 1.0, 0.0;
  (false, false) 0.0, 1.0;
}
probability ( v_10_1 | v_9_1 ) {
  (true) 1.0, 0.0;
  (false) 0.0, 1.0;
}
probability ( v_10_2 | v_10_1, v_9_2 ) {
  (true, true) 0.0, 1.0;
  (true, false) 0.0, 1.0;
  (false, true) 1.0, 0.0;
  (false, false) 0.0, 1.0;
}
probability ( v_10_3 | v_10_2, v_9_3 ) {
  (true, true) 0.504086, 0.495914;
  (true, false) 0.846893, 0.153107;
  (false, true) 0.439072, 0.560928;
  (false, false) 0.832392, 0.167608;
}
probability ( v_10_4 | v_10_3, v_9_4 ) {
  (true, true) 0.0, 1.0;
  (true, false) 0.0, 1.0;
  (false, true) 1.0, 0.0;
  (false, false) 1.0, 0.0;
}
probability ( v_10_5 | v_10_4, v_9_5 ) {
  (true, true) 1.0, 0.0;
  (true, false) 1.0, 0.0;
  (false, true) 0.0, 1.0;
  (false, false) 0.0, 1.0;
}
probability ( v_10_6 | v_10_5, v_9_6 ) {
  (true, true) 0.0, 1.0;
  (true, false) 1.0, 0.0;
  (false, true) 0.0, 1.0;
  (false, false) 1.0, 0.0;
}
probability ( v_10_7 | v_10_6, v_9_7 ) {
  (true, true) 0.0, 1.0;
  (true, false) 1.0, 0.0;
  (false, true) 0.0, 1.0;
  (false, false) 1.0, 0.0;
}
probability ( v_10_8 | v_10_7, v_9_8 ) {
  (true, true) 0.0818057, 0.918194;
  (true, false) 0.660707, 0.339293;
  (false, true) 0.650118, 0.349882;
  (false, false) 0.223426, 0.776574;
}
probability ( v_10_9 | v_10_8, v_9_9 ) {
  (true, true) 1.0, 0.0;
  (true, false) 1.0, 0.0;
  (false, true) 1.0, 0.0;
  (false, false) 0.0, 1.0;
}
probability ( v_10_10 | v_10_9, v_9_10 ) {
  (true, true) 0.588876, 0.411124;
  (true, false) 0.554871, 0.445129;
  (false, true) 0.653331, 0.346669;
  (false, false) 0.605805, 0.394195;
}
