network unknown{
}
variable v_1_1 {
  type discrete [ 2 ] { yes, false };
}
variable v_1_2 {
  type discrete [ 2 ] { yes, false };
}
variable v_1_3 {
  type discrete [ 2 ] { yes, false };
}
variable v_1_4 {
  type discrete [ 2 ] { yes, false };
}
variable v_1_5 {
  type discrete [ 2 ] { yes, false };
}
variable v_1_6 {
  type discrete [ 2 ] { yes, false };
}
variable v_1_7 {
  type discrete [ 2 ] { yes, false };
}
variable v_1_8 {
  type discrete [ 2 ] { yes, false };
}
variable v_1_9 {
  type discrete [ 2 ] { yes, false };
}
variable v_1_10 {
  type discrete [ 2 ] { yes, false };
}
variable v_2_1 {
  type discrete [ 2 ] { yes, false };
}
variable v_2_2 {
  type discrete [ 2 ] { yes, false };
}
variable v_2_3 {
  type discrete [ 2 ] { yes, false };
}
variable v_2_4 {
  type discrete [ 2 ] { yes, false };
}
variable v_2_5 {
  type discrete [ 2 ] { yes, false };
}
variable v_2_6 {
  type discrete [ 2 ] { yes, false };
}
variable v_2_7 {
  type discrete [ 2 ] { yes, false };
}
variable v_2_8 {
  type discrete [ 2 ] { yes, false };
}
variable v_2_9 {
  type discrete [ 2 ] { yes, false };
}
variable v_2_10 {
  type discrete [ 2 ] { yes, false };
}
variable v_3_1 {
  type discrete [ 2 ] { yes, false };
}
variable v_3_2 {
  type discrete [ 2 ] { yes, false };
}
variable v_3_3 {
  type discrete [ 2 ] { yes, false };
}
variable v_3_4 {
  type discrete [ 2 ] { yes, false };
}
variable v_3_5 {
  type discrete [ 2 ] { yes, false };
}
variable v_3_6 {
  type discrete [ 2 ] { yes, false };
}
variable v_3_7 {
  type discrete [ 2 ] { yes, false };
}
variable v_3_8 {
  type discrete [ 2 ] { yes, false };
}
variable v_3_9 {
  type discrete [ 2 ] { yes, false };
}
variable v_3_10 {
  type discrete [ 2 ] { yes, false };
}
variable v_4_1 {
  type discrete [ 2 ] { yes, false };
}
variable v_4_2 {
  type discrete [ 2 ] { yes, false };
}
variable v_4_3 {
  type discrete [ 2 ] { yes, false };
}
variable v_4_4 {
  type discrete [ 2 ] { yes, false };
}
variable v_4_5 {
  type discrete [ 2 ] { yes, false };
}
variable v_4_6 {
  type discrete [ 2 ] { yes, false };
}
variable v_4_7 {
  type discrete [ 2 ] { yes, false };
}
variable v_4_8 {
  type discrete [ 2 ] { yes, false };
}
variable v_4_9 {
  type discrete [ 2 ] { yes, false };
}
variable v_4_10 {
  type discrete [ 2 ] { yes, false };
}
variable v_5_1 {
  type discrete [ 2 ] { yes, false };
}
variable v_5_2 {
  type discrete [ 2 ] { yes, false };
}
variable v_5_3 {
  type discrete [ 2 ] { yes, false };
}
variable v_5_4 {
  type discrete [ 2 ] { yes, false };
}
variable v_5_5 {
  type discrete [ 2 ] { yes, false };
}
variable v_5_6 {
  type discrete [ 2 ] { yes, false };
}
variable v_5_7 {
  type discrete [ 2 ] { yes, false };
}
variable v_5_8 {
  type discrete [ 2 ] { yes, false };
}
variable v_5_9 {
  type discrete [ 2 ] { yes, false };
}
variable v_5_10 {
  type discrete [ 2 ] { yes, false };
}
variable v_6_1 {
  type discrete [ 2 ] { yes, false };
}
variable v_6_2 {
  type discrete [ 2 ] { yes, false };
}
variable v_6_3 {
  type discrete [ 2 ] { yes, false };
}
variable v_6_4 {
  type discrete [ 2 ] { yes, false };
}
variable v_6_5 {
  type discrete [ 2 ] { yes, false };
}
variable v_6_6 {
  type discrete [ 2 ] { yes, false };
}
variable v_6_7 {
  type discrete [ 2 ] { yes, false };
}
variable v_6_8 {
  type discrete [ 2 ] { yes, false };
}
variable v_6_9 {
  type discrete [ 2 ] { yes, false };
}
variable v_6_10 {
  type discrete [ 2 ] { yes, false };
}
variable v_7_1 {
  type discrete [ 2 ] { yes, false };
}
variable v_7_2 {
  type discrete [ 2 ] { yes, false };
}
variable v_7_3 {
  type discrete [ 2 ] { yes, false };
}
variable v_7_4 {
  type discrete [ 2 ] { yes, false };
}
variable v_7_5 {
  type discrete [ 2 ] { yes, false };
}
variable v_7_6 {
  type discrete [ 2 ] { yes, false };
}
variable v_7_7 {
  type discrete [ 2 ] { yes, false };
}
variable v_7_8 {
  type discrete [ 2 ] { yes, false };
}
variable v_7_9 {
  type discrete [ 2 ] { yes, false };
}
variable v_7_10 {
  type discrete [ 2 ] { yes, false };
}
variable v_8_1 {
  type discrete [ 2 ] { yes, false };
}
variable v_8_2 {
  type discrete [ 2 ] { yes, false };
}
variable v_8_3 {
  type discrete [ 2 ] { yes, false };
}
variable v_8_4 {
  type discrete [ 2 ] { yes, false };
}
variable v_8_5 {
  type discrete [ 2 ] { yes, false };
}
variable v_8_6 {
  type discrete [ 2 ] { yes, false };
}
variable v_8_7 {
  type discrete [ 2 ] { yes, false };
}
variable v_8_8 {
  type discrete [ 2 ] { yes, false };
}
variable v_8_9 {
  type discrete [ 2 ] { yes, false };
}
variable v_8_10 {
  type discrete [ 2 ] { yes, false };
}
variable v_9_1 {
  type discrete [ 2 ] { yes, false };
}
variable v_9_2 {
  type discrete [ 2 ] { yes, false };
}
variable v_9_3 {
  type discrete [ 2 ] { yes, false };
}
variable v_9_4 {
  type discrete [ 2 ] { yes, false };
}
variable v_9_5 {
  type discrete [ 2 ] { yes, false };
}
variable v_9_6 {
  type discrete [ 2 ] { yes, false };
}
variable v_9_7 {
  type discrete [ 2 ] { yes, false };
}
variable v_9_8 {
  type discrete [ 2 ] { yes, false };
}
variable v_9_9 {
  type discrete [ 2 ] { yes, false };
}
variable v_9_10 {
  type discrete [ 2 ] { yes, false };
}
variable v_10_1 {
  type discrete [ 2 ] { yes, false };
}
variable v_10_2 {
  type discrete [ 2 ] { yes, false };
}
variable v_10_3 {
  type discrete [ 2 ] { yes, false };
}
variable v_10_4 {
  type discrete [ 2 ] { yes, false };
}
variable v_10_5 {
  type discrete [ 2 ] { yes, false };
}
variable v_10_6 {
  type discrete [ 2 ] { yes, false };
}
variable v_10_7 {
  type discrete [ 2 ] { yes, false };
}
variable v_10_8 {
  type discrete [ 2 ] { yes, false };
}
variable v_10_9 {
  type discrete [ 2 ] { yes, false };
}
variable v_10_10 {
  type discrete [ 2 ] { yes, false };
}
probability ( v_1_1 ) {
  table 0.594038, 0.405962;
}
probability ( v_1_2 | v_1_1 ) {
  (true) 0.947665, 0.0523349;
  (false) 0.679975, 0.320025;
}
probability ( v_1_3 | v_1_2 ) {
  (true) 1.0, 0.0;
  (false) 0.0, 1.0;
}
probability ( v_1_4 | v_1_3 ) {
  (true) 0.00189419, 0.998106;
  (false) 0.715672, 0.284328;
}
probability ( v_1_5 | v_1_4 ) {
  (true) 0.0, 1.0;
  (false) 1.0, 0.0;
}
probability ( v_1_6 | v_1_5 ) {
  (true) 1.0, 0.0;
  (false) 0.0, 1.0;
}
probability ( v_1_7 | v_1_6 ) {
  (true) 0.0, 1.0;
  (false) 1.0, 0.0;
}
probability ( v_1_8 | v_1_7 ) {
  (true) 0.0, 1.0;
  (false) 1.0, 0.0;
}
probability ( v_1_9 | v_1_8 ) {
  (true) 0.0, 1.0;
  (false) 1.0, 0.0;
}
probability ( v_1_10 | v_1_9 ) {
  (true) 1.0, 0.0;
  (false) 0.0, 1.0;
}
probability ( v_2_1 | v_1_1 ) {
  (true) 0.689838, 0.310162;
  (false) 0.55708, 0.44292;
}
probability ( v_2_2 | v_2_1, v_1_2 ) {
  (true, true) 0.0279273, 0.972073;
  (true, false) 0.00359662, 0.996403;
  (false, true) 0.955829, 0.0441705;
  (false, false) 0.534797, 0.465203;
}
probability ( v_2_3 | v_2_2, v_1_3 ) {
  (true, true) 0.0, 1.0;
  (true, false) 0.0, 1.0;
  (false, true) 1.0, 0.0;
  (false, false) 0.0, 1.0;
}
probability ( v_2_4 | v_2_3, v_1_4 ) {
  (true, true) 0.970479, 0.0295211;
  (true, false) 0.576665, 0.423335;
  (false, true) 0.798387, 0.201613;
  (false, false) 0.972373, 0.0276269;
}
probability ( v_2_5 | v_2_4, v_1_5 ) {
  (true, true) 0.0, 1.0;
  (true, false) 1.0, 0.0;
  (false, true) 1.0, 0.0;
  (false, false) 1.0, 0.0;
}
probability ( v_2_6 | v_2_5, v_1_6 ) {
  (true, true) 0.690314, 0.309686;
  (true, false) 0.288264, 0.711736;
  (false, true) 0.496255, 0.503745;
  (false, false) 0.83286, 0.16714;
}
probability ( v_2_7 | v_2_6, v_1_7 ) {
  (true, true) 0.0, 1.0;
  (true, false) 1.0, 0.0;
  (false, true) 0.0, 1.0;
  (false, false) 0.0, 1.0;
}
probability ( v_2_8 | v_2_7, v_1_8 ) {
  (true, true) 0.10982, 0.89018;
  (true, false) 0.405643, 0.594357;
  (false, true) 0.802554, 0.197446;
  (false, false) 0.0656493, 0.934351;
}
probability ( v_2_9 | v_2_8, v_1_9 ) {
  (true, true) 0.853668, 0.146332;
  (true, false) 0.539589, 0.460411;
  (false, true) 0.0692747, 0.930725;
  (false, false) 0.721022, 0.278978;
}
probability ( v_2_10 | v_2_9, v_1_10 ) {
  (true, true) 0.878085, 0.121915;
  (true, false) 0.6915, 0.3085;
  (false, true) 0.537859, 0.462141;
  (false, false) 0.676472, 0.323528;
}
probability ( v_3_1 | v_2_1 ) {
  (true) 0.830196, 0.169804;
  (false) 0.935928, 0.0640719;
}
probability ( v_3_2 | v_3_1, v_2_2 ) {
  (true, true) 1.0, 0.0;
  (true, false) 0.0, 1.0;
  (false, true) 0.0, 1.0;
  (false, false) 1.0, 0.0;
}
probability ( v_3_3 | v_3_2, v_2_3 ) {
  (true, true) 0.0, 1.0;
  (true, false) 1.0, 0.0;
  (false, true) 1.0, 0.0;
  (false, false) 1.0, 0.0;
}
probability ( v_3_4 | v_3_3, v_2_4 ) {
  (true, true) 0.658884, 0.341116;
  (true, false) 0.0555916, 0.944408;
  (false, true) 0.907946, 0.092054;
  (false, false) 0.0645266, 0.935473;
}
probability ( v_3_5 | v_3_4, v_2_5 ) {
  (true, true) 0.973595, 0.0264046;
  (true, false) 0.00496659, 0.995033;
  (false, true) 0.711814, 0.288186;
  (false, false) 0.513185, 0.486815;
}
probability ( v_3_6 | v_3_5, v_2_6 ) {
  (true, true) 1.0, 0.0;
  (true, false) 1.0, 0.0;
  (false, true) 1.0, 0.0;
  (false, false) 0.0, 1.0;
}
probability ( v_3_7 | v_3_6, v_2_7 ) {
  (true, true) 0.0, 1.0;
  (true, false) 0.0, 1.0;
  (false, true) 0.0, 1.0;
  (false, false) 1.0, 0.0;
}
probability ( v_3_8 | v_3_7, v_2_8 ) {
  (true, true) 0.334016, 0.665984;
  (true, false) 0.414023, 0.585977;
  (false, true) 0.0851887, 0.914811;
  (false, false) 0.515912, 0.484088;
}
probability ( v_3_9 | v_3_8, v_2_9 ) {
  (true, true) 0.67848, 0.32152;
  (true, false) 0.530669, 0.469331;
  (false, true) 0.159334, 0.840666;
  (false, false) 0.959648, 0.0403518;
}
probability ( v_3_10 | v_3_9, v_2_10 ) {
  (true, true) 0.957461, 0.0425395;
  (true, false) 0.618532, 0.381468;
  (false, true) 0.842895, 0.157105;
  (false, false) 0.865407, 0.134593;
}
probability ( v_4_1 | v_3_1 ) {
  (true) 0.70104, 0.29896;
  (false) 0.839002, 0.160998;
}
probability ( v_4_2 | v_4_1, v_3_2 ) {
  (true, true) 0.412854, 0.587146;
  (true, false) 0.352186, 0.647814;
  (false, true) 0.762267, 0.237733;
  (false, false) 0.84569, 0.15431;
}
probability ( v_4_3 | v_4_2, v_3_3 ) {
  (true, true) 0.714593, 0.285407;
  (true, false) 0.970026, 0.029974;
  (false, true) 0.838803, 0.161197;
  (false, false) 0.343391, 0.656609;
}
probability ( v_4_4 | v_4_3, v_3_4 ) {
  (true, true) 0.681236, 0.318764;
  (true, false) 0.908117, 0.0918833;
  (false, true) 0.746389, 0.253611;
  (false, false) 0.0152521, 0.984748;
}
probability ( v_4_5 | v_4_4, v_3_5 ) {
  (true, true) 1.0, 0.0;
  (true, false) 1.0, 0.0;
  (false, true) 1.0, 0.0;
  (false, false) 0.0, 1.0;
}
probability ( v_4_6 | v_4_5, v_3_6 ) {
  (true, true) 0.0, 1.0;
  (true, false) 1.0, 0.0;
  (false, true) 0.0, 1.0;
  (false, false) 0.0, 1.0;
}
probability ( v_4_7 | v_4_6, v_3_7 ) {
  (true, true) 0.0, 1.0;
  (true, false) 1.0, 0.0;
  (false, true) 1.0, 0.0;
  (false, false) 0.0, 1.0;
}
probability ( v_4_8 | v_4_7, v_3_8 ) {
  (true, true) 0.459321, 0.540679;
  (true, false) 0.805925, 0.194075;
  (false, true) 0.0471137, 0.952886;
  (false, false) 0.221588, 0.778412;
}
probability ( v_4_9 | v_4_8, v_3_9 ) {
  (true, true) 0.873679, 0.126321;
  (true, false) 0.936181, 0.0638193;
  (false, true) 0.621641, 0.378359;
  (false, false) 0.712482, 0.287518;
}
probability ( v_4_10 | v_4_9, v_3_10 ) {
  (true, true) 0.0, 1.0;
  (true, false) 1.0, 0.0;
  (false, true) 1.0, 0.0;
  (false, false) 0.0, 1.0;
}
probability ( v_5_1 | v_4_1 ) {
  (true) 0.0, 1.0;
  (false) 1.0, 0.0;
}
probability ( v_5_2 | v_5_1, v_4_2 ) {
  (true, true) 0.940134, 0.0598657;
  (true, false) 0.383552, 0.616448;
  (false, true) 0.467899, 0.532101;
  (false, false) 0.00196716, 0.998033;
}
probability ( v_5_3 | v_5_2, v_4_3 ) {
  (true, true) 1.0, 0.0;
  (true, false) 1.0, 0.0;
  (false, true) 0.0, 1.0;
  (false, false) 0.0, 1.0;
}
probability ( v_5_4 | v_5_3, v_4_4 ) {
  (true, true) 0.263054, 0.736946;
  (true, false) 0.797138, 0.202862;
  (false, true) 0.936204, 0.0637964;
  (false, false) 0.957981, 0.042019;
}
probability ( v_5_5 | v_5_4, v_4_5 ) {
  (true, true) 1.0, 0.0;
  (true, false) 1.0, 0.0;
  (false, true) 0.0, 1.0;
  (false, false) 1.0, 0.0;
}
probability ( v_5_6 | v_5_5, v_4_6 ) {
  (true, true) 0.0, 1.0;
  (true, false) 1.0, 0.0;
  (false, true) 1.0, 0.0;
  (false, false) 0.0, 1.0;
}
probability ( v_5_7 | v_5_6, v_4_7 ) {
  (true, true) 0.881487, 0.118513;
  (true, false) 0.521525, 0.478475;
  (false, true) 0.393944, 0.606056;
  (false, false) 0.391315, 0.608685;
}
probability ( v_5_8 | v_5_7, v_4_8 ) {
  (true, true) 1.0, 0.0;
  (true, false) 0.0, 1.0;
  (false, true) 0.0, 1.0;
  (false, false) 1.0, 0.0;
}
probability ( v_5_9 | v_5_8, v_4_9 ) {
  (true, true) 1.0, 0.0;
  (true, false) 0.0, 1.0;
  (false, true) 1.0, 0.0;
  (false, false) 1.0, 0.0;
}
probability ( v_5_10 | v_5_9, v_4_10 ) {
  (true, true) 0.861658, 0.138342;
  (true, false) 0.70785, 0.29215;
  (false, true) 0.666485, 0.333515;
  (false, false) 0.819639, 0.180361;
}
probability ( v_6_1 | v_5_1 ) {
  (true) 0.408613, 0.591387;
  (false) 0.824734, 0.175266;
}
probability ( v_6_2 | v_6_1, v_5_2 ) {
  (true, true) 0.0, 1.0;
  (true, false) 1.0, 0.0;
  (false, true) 0.0, 1.0;
  (false, false) 0.0, 1.0;
}
probability ( v_6_3 | v_6_2, v_5_3 ) {
  (true, true) 1.0, 0.0;
  (true, false) 1.0, 0.0;
  (false, true) 0.0, 1.0;
  (false, false) 1.0, 0.0;
}
probability ( v_6_4 | v_6_3, v_5_4 ) {
  (true, true) 0.67368, 0.32632;
  (true, false) 0.823183, 0.176817;
  (false, true) 0.213893, 0.786107;
  (false, false) 0.00775837, 0.992242;
}
probability ( v_6_5 | v_6_4, v_5_5 ) {
  (true, true) 0.16116, 0.83884;
  (true, false) 0.343804, 0.656196;
  (false, true) 0.789525, 0.210475;
  (false, false) 0.0460308, 0.953969;
}
probability ( v_6_6 | v_6_5, v_5_6 ) {
  (true, true) 0.388129, 0.611871;
  (true, false) 0.956744, 0.0432565;
  (false, true) 0.261233, 0.738767;
  (false, false) 0.249788, 0.750212;
}
probability ( v_6_7 | v_6_6, v_5_7 ) {
  (true, true) 0.927718, 0.0722821;
  (true, false) 0.069427, 0.930573;
  (false, true) 0.628903, 0.371097;
  (false, false) 0.336331, 0.663669;
}
probability ( v_6_8 | v_6_7, v_5_8 ) {
  (true, true) 0.0712583, 0.928742;
  (true, false) 0.138688, 0.861312;
  (false, true) 0.597668, 0.402332;
  (false, false) 0.927841, 0.0721588;
}
probability ( v_6_9 | v_6_8, v_5_9 ) {
  (true, true) 0.892431, 0.107569;
  (true, false) 0.478223, 0.521777;
  (false, true) 0.169428, 0.830572;
  (false, false) 0.172168, 0.827832;
}
probability ( v_6_10 | v_6_9, v_5_10 ) {
  (true, true) 0.903954, 0.0960461;
  (true, false) 0.845848, 0.154152;
  (false, true) 0.733274, 0.266726;
  (false, false) 0.117847, 0.882153;
}
probability ( v_7_1 | v_6_1 ) {
  (true) 0.331323, 0.668677;
  (false) 0.279007, 0.720993;
}
probability ( v_7_2 | v_7_1, v_6_2 ) {
  (true, true) 1.0, 0.0;
  (true, false) 1.0, 0.0;
  (false, true) 0.0, 1.0;
  (false, false) 1.0, 0.0;
}
probability ( v_7_3 | v_7_2, v_6_3 ) {
  (true, true) 0.758765, 0.241235;
  (true, false) 0.946375, 0.0536252;
  (false, true) 0.917313, 0.0826871;
  (false, false) 0.828192, 0.171808;
}
probability ( v_7_4 | v_7_3, v_6_4 ) {
  (true, true) 0.253644, 0.746356;
  (true, false) 0.722353, 0.277647;
  (false, true) 0.646536, 0.353464;
  (false, false) 0.392332, 0.607668;
}
probability ( v_7_5 | v_7_4, v_6_5 ) {
  (true, true) 1.0, 0.0;
  (true, false) 1.0, 0.0;
  (false, true) 0.0, 1.0;
  (false, false) 1.0, 0.0;
}
probability ( v_7_6 | v_7_5, v_6_6 ) {
  (true, true) 0.384621, 0.615379;
  (true, false) 0.962691, 0.0373092;
  (false, true) 0.422142, 0.577858;
  (false, false) 0.230469, 0.769531;
}
probability ( v_7_7 | v_7_6, v_6_7 ) {
  (true, true) 0.539988, 0.460012;
  (true, false) 0.084076, 0.915924;
  (false, true) 0.0272882, 0.972712;
  (false, false) 0.818995, 0.181005;
}
probability ( v_7_8 | v_7_7, v_6_8 ) {
  (true, true) 0.0, 1.0;
  (true, false) 1.0, 0.0;
  (false, true) 1.0, 0.0;
  (false, false) 1.0, 0.0;
}
probability ( v_7_9 | v_7_8, v_6_9 ) {
  (true, true) 0.0, 1.0;
  (true, false) 0.0, 1.0;
  (false, true) 1.0, 0.0;
  (false, false) 1.0, 0.0;
}
probability ( v_7_10 | v_7_9, v_6_10 ) {
  (true, true) 1.0, 0.0;
  (true, false) 1.0, 0.0;
  (false, true) 1.0, 0.0;
  (false, false) 0.0, 1.0;
}
probability ( v_8_1 | v_7_1 ) {
  (true) 1.0, 0.0;
  (false) 0.0, 1.0;
}
probability ( v_8_2 | v_8_1, v_7_2 ) {
  (true, true) 0.4989, 0.5011;
  (true, false) 0.220978, 0.779022;
  (false, true) 0.429679, 0.570321;
  (false, false) 0.883521, 0.116479;
}
probability ( v_8_3 | v_8_2, v_7_3 ) {
  (true, true) 1.0, 0.0;
  (true, false) 1.0, 0.0;
  (false, true) 0.0, 1.0;
  (false, false) 1.0, 0.0;
}
probability ( v_8_4 | v_8_3, v_7_4 ) {
  (true, true) 1.0, 0.0;
  (true, false) 1.0, 0.0;
  (false, true) 0.0, 1.0;
  (false, false) 1.0, 0.0;
}
probability ( v_8_5 | v_8_4, v_7_5 ) {
  (true, true) 0.0, 1.0;
  (true, false) 1.0, 0.0;
  (false, true) 0.0, 1.0;
  (false, false) 0.0, 1.0;
}
probability ( v_8_6 | v_8_5, v_7_6 ) {
  (true, true) 0.0, 1.0;
  (true, false) 1.0, 0.0;
  (false, true) 0.0, 1.0;
  (false, false) 1.0, 0.0;
}
probability ( v_8_7 | v_8_6, v_7_7 ) {
  (true, true) 1.0, 0.0;
  (true, false) 0.0, 1.0;
  (false, true) 1.0, 0.0;
  (false, false) 0.0, 1.0;
}
probability ( v_8_8 | v_8_7, v_7_8 ) {
  (true, true) 0.0, 1.0;
  (true, false) 1.0, 0.0;
  (false, true) 1.0, 0.0;
  (false, false) 0.0, 1.0;
}
probability ( v_8_9 | v_8_8, v_7_9 ) {
  (true, true) 0.0, 1.0;
  (true, false) 1.0, 0.0;
  (false, true) 0.0, 1.0;
  (false, false) 1.0, 0.0;
}
probability ( v_8_10 | v_8_9, v_7_10 ) {
  (true, true) 1.0, 0.0;
  (true, false) 0.0, 1.0;
  (false, true) 0.0, 1.0;
  (false, false) 0.0, 1.0;
}
probability ( v_9_1 | v_8_1 ) {
  (true) 0.0, 1.0;
  (false) 1.0, 0.0;
}
probability ( v_9_2 | v_9_1, v_8_2 ) {
  (true, true) 0.0698245, 0.930175;
  (true, false) 0.777275, 0.222725;
  (false, true) 0.949172, 0.0508279;
  (false, false) 0.222664, 0.777336;
}
probability ( v_9_3 | v_9_2, v_8_3 ) {
  (true, true) 0.0, 1.0;
  (true, false) 1.0, 0.0;
  (false, true) 1.0, 0.0;
  (false, false) 1.0, 0.0;
}
probability ( v_9_4 | v_9_3, v_8_4 ) {
  (true, true) 1.0, 0.0;
  (true, false) 0.0, 1.0;
  (false, true) 1.0, 0.0;
  (false, false) 1.0, 0.0;
}
probability ( v_9_5 | v_9_4, v_8_5 ) {
  (true, true) 0.0, 1.0;
  (true, false) 0.0, 1.0;
  (false, true) 1.0, 0.0;
  (false, false) 0.0, 1.0;
}
probability ( v_9_6 | v_9_5, v_8_6 ) {
  (true, true) 0.537564, 0.462436;
  (true, false) 0.377924, 0.622076;
  (false, true) 0.482994, 0.517006;
  (false, false) 0.85704, 0.14296;
}
probability ( v_9_7 | v_9_6, v_8_7 ) {
  (true, true) 1.0, 0.0;
  (true, false) 1.0, 0.0;
  (false, true) 1.0, 0.0;
  (false, false) 0.0, 1.0;
}
probability ( v_9_8 | v_9_7, v_8_8 ) {
  (true, true) 1.0, 0.0;
  (true, false) 0.0, 1.0;
  (false, true) 0.0, 1.0;
  (false, false) 0.0, 1.0;
}
probability ( v_9_9 | v_9_8, v_8_9 ) {
  (true, true) 0.632348, 0.367652;
  (true, false) 0.321962, 0.678038;
  (false, true) 0.663528, 0.336472;
  (false, false) 0.292193, 0.707807;
}
probability ( v_9_10 | v_9_9, v_8_10 ) {
  (true, true) 1.0, 0.0;
  (true, false) 0.0, 1.0;
  (false, true) 1.0, 0.0;
  (false, false) 1.0, 0.0;
}
probability ( v_10_1 | v_9_1 ) {
  (true) 0.182824, 0.817176;
  (false) 0.93671, 0.0632896;
}
probability ( v_10_2 | v_10_1, v_9_2 ) {
  (true, true) 1.0, 0.0;
  (true, false) 0.0, 1.0;
  (false, true) 1.0, 0.0;
  (false, false) 1.0, 0.0;
}
probability ( v_10_3 | v_10_2, v_9_3 ) {
  (true, true) 0.0, 1.0;
  (true, false) 0.0, 1.0;
  (false, true) 0.0, 1.0;
  (false, false) 1.0, 0.0;
}
probability ( v_10_4 | v_10_3, v_9_4 ) {
  (true, true) 1.0, 0.0;
  (true, false) 0.0, 1.0;
  (false, true) 1.0, 0.0;
  (false, false) 1.0, 0.0;
}
probability ( v_10_5 | v_10_4, v_9_5 ) {
  (true, true) 1.0, 0.0;
  (true, false) 0.0, 1.0;
  (false, true) 0.0, 1.0;
  (false, false) 1.0, 0.0;
}
probability ( v_10_6 | v_10_5, v_9_6 ) {
  (true, true) 0.361752, 0.638248;
  (true, false) 0.739527, 0.260473;
  (false, true) 0.248191, 0.751809;
  (false, false) 0.938786, 0.0612137;
}
probability ( v_10_7 | v_10_6, v_9_7 ) {
  (true, true) 0.757164, 0.242836;
  (true, false) 0.924559, 0.0754414;
  (false, true) 0.14155, 0.85845;
  (false, false) 0.693874, 0.306126;
}
probability ( v_10_8 | v_10_7, v_9_8 ) {
  (true, true) 0.0, 1.0;
  (true, false) 0.0, 1.0;
  (false, true) 1.0, 0.0;
  (false, false) 1.0, 0.0;
}
probability ( v_10_9 | v_10_8, v_9_9 ) {
  (true, true) 0.0625101, 0.93749;
  (true, false) 0.570553, 0.429447;
  (false, true) 0.165711, 0.834289;
  (false, false) 0.515111, 0.484889;
}
probability ( v_10_10 | v_10_9, v_9_10 ) {
  (true, true) 1.0, 0.0;
  (true, false) 1.0, 0.0;
  (false, true) 0.0, 1.0;
  (false, false) 0.0, 1.0;
}
