network unknown{
}
variable v_1_1 {
  type discrete [ 2 ] { yes, false };
}
variable v_1_2 {
  type discrete [ 2 ] { yes, false };
}
variable v_1_3 {
  type discrete [ 2 ] { yes, false };
}
variable v_1_4 {
  type discrete [ 2 ] { yes, false };
}
variable v_1_5 {
  type discrete [ 2 ] { yes, false };
}
variable v_1_6 {
  type discrete [ 2 ] { yes, false };
}
variable v_1_7 {
  type discrete [ 2 ] { yes, false };
}
variable v_1_8 {
  type discrete [ 2 ] { yes, false };
}
variable v_1_9 {
  type discrete [ 2 ] { yes, false };
}
variable v_1_10 {
  type discrete [ 2 ] { yes, false };
}
variable v_2_1 {
  type discrete [ 2 ] { yes, false };
}
variable v_2_2 {
  type discrete [ 2 ] { yes, false };
}
variable v_2_3 {
  type discrete [ 2 ] { yes, false };
}
variable v_2_4 {
  type discrete [ 2 ] { yes, false };
}
variable v_2_5 {
  type discrete [ 2 ] { yes, false };
}
variable v_2_6 {
  type discrete [ 2 ] { yes, false };
}
variable v_2_7 {
  type discrete [ 2 ] { yes, false };
}
variable v_2_8 {
  type discrete [ 2 ] { yes, false };
}
variable v_2_9 {
  type discrete [ 2 ] { yes, false };
}
variable v_2_10 {
  type discrete [ 2 ] { yes, false };
}
variable v_3_1 {
  type discrete [ 2 ] { yes, false };
}
variable v_3_2 {
  type discrete [ 2 ] { yes, false };
}
variable v_3_3 {
  type discrete [ 2 ] { yes, false };
}
variable v_3_4 {
  type discrete [ 2 ] { yes, false };
}
variable v_3_5 {
  type discrete [ 2 ] { yes, false };
}
variable v_3_6 {
  type discrete [ 2 ] { yes, false };
}
variable v_3_7 {
  type discrete [ 2 ] { yes, false };
}
variable v_3_8 {
  type discrete [ 2 ] { yes, false };
}
variable v_3_9 {
  type discrete [ 2 ] { yes, false };
}
variable v_3_10 {
  type discrete [ 2 ] { yes, false };
}
variable v_4_1 {
  type discrete [ 2 ] { yes, false };
}
variable v_4_2 {
  type discrete [ 2 ] { yes, false };
}
variable v_4_3 {
  type discrete [ 2 ] { yes, false };
}
variable v_4_4 {
  type discrete [ 2 ] { yes, false };
}
variable v_4_5 {
  type discrete [ 2 ] { yes, false };
}
variable v_4_6 {
  type discrete [ 2 ] { yes, false };
}
variable v_4_7 {
  type discrete [ 2 ] { yes, false };
}
variable v_4_8 {
  type discrete [ 2 ] { yes, false };
}
variable v_4_9 {
  type discrete [ 2 ] { yes, false };
}
variable v_4_10 {
  type discrete [ 2 ] { yes, false };
}
variable v_5_1 {
  type discrete [ 2 ] { yes, false };
}
variable v_5_2 {
  type discrete [ 2 ] { yes, false };
}
variable v_5_3 {
  type discrete [ 2 ] { yes, false };
}
variable v_5_4 {
  type discrete [ 2 ] { yes, false };
}
variable v_5_5 {
  type discrete [ 2 ] { yes, false };
}
variable v_5_6 {
  type discrete [ 2 ] { yes, false };
}
variable v_5_7 {
  type discrete [ 2 ] { yes, false };
}
variable v_5_8 {
  type discrete [ 2 ] { yes, false };
}
variable v_5_9 {
  type discrete [ 2 ] { yes, false };
}
variable v_5_10 {
  type discrete [ 2 ] { yes, false };
}
variable v_6_1 {
  type discrete [ 2 ] { yes, false };
}
variable v_6_2 {
  type discrete [ 2 ] { yes, false };
}
variable v_6_3 {
  type discrete [ 2 ] { yes, false };
}
variable v_6_4 {
  type discrete [ 2 ] { yes, false };
}
variable v_6_5 {
  type discrete [ 2 ] { yes, false };
}
variable v_6_6 {
  type discrete [ 2 ] { yes, false };
}
variable v_6_7 {
  type discrete [ 2 ] { yes, false };
}
variable v_6_8 {
  type discrete [ 2 ] { yes, false };
}
variable v_6_9 {
  type discrete [ 2 ] { yes, false };
}
variable v_6_10 {
  type discrete [ 2 ] { yes, false };
}
variable v_7_1 {
  type discrete [ 2 ] { yes, false };
}
variable v_7_2 {
  type discrete [ 2 ] { yes, false };
}
variable v_7_3 {
  type discrete [ 2 ] { yes, false };
}
variable v_7_4 {
  type discrete [ 2 ] { yes, false };
}
variable v_7_5 {
  type discrete [ 2 ] { yes, false };
}
variable v_7_6 {
  type discrete [ 2 ] { yes, false };
}
variable v_7_7 {
  type discrete [ 2 ] { yes, false };
}
variable v_7_8 {
  type discrete [ 2 ] { yes, false };
}
variable v_7_9 {
  type discrete [ 2 ] { yes, false };
}
variable v_7_10 {
  type discrete [ 2 ] { yes, false };
}
variable v_8_1 {
  type discrete [ 2 ] { yes, false };
}
variable v_8_2 {
  type discrete [ 2 ] { yes, false };
}
variable v_8_3 {
  type discrete [ 2 ] { yes, false };
}
variable v_8_4 {
  type discrete [ 2 ] { yes, false };
}
variable v_8_5 {
  type discrete [ 2 ] { yes, false };
}
variable v_8_6 {
  type discrete [ 2 ] { yes, false };
}
variable v_8_7 {
  type discrete [ 2 ] { yes, false };
}
variable v_8_8 {
  type discrete [ 2 ] { yes, false };
}
variable v_8_9 {
  type discrete [ 2 ] { yes, false };
}
variable v_8_10 {
  type discrete [ 2 ] { yes, false };
}
variable v_9_1 {
  type discrete [ 2 ] { yes, false };
}
variable v_9_2 {
  type discrete [ 2 ] { yes, false };
}
variable v_9_3 {
  type discrete [ 2 ] { yes, false };
}
variable v_9_4 {
  type discrete [ 2 ] { yes, false };
}
variable v_9_5 {
  type discrete [ 2 ] { yes, false };
}
variable v_9_6 {
  type discrete [ 2 ] { yes, false };
}
variable v_9_7 {
  type discrete [ 2 ] { yes, false };
}
variable v_9_8 {
  type discrete [ 2 ] { yes, false };
}
variable v_9_9 {
  type discrete [ 2 ] { yes, false };
}
variable v_9_10 {
  type discrete [ 2 ] { yes, false };
}
variable v_10_1 {
  type discrete [ 2 ] { yes, false };
}
variable v_10_2 {
  type discrete [ 2 ] { yes, false };
}
variable v_10_3 {
  type discrete [ 2 ] { yes, false };
}
variable v_10_4 {
  type discrete [ 2 ] { yes, false };
}
variable v_10_5 {
  type discrete [ 2 ] { yes, false };
}
variable v_10_6 {
  type discrete [ 2 ] { yes, false };
}
variable v_10_7 {
  type discrete [ 2 ] { yes, false };
}
variable v_10_8 {
  type discrete [ 2 ] { yes, false };
}
variable v_10_9 {
  type discrete [ 2 ] { yes, false };
}
variable v_10_10 {
  type discrete [ 2 ] { yes, false };
}
probability ( v_1_1 ) {
  table 0.688118, 0.311882;
}
probability ( v_1_2 | v_1_1 ) {
  (true) 1.0, 0.0;
  (false) 0.0, 1.0;
}
probability ( v_1_3 | v_1_2 ) {
  (true) 0.0, 1.0;
  (false) 1.0, 0.0;
}
probability ( v_1_4 | v_1_3 ) {
  (true) 0.0, 1.0;
  (false) 1.0, 0.0;
}
probability ( v_1_5 | v_1_4 ) {
  (true) 0.64003, 0.35997;
  (false) 0.463174, 0.536826;
}
probability ( v_1_6 | v_1_5 ) {
  (true) 0.478589, 0.521411;
  (false) 0.615693, 0.384307;
}
probability ( v_1_7 | v_1_6 ) {
  (true) 0.0, 1.0;
  (false) 1.0, 0.0;
}
probability ( v_1_8 | v_1_7 ) {
  (true) 0.853361, 0.146639;
  (false) 0.465053, 0.534947;
}
probability ( v_1_9 | v_1_8 ) {
  (true) 0.641405, 0.358595;
  (false) 0.623771, 0.376229;
}
probability ( v_1_10 | v_1_9 ) {
  (true) 0.0, 1.0;
  (false) 1.0, 0.0;
}
probability ( v_2_1 | v_1_1 ) {
  (true) 0.465633, 0.534367;
  (false) 0.349811, 0.650189;
}
probability ( v_2_2 | v_2_1, v_1_2 ) {
  (true, true) 1.0, 0.0;
  (true, false) 1.0, 0.0;
  (false, true) 0.0, 1.0;
  (false, false) 1.0, 0.0;
}
probability ( v_2_3 | v_2_2, v_1_3 ) {
  (true, true) 0.989669, 0.0103306;
  (true, false) 0.192133, 0.807867;
  (false, true) 0.201157, 0.798843;
  (false, false) 0.880726, 0.119274;
}
probability ( v_2_4 | v_2_3, v_1_4 ) {
  (true, true) 1.0, 0.0;
  (true, false) 0.0, 1.0;
  (false, true) 1.0, 0.0;
  (false, false) 0.0, 1.0;
}
probability ( v_2_5 | v_2_4, v_1_5 ) {
  (true, true) 0.612329, 0.387671;
  (true, false) 0.484447, 0.515553;
  (false, true) 0.887061, 0.112939;
  (false, false) 0.194684, 0.805316;
}
probability ( v_2_6 | v_2_5, v_1_6 ) {
  (true, true) 1.0, 0.0;
  (true, false) 1.0, 0.0;
  (false, true) 0.0, 1.0;
  (false, false) 1.0, 0.0;
}
probability ( v_2_7 | v_2_6, v_1_7 ) {
  (true, true) 0.227045, 0.772955;
  (true, false) 0.133961, 0.866039;
  (false, true) 0.23701, 0.76299;
  (false, false) 0.576856, 0.423144;
}
probability ( v_2_8 | v_2_7, v_1_8 ) {
  (true, true) 1.0, 0.0;
  (true, false) 0.0, 1.0;
  (false, true) 0.0, 1.0;
  (false, false) 0.0, 1.0;
}
probability ( v_2_9 | v_2_8, v_1_9 ) {
  (true, true) 0.428409, 0.571591;
  (true, false) 0.380647, 0.619353;
  (false, true) 0.983495, 0.0165047;
  (false, false) 0.309135, 0.690865;
}
probability ( v_2_10 | v_2_9, v_1_10 ) {
  (true, true) 0.389075, 0.610925;
  (true, false) 0.896846, 0.103154;
  (false, true) 0.00809691, 0.991903;
  (false, false) 0.257829, 0.742171;
}
probability ( v_3_1 | v_2_1 ) {
  (true) 0.0, 1.0;
  (false) 1.0, 0.0;
}
probability ( v_3_2 | v_3_1, v_2_2 ) {
  (true, true) 0.286183, 0.713817;
  (true, false) 0.81511, 0.18489;
  (false, true) 0.935877, 0.0641227;
  (false, false) 0.0266053, 0.973395;
}
probability ( v_3_3 | v_3_2, v_2_3 ) {
  (true, true) 1.0, 0.0;
  (true, false) 1.0, 0.0;
  (false, true) 1.0, 0.0;
  (false, false) 0.0, 1.0;
}
probability ( v_3_4 | v_3_3, v_2_4 ) {
  (true, true) 0.892316, 0.107684;
  (true, false) 0.676521, 0.323479;
  (false, true) 0.212333, 0.787667;
  (false, false) 0.362205, 0.637795;
}
probability ( v_3_5 | v_3_4, v_2_5 ) {
  (true, true) 0.0, 1.0;
  (true, false) 0.0, 1.0;
  (false, true) 1.0, 0.0;
  (false, false) 1.0, 0.0;
}
probability ( v_3_6 | v_3_5, v_2_6 ) {
  (true, true) 0.0, 1.0;
  (true, false) 1.0, 0.0;
  (false, true) 1.0, 0.0;
  (false, false) 0.0, 1.0;
}
probability ( v_3_7 | v_3_6, v_2_7 ) {
  (true, true) 1.0, 0.0;
  (true, false) 0.0, 1.0;
  (false, true) 0.0, 1.0;
  (false, false) 1.0, 0.0;
}
probability ( v_3_8 | v_3_7, v_2_8 ) {
  (true, true) 0.0, 1.0;
  (true, false) 1.0, 0.0;
  (false, true) 1.0, 0.0;
  (false, false) 0.0, 1.0;
}
probability ( v_3_9 | v_3_8, v_2_9 ) {
  (true, true) 1.0, 0.0;
  (true, false) 0.0, 1.0;
  (false, true) 0.0, 1.0;
  (false, false) 0.0, 1.0;
}
probability ( v_3_10 | v_3_9, v_2_10 ) {
  (true, true) 1.0, 0.0;
  (true, false) 0.0, 1.0;
  (false, true) 1.0, 0.0;
  (false, false) 1.0, 0.0;
}
probability ( v_4_1 | v_3_1 ) {
  (true) 0.229695, 0.770305;
  (false) 0.451359, 0.548641;
}
probability ( v_4_2 | v_4_1, v_3_2 ) {
  (true, true) 1.0, 0.0;
  (true, false) 0.0, 1.0;
  (false, true) 1.0, 0.0;
  (false, false) 1.0, 0.0;
}
probability ( v_4_3 | v_4_2, v_3_3 ) {
  (true, true) 1.0, 0.0;
  (true, false) 0.0, 1.0;
  (false, true) 1.0, 0.0;
  (false, false) 0.0, 1.0;
}
probability ( v_4_4 | v_4_3, v_3_4 ) {
  (true, true) 0.0, 1.0;
  (true, false) 1.0, 0.0;
  (false, true) 0.0, 1.0;
  (false, false) 0.0, 1.0;
}
probability ( v_4_5 | v_4_4, v_3_5 ) {
  (true, true) 0.682308, 0.317692;
  (true, false) 0.100311, 0.899689;
  (false, true) 0.788103, 0.211897;
  (false, false) 0.351075, 0.648925;
}
probability ( v_4_6 | v_4_5, v_3_6 ) {
  (true, true) 0.34378, 0.65622;
  (true, false) 0.778197, 0.221803;
  (false, true) 0.153612, 0.846388;
  (false, false) 0.534935, 0.465065;
}
probability ( v_4_7 | v_4_6, v_3_7 ) {
  (true, true) 0.0, 1.0;
  (true, false) 1.0, 0.0;
  (false, true) 0.0, 1.0;
  (false, false) 0.0, 1.0;
}
probability ( v_4_8 | v_4_7, v_3_8 ) {
  (true, true) 1.0, 0.0;
  (true, false) 1.0, 0.0;
  (false, true) 1.0, 0.0;
  (false, false) 0.0, 1.0;
}
probability ( v_4_9 | v_4_8, v_3_9 ) {
  (true, true) 0.224236, 0.775764;
  (true, false) 0.983312, 0.0166878;
  (false, true) 0.0646805, 0.935319;
  (false, false) 0.91, 0.0900001;
}
probability ( v_4_10 | v_4_9, v_3_10 ) {
  (true, true) 1.0, 0.0;
  (true, false) 0.0, 1.0;
  (false, true) 0.0, 1.0;
  (false, false) 1.0, 0.0;
}
probability ( v_5_1 | v_4_1 ) {
  (true) 1.0, 0.0;
  (false) 0.0, 1.0;
}
probability ( v_5_2 | v_5_1, v_4_2 ) {
  (true, true) 0.859183, 0.140817;
  (true, false) 0.61466, 0.38534;
  (false, true) 0.79241, 0.20759;
  (false, false) 0.202963, 0.797037;
}
probability ( v_5_3 | v_5_2, v_4_3 ) {
  (true, true) 1.0, 0.0;
  (true, false) 0.0, 1.0;
  (false, true) 0.0, 1.0;
  (false, false) 1.0, 0.0;
}
probability ( v_5_4 | v_5_3, v_4_4 ) {
  (true, true) 0.269769, 0.730231;
  (true, false) 0.328793, 0.671207;
  (false, true) 0.0661018, 0.933898;
  (false, false) 0.531635, 0.468365;
}
probability ( v_5_5 | v_5_4, v_4_5 ) {
  (true, true) 1.0, 0.0;
  (true, false) 0.0, 1.0;
  (false, true) 0.0, 1.0;
  (false, false) 0.0, 1.0;
}
probability ( v_5_6 | v_5_5, v_4_6 ) {
  (true, true) 0.568759, 0.431241;
  (true, false) 0.639676, 0.360324;
  (false, true) 0.0683246, 0.931675;
  (false, false) 0.392104, 0.607896;
}
probability ( v_5_7 | v_5_6, v_4_7 ) {
  (true, true) 0.0, 1.0;
  (true, false) 0.0, 1.0;
  (false, true) 0.0, 1.0;
  (false, false) 1.0, 0.0;
}
probability ( v_5_8 | v_5_7, v_4_8 ) {
  (true, true) 1.0, 0.0;
  (true, false) 1.0, 0.0;
  (false, true) 1.0, 0.0;
  (false, false) 0.0, 1.0;
}
probability ( v_5_9 | v_5_8, v_4_9 ) {
  (true, true) 0.800632, 0.199368;
  (true, false) 0.941019, 0.0589809;
  (false, true) 0.411196, 0.588804;
  (false, false) 0.823192, 0.176808;
}
probability ( v_5_10 | v_5_9, v_4_10 ) {
  (true, true) 0.680966, 0.319034;
  (true, false) 0.151985, 0.848015;
  (false, true) 0.683441, 0.316559;
  (false, false) 0.2126, 0.7874;
}
probability ( v_6_1 | v_5_1 ) {
  (true) 0.420894, 0.579106;
  (false) 0.718041, 0.281959;
}
probability ( v_6_2 | v_6_1, v_5_2 ) {
  (true, true) 0.924972, 0.0750276;
  (true, false) 0.447718, 0.552282;
  (false, true) 0.479546, 0.520454;
  (false, false) 0.493732, 0.506268;
}
probability ( v_6_3 | v_6_2, v_5_3 ) {
  (true, true) 1.0, 0.0;
  (true, false) 1.0, 0.0;
  (false, true) 0.0, 1.0;
  (false, false) 1.0, 0.0;
}
probability ( v_6_4 | v_6_3, v_5_4 ) {
  (true, true) 0.0, 1.0;
  (true, false) 0.0, 1.0;
  (false, true) 0.0, 1.0;
  (false, false) 1.0, 0.0;
}
probability ( v_6_5 | v_6_4, v_5_5 ) {
  (true, true) 0.979642, 0.0203581;
  (true, false) 0.501548, 0.498452;
  (false, true) 0.559213, 0.440787;
  (false, false) 0.780274, 0.219726;
}
probability ( v_6_6 | v_6_5, v_5_6 ) {
  (true, true) 1.0, 0.0;
  (true, false) 0.0, 1.0;
  (false, true) 1.0, 0.0;
  (false, false) 0.0, 1.0;
}
probability ( v_6_7 | v_6_6, v_5_7 ) {
  (true, true) 0.743347, 0.256653;
  (true, false) 0.863976, 0.136024;
  (false, true) 0.267441, 0.732559;
  (false, false) 0.164241, 0.835759;
}
probability ( v_6_8 | v_6_7, v_5_8 ) {
  (true, true) 0.771552, 0.228448;
  (true, false) 0.0892131, 0.910787;
  (false, true) 0.0297349, 0.970265;
  (false, false) 0.251099, 0.748901;
}
probability ( v_6_9 | v_6_8, v_5_9 ) {
  (true, true) 0.117129, 0.882871;
  (true, false) 0.79897, 0.20103;
  (false, true) 0.46878, 0.53122;
  (false, false) 0.27442, 0.72558;
}
probability ( v_6_10 | v_6_9, v_5_10 ) {
  (true, true) 0.531611, 0.468389;
  (true, false) 0.572687, 0.427313;
  (false, true) 0.107104, 0.892896;
  (false, false) 0.656643, 0.343357;
}
probability ( v_7_1 | v_6_1 ) {
  (true) 0.745613, 0.254387;
  (false) 0.636285, 0.363715;
}
probability ( v_7_2 | v_7_1, v_6_2 ) {
  (true, true) 1.0, 0.0;
  (true, false) 1.0, 0.0;
  (false, true) 1.0, 0.0;
  (false, false) 0.0, 1.0;
}
probability ( v_7_3 | v_7_2, v_6_3 ) {
  (true, true) 1.0, 0.0;
  (true, false) 0.0, 1.0;
  (false, true) 0.0, 1.0;
  (false, false) 0.0, 1.0;
}
probability ( v_7_4 | v_7_3, v_6_4 ) {
  (true, true) 1.0, 0.0;
  (true, false) 1.0, 0.0;
  (false, true) 0.0, 1.0;
  (false, false) 1.0, 0.0;
}
probability ( v_7_5 | v_7_4, v_6_5 ) {
  (true, true) 0.0, 1.0;
  (true, false) 1.0, 0.0;
  (false, true) 0.0, 1.0;
  (false, false) 0.0, 1.0;
}
probability ( v_7_6 | v_7_5, v_6_6 ) {
  (true, true) 0.793888, 0.206112;
  (true, false) 0.860979, 0.139021;
  (false, true) 0.45527, 0.54473;
  (false, false) 0.366576, 0.633424;
}
probability ( v_7_7 | v_7_6, v_6_7 ) {
  (true, true) 0.111913, 0.888087;
  (true, false) 0.237689, 0.762311;
  (false, true) 0.713696, 0.286304;
  (false, false) 0.748198, 0.251802;
}
probability ( v_7_8 | v_7_7, v_6_8 ) {
  (true, true) 0.0185226, 0.981477;
  (true, false) 0.164757, 0.835243;
  (false, true) 0.425577, 0.574423;
  (false, false) 0.293759, 0.706241;
}
probability ( v_7_9 | v_7_8, v_6_9 ) {
  (true, true) 0.0, 1.0;
  (true, false) 1.0, 0.0;
  (false, true) 0.0, 1.0;
  (false, false) 0.0, 1.0;
}
probability ( v_7_10 | v_7_9, v_6_10 ) {
  (true, true) 1.0, 0.0;
  (true, false) 1.0, 0.0;
  (false, true) 0.0, 1.0;
  (false, false) 1.0, 0.0;
}
probability ( v_8_1 | v_7_1 ) {
  (true) 0.785901, 0.214099;
  (false) 0.883206, 0.116794;
}
probability ( v_8_2 | v_8_1, v_7_2 ) {
  (true, true) 0.0, 1.0;
  (true, false) 1.0, 0.0;
  (false, true) 1.0, 0.0;
  (false, false) 0.0, 1.0;
}
probability ( v_8_3 | v_8_2, v_7_3 ) {
  (true, true) 0.407653, 0.592347;
  (true, false) 0.465833, 0.534167;
  (false, true) 0.576805, 0.423195;
  (false, false) 0.519565, 0.480435;
}
probability ( v_8_4 | v_8_3, v_7_4 ) {
  (true, true) 0.290502, 0.709498;
  (true, false) 0.267763, 0.732237;
  (false, true) 0.313872, 0.686128;
  (false, false) 0.309024, 0.690976;
}
probability ( v_8_5 | v_8_4, v_7_5 ) {
  (true, true) 0.0, 1.0;
  (true, false) 0.0, 1.0;
  (false, true) 1.0, 0.0;
  (false, false) 0.0, 1.0;
}
probability ( v_8_6 | v_8_5, v_7_6 ) {
  (true, true) 0.577557, 0.422443;
  (true, false) 0.959351, 0.0406489;
  (false, true) 0.83411, 0.16589;
  (false, false) 0.580728, 0.419272;
}
probability ( v_8_7 | v_8_6, v_7_7 ) {
  (true, true) 0.217671, 0.782329;
  (true, false) 0.398368, 0.601632;
  (false, true) 0.235109, 0.764891;
  (false, false) 0.00357216, 0.996428;
}
probability ( v_8_8 | v_8_7, v_7_8 ) {
  (true, true) 0.0, 1.0;
  (true, false) 0.0, 1.0;
  (false, true) 0.0, 1.0;
  (false, false) 1.0, 0.0;
}
probability ( v_8_9 | v_8_8, v_7_9 ) {
  (true, true) 1.0, 0.0;
  (true, false) 0.0, 1.0;
  (false, true) 0.0, 1.0;
  (false, false) 0.0, 1.0;
}
probability ( v_8_10 | v_8_9, v_7_10 ) {
  (true, true) 0.505346, 0.494654;
  (true, false) 0.411198, 0.588802;
  (false, true) 0.891426, 0.108574;
  (false, false) 0.81437, 0.18563;
}
probability ( v_9_1 | v_8_1 ) {
  (true) 0.630875, 0.369125;
  (false) 0.417153, 0.582847;
}
probability ( v_9_2 | v_9_1, v_8_2 ) {
  (true, true) 1.0, 0.0;
  (true, false) 0.0, 1.0;
  (false, true) 0.0, 1.0;
  (false, false) 1.0, 0.0;
}
probability ( v_9_3 | v_9_2, v_8_3 ) {
  (true, true) 0.0, 1.0;
  (true, false) 0.0, 1.0;
  (false, true) 1.0, 0.0;
  (false, false) 0.0, 1.0;
}
probability ( v_9_4 | v_9_3, v_8_4 ) {
  (true, true) 0.295659, 0.704341;
  (true, false) 0.299246, 0.700754;
  (false, true) 0.790592, 0.209408;
  (false, false) 0.604601, 0.395399;
}
probability ( v_9_5 | v_9_4, v_8_5 ) {
  (true, true) 1.0, 0.0;
  (true, false) 0.0, 1.0;
  (false, true) 0.0, 1.0;
  (false, false) 1.0, 0.0;
}
probability ( v_9_6 | v_9_5, v_8_6 ) {
  (true, true) 0.181447, 0.818553;
  (true, false) 0.774112, 0.225888;
  (false, true) 0.464385, 0.535615;
  (false, false) 0.686794, 0.313206;
}
probability ( v_9_7 | v_9_6, v_8_7 ) {
  (true, true) 0.0, 1.0;
  (true, false) 0.0, 1.0;
  (false, true) 0.0, 1.0;
  (false, false) 1.0, 0.0;
}
probability ( v_9_8 | v_9_7, v_8_8 ) {
  (true, true) 0.490046, 0.509954;
  (true, false) 0.657721, 0.342279;
  (false, true) 0.158623, 0.841377;
  (false, false) 0.528621, 0.471379;
}
probability ( v_9_9 | v_9_8, v_8_9 ) {
  (true, true) 1.0, 0.0;
  (true, false) 1.0, 0.0;
  (false, true) 1.0, 0.0;
  (false, false) 0.0, 1.0;
}
probability ( v_9_10 | v_9_9, v_8_10 ) {
  (true, true) 0.0, 1.0;
  (true, false) 1.0, 0.0;
  (false, true) 0.0, 1.0;
  (false, false) 0.0, 1.0;
}
probability ( v_10_1 | v_9_1 ) {
  (true) 1.0, 0.0;
  (false) 0.0, 1.0;
}
probability ( v_10_2 | v_10_1, v_9_2 ) {
  (true, true) 0.438185, 0.561815;
  (true, false) 0.760008, 0.239992;
  (false, true) 0.534593, 0.465407;
  (false, false) 0.325016, 0.674984;
}
probability ( v_10_3 | v_10_2, v_9_3 ) {
  (true, true) 0.308704, 0.691296;
  (true, false) 0.7894, 0.2106;
  (false, true) 0.628249, 0.371751;
  (false, false) 0.494014, 0.505986;
}
probability ( v_10_4 | v_10_3, v_9_4 ) {
  (true, true) 1.0, 0.0;
  (true, false) 0.0, 1.0;
  (false, true) 1.0, 0.0;
  (false, false) 0.0, 1.0;
}
probability ( v_10_5 | v_10_4, v_9_5 ) {
  (true, true) 0.0, 1.0;
  (true, false) 0.0, 1.0;
  (false, true) 1.0, 0.0;
  (false, false) 0.0, 1.0;
}
probability ( v_10_6 | v_10_5, v_9_6 ) {
  (true, true) 0.0, 1.0;
  (true, false) 1.0, 0.0;
  (false, true) 1.0, 0.0;
  (false, false) 1.0, 0.0;
}
probability ( v_10_7 | v_10_6, v_9_7 ) {
  (true, true) 0.785303, 0.214697;
  (true, false) 0.320072, 0.679928;
  (false, true) 0.661106, 0.338894;
  (false, false) 0.210688, 0.789312;
}
probability ( v_10_8 | v_10_7, v_9_8 ) {
  (true, true) 0.0, 1.0;
  (true, false) 1.0, 0.0;
  (false, true) 0.0, 1.0;
  (false, false) 0.0, 1.0;
}
probability ( v_10_9 | v_10_8, v_9_9 ) {
  (true, true) 0.408318, 0.591682;
  (true, false) 0.763289, 0.236711;
  (false, true) 0.443191, 0.556809;
  (false, false) 0.902332, 0.0976677;
}
probability ( v_10_10 | v_10_9, v_9_10 ) {
  (true, true) 0.572605, 0.427395;
  (true, false) 0.425373, 0.574627;
  (false, true) 0.0403966, 0.959603;
  (false, false) 0.620335, 0.379665;
}
